svm_type c_svc
kernel_type rbf
gamma 0.000121462
nr_class 2
total_sv 68
rho -1.13277
label 0 1
nr_sv 35 33
SV
1 0:2 2:1 3:5 4:3 5:7 6:5 8:23 9:6 10:1 13:4 20:4 21:4 23:3 24:2 25:5 27:1 28:3 29:19 30:1 31:1 32:3 34:4 35:1 36:9 38:18 42:1 45:21 46:6 49:1 50:5 53:2 54:3 55:1 56:2 60:1 65:3 67:2 70:1 71:1 72:1 73:2 78:7 81:8 82:3 83:4 85:11 90:3 100:1 101:1 105:2 108:2 115:1 118:1 126:1 137:1 141:1 142:1 143:2 144:4 145:2 146:2 151:1 156:2 157:1 158:3 173:2 176:1 180:1 181:1 199:1 205:3 206:2 215:3 216:2 220:1 241:1 246:1 277:4 278:4 290:5 304:2 306:2 308:1 309:2 318:1 323:1 339:1 345:1 350:2 365:1 373:1 383:1 395:1 444:1 445:1 453:1 454:1 455:1 475:3 483:1 493:1 498:1 502:1 506:2 514:1 528:1 534:1 557:1 562:1 563:1 578:2 589:1 613:1 615:2 622:1 643:2 669:4 682:1 706:2 715:1 716:1 732:1 741:1 780:2 781:1 816:1 817:1 825:1 888:3 905:1 908:1 910:1 921:1 960:1 969:1 1002:1 1025:1 1050:1 1055:1 1073:1 1085:1 1182:1 1218:1 1299:1 1323:1 1325:1 1341:1 1357:1 1361:1 1371:1 1375:1 1435:2 1436:2 1445:2 1446:2 1450:1 1483:2 1507:2 1556:1 1596:1 1673:1 1714:2 1833:1 1837:1 1891:1 1988:1 2013:1 2105:1 2107:1 2210:1 2310:1 2346:1 2376:1 2402:1 2464:1 2602:1 2702:1 2869:2 2883:1 3017:1 3121:1 3178:1 3812:1 4083:1 4134:1 4194:1 4667:1 4673:1 4985:1 5229:1 5300:2 5533:2 5534:5 5535:1 5592:1 5654:2 5659:1 5681:1 5682:1 5934:1 6223:1 6791:1 7615:2 7852:1 7991:1 8051:1 8093:1 8094:1 8095:1 8096:1 8097:1 8098:1 8099:1 8100:1 8101:1 8102:1 8103:3 8104:1 8105:1 8106:1 8107:1 8111:1 
1 0:2 2:1 3:1 4:1 5:4 6:3 7:1 8:8 9:5 10:8 13:1 20:1 21:6 23:2 24:3 25:6 29:21 36:6 38:14 41:1 45:11 46:2 47:1 50:4 54:6 55:2 60:1 65:4 67:5 68:1 72:2 77:2 78:4 81:5 82:1 85:8 90:3 108:2 115:1 130:1 137:3 142:3 146:2 149:1 166:1 192:3 195:1 199:1 200:1 203:3 204:1 205:2 212:1 216:4 238:1 243:1 244:1 259:2 276:2 284:1 297:1 301:1 305:1 306:1 308:2 309:3 345:1 372:1 374:1 380:1 383:3 390:1 391:1 402:2 403:1 410:1 416:2 444:1 469:1 502:1 506:2 527:2 534:1 539:2 587:1 620:1 637:1 651:1 669:1 724:2 730:1 783:1 785:1 861:1 901:1 907:1 953:1 1038:1 1094:2 1107:2 1144:1 1158:1 1235:1 1237:2 1309:1 1311:1 1370:1 1430:1 1550:1 1554:1 1566:2 1665:1 1893:1 1929:1 2050:1 2058:1 2092:1 2333:1 2375:1 2513:1 2514:1 2547:1 2557:1 2587:1 2605:1 2710:1 2771:3 2965:1 2968:5 2970:1 2986:1 3574:1 4400:1 4401:1 4523:1 4799:1 4803:1 5068:1 5745:1 6025:3 6083:2 7207:1 7452:1 7740:1 7741:1 7742:1 7743:1 7744:1 7745:1 7746:1 7747:1 7748:1 
1 0:2 3:1 4:1 5:5 6:3 8:21 9:5 13:1 20:1 21:3 23:1 25:3 29:2 34:1 35:1 36:5 38:12 40:2 45:6 46:1 50:2 52:1 54:5 56:1 60:1 65:2 67:4 68:1 72:1 73:4 78:1 81:3 85:1 103:1 108:2 110:1 115:1 118:2 129:1 137:3 142:1 154:1 167:1 168:1 172:1 173:2 176:1 190:1 195:1 196:1 216:1 238:2 246:1 258:1 259:1 276:2 301:2 306:1 309:2 335:1 358:1 391:2 395:1 402:1 407:2 410:1 412:1 418:1 441:1 444:2 454:2 475:6 493:1 511:1 514:1 534:2 539:3 568:1 589:1 591:1 600:1 613:1 615:2 617:1 620:1 643:2 650:1 656:1 657:1 668:1 675:1 678:1 711:1 715:1 721:1 750:1 775:1 781:1 816:1 817:1 859:1 861:1 910:1 930:2 978:1 979:1 988:1 989:1 1038:1 1094:1 1131:1 1252:1 1272:1 1317:1 1350:2 1405:1 1414:1 1431:1 1498:1 1505:1 1555:1 1556:1 1582:1 1583:1 1610:1 1615:1 1701:1 1964:1 2202:1 2404:1 2416:2 2464:1 2497:1 2689:1 2710:1 2735:1 2873:1 3017:1 3226:1 3423:1 3589:2 3950:1 4279:3 4438:1 4732:1 5149:1 5506:1 5529:1 5748:1 6330:1 6365:1 6659:1 7162:3 7163:2 7306:1 7307:1 7308:1 7309:1 7310:1 7311:1 7312:1 7313:1 7314:1 7315:1 7316:1 
1 0:2 2:1 3:2 4:2 5:2 6:2 7:1 8:9 9:1 10:3 21:5 24:3 25:3 29:9 31:2 36:3 38:4 40:1 45:5 46:1 50:1 54:5 55:1 65:1 67:2 72:1 76:2 78:4 81:9 83:1 85:5 108:2 115:1 129:1 137:1 139:2 156:1 158:3 166:1 167:1 168:1 169:1 170:1 171:1 180:1 187:1 204:1 205:1 208:1 216:1 238:1 242:1 244:1 249:1 277:1 278:2 279:1 280:1 285:1 292:1 301:2 334:1 338:1 339:1 365:1 453:2 454:2 458:1 460:1 486:1 508:1 589:1 622:1 669:2 742:1 745:2 780:1 781:1 814:1 816:1 817:1 891:1 1034:1 1212:1 1266:1 1315:1 1435:1 1487:1 1507:1 1711:1 1717:1 1761:1 2011:1 2028:1 2128:1 2323:1 2515:1 2920:1 3017:1 3342:1 4753:1 5796:1 6658:1 7132:1 7351:1 7395:1 7577:1 7578:1 8155:1 8232:1 8233:1 
1 0:2 2:1 3:3 4:1 5:3 6:3 8:7 9:2 10:2 11:3 12:2 21:2 24:2 25:9 26:1 27:1 29:7 30:1 31:2 32:1 33:1 34:1 36:3 38:5 41:3 45:4 46:1 50:2 54:1 55:1 56:1 65:2 67:2 76:1 78:1 81:3 85:2 90:1 107:4 108:1 115:1 137:2 143:1 145:2 171:1 195:1 203:1 205:3 213:1 238:1 241:1 244:1 245:1 246:1 256:1 257:1 258:1 259:1 263:1 268:1 276:1 292:1 306:1 308:1 309:1 310:3 311:2 319:2 339:1 402:1 403:2 424:2 444:1 480:1 481:1 482:2 483:1 484:1 485:1 486:1 487:2 488:1 489:1 490:1 491:1 492:1 493:1 494:1 495:1 496:1 497:1 498:1 499:1 500:1 501:1 502:1 503:1 504:1 505:2 506:1 507:1 508:1 509:1 510:1 511:1 512:1 513:1 514:1 515:1 
1 0:2 2:2 3:4 4:3 5:5 6:5 8:9 9:1 10:1 12:1 21:4 23:3 24:2 25:5 29:5 36:3 38:5 41:1 42:1 45:5 49:1 52:1 54:4 65:1 67:2 72:1 73:2 77:1 78:1 81:3 82:2 85:1 90:1 103:3 108:1 115:1 118:2 124:1 129:1 137:2 142:1 151:1 156:1 168:1 169:1 173:2 174:1 176:1 192:3 216:2 238:2 241:1 259:1 305:1 309:2 319:1 323:1 364:4 368:1 395:1 403:2 416:1 449:1 475:3 505:3 513:1 520:4 523:1 527:1 534:1 539:2 583:1 589:1 590:1 638:1 711:1 724:1 871:1 929:2 941:1 1007:1 1034:1 1067:1 1090:1 1105:1 1107:1 1144:1 1315:2 1404:3 1431:1 1692:1 1704:1 1711:1 1715:1 1729:2 1730:2 1773:1 1895:2 1993:3 2032:1 2464:1 2501:1 2576:2 2773:2 2869:1 2880:1 2929:1 2968:1 2994:1 3008:1 3017:1 3433:1 3531:1 3602:1 3605:1 5685:1 6971:1 7401:1 7402:1 7403:1 7404:2 7405:3 7406:1 7407:1 7408:1 7409:1 7410:2 7411:1 7412:1 
1 0:2 2:2 3:4 4:4 5:6 6:4 8:17 9:6 10:1 13:4 20:4 21:4 23:3 24:2 25:5 27:1 28:3 29:19 30:1 31:1 35:1 36:7 38:15 45:20 46:6 49:1 50:4 53:2 54:2 55:1 60:1 65:3 67:2 70:1 71:1 72:1 73:2 78:7 81:7 82:3 83:4 85:9 90:3 100:1 101:1 105:2 108:2 115:1 118:1 126:1 137:1 141:1 142:1 143:2 144:4 145:2 146:1 151:1 156:2 158:3 173:1 176:1 181:1 205:1 206:1 215:2 216:2 220:1 241:1 246:1 277:4 278:4 290:5 304:2 306:2 308:1 309:1 318:1 323:1 339:1 345:1 365:1 383:1 395:1 444:1 445:1 453:1 454:1 483:1 493:1 498:1 502:1 506:1 528:1 557:1 578:1 589:1 622:1 669:4 706:2 715:1 716:1 732:1 780:2 781:1 816:1 817:1 888:3 905:1 908:1 921:1 960:1 969:1 1002:1 1025:1 1050:1 1073:1 1085:1 1182:1 1299:1 1357:1 1371:1 1375:1 1435:2 1436:2 1445:2 1446:2 1556:1 1596:1 1673:1 1714:2 1833:1 1837:1 1891:1 1988:1 2013:1 2210:1 2346:1 2376:1 2402:1 2464:1 2602:1 2702:1 2869:2 2883:1 3017:1 3121:1 3178:1 3812:1 4083:1 4667:1 4673:1 5229:1 5300:2 5533:2 5534:5 5535:1 5592:1 5654:2 5659:1 5934:1 6223:1 6791:1 7615:2 7991:1 8051:1 8093:1 8094:1 8095:1 8096:1 8097:1 8098:1 8099:1 8100:1 8101:1 8102:1 8103:3 8104:1 8105:1 8106:1 8107:1 
1 0:2 2:1 3:1 4:1 5:3 6:3 8:6 9:3 10:4 12:1 13:4 20:4 21:2 23:1 24:3 25:4 28:1 29:15 36:2 38:6 45:7 47:2 49:1 50:3 54:4 60:1 65:1 67:3 81:2 82:2 85:3 90:6 100:1 108:2 115:1 129:1 137:2 146:2 154:1 156:1 165:4 166:4 167:1 180:1 187:1 191:3 195:2 216:1 273:1 284:1 306:1 339:1 363:1 384:1 393:1 395:1 416:1 441:1 443:2 454:1 487:1 585:2 625:1 669:1 828:1 907:2 921:1 930:1 1002:1 1017:1 1021:1 1113:1 1493:1 1657:3 1836:1 1954:2 2001:3 2288:1 2464:2 2933:1 2975:1 3017:2 3259:1 3332:1 3467:4 3525:1 3526:1 3531:1 3532:2 3560:1 6972:1 7864:1 7865:1 7866:1 7867:1 7868:1 7869:1 7870:1 7871:2 7872:2 7873:1 7874:1 
1 0:2 3:4 4:2 5:7 6:6 7:1 8:16 9:8 10:3 12:1 21:7 23:1 24:9 25:17 26:3 27:2 28:4 29:24 30:3 31:3 36:3 38:14 40:3 45:11 46:1 47:2 49:1 50:2 51:1 54:6 56:1 60:1 65:3 67:7 70:1 71:4 72:1 73:1 76:1 78:4 81:3 82:4 83:1 85:4 86:1 90:2 100:1 105:1 107:2 111:1 115:2 137:4 141:1 142:1 143:1 144:2 145:1 146:1 154:1 156:2 157:2 162:2 166:1 167:1 168:1 169:1 181:1 197:3 199:1 216:1 220:2 231:3 234:1 239:2 245:2 246:1 247:1 257:4 258:1 268:1 273:1 277:1 278:1 284:1 285:1 292:1 301:2 303:1 304:1 309:1 312:1 319:4 323:1 324:1 325:1 335:1 339:1 344:1 363:1 365:1 372:1 384:1 391:2 395:1 403:2 424:2 453:1 454:1 482:2 541:1 587:1 589:2 594:1 609:1 622:1 632:1 635:1 716:1 744:1 780:1 781:2 802:1 830:1 849:1 851:2 865:3 899:1 908:1 912:1 994:1 1024:1 1027:1 1029:1 1034:1 1109:2 1110:2 1114:1 1188:1 1284:1 1312:1 1313:1 1473:1 1553:1 1716:1 1859:1 1873:1 1947:1 2028:1 2128:1 2136:2 2166:1 2176:1 2247:1 2279:1 2666:1 2782:5 2869:1 3545:1 3546:1 3578:1 3871:1 3877:1 3954:1 4667:1 4710:1 4927:2 4943:1 5074:1 5289:2 6384:1 6468:1 6506:1 6507:1 7384:1 7453:1 7577:1 7578:1 7696:1 7935:1 7958:1 7972:1 8063:1 8155:2 8191:1 8192:1 8193:1 8208:1 8219:1 8228:1 8229:1 8230:1 8231:1 
1 0:2 2:1 3:1 4:1 5:3 6:3 8:6 9:5 10:5 12:1 13:1 14:1 20:1 21:2 23:1 24:1 25:1 29:7 31:1 36:1 38:3 45:4 50:2 52:2 54:1 55:1 59:1 60:1 63:1 65:2 81:3 85:1 108:1 115:1 132:1 136:1 137:1 143:1 145:1 150:1 180:1 191:1 195:2 216:1 220:1 256:1 257:1 265:1 273:1 276:2 306:1 308:1 309:1 310:2 311:1 318:1 334:2 355:1 359:1 369:1 392:2 393:2 394:2 395:1 396:1 397:1 398:1 399:1 400:1 401:1 402:2 403:1 404:1 405:1 406:1 407:1 408:1 409:1 410:1 411:1 412:1 413:1 414:1 415:1 416:1 417:1 418:1 419:1 420:1 421:1 422:1 423:1 424:1 425:1 426:1 427:1 428:1 429:1 430:1 431:1 432:1 433:1 434:1 435:1 436:1 437:1 438:1 439:1 440:1 441:1 442:1 443:1 444:1 445:1 446:1 
1 0:2 2:1 3:2 4:1 5:5 6:5 7:1 8:16 9:5 10:9 13:1 14:3 15:4 20:1 21:6 23:4 24:5 25:11 28:2 29:12 30:1 31:2 32:3 34:3 36:10 38:11 41:1 42:1 45:13 46:2 47:3 50:1 51:1 54:5 55:1 56:6 61:1 62:1 63:1 65:3 72:1 73:1 76:3 78:7 79:1 81:7 82:1 83:1 85:8 90:3 99:1 103:1 108:2 115:1 118:2 137:3 141:1 142:1 143:1 145:1 150:1 154:3 155:1 166:1 168:2 173:1 174:2 176:1 190:2 191:3 195:1 197:2 199:4 205:1 216:5 235:2 238:3 242:1 246:1 248:2 249:1 259:2 274:1 282:1 305:1 306:2 308:3 309:1 310:4 318:1 333:1 339:1 344:2 353:1 358:1 361:1 364:1 373:1 383:1 391:1 395:1 410:2 416:1 441:1 444:3 464:1 475:5 481:1 493:1 502:2 520:1 523:1 534:2 538:1 539:2 543:1 544:1 562:1 563:2 582:1 587:2 590:1 615:4 643:3 649:1 651:2 669:1 672:1 682:1 709:2 732:1 742:1 750:2 764:1 771:1 783:1 787:1 807:1 816:1 817:1 908:1 931:1 934:1 937:1 946:1 987:1 1094:1 1159:1 1185:1 1218:1 1227:1 1284:1 1341:1 1376:1 1410:1 1431:2 1451:1 1559:2 1576:1 1595:1 1613:1 1644:1 1694:1 1729:1 1730:1 1779:1 1828:2 1944:1 2028:1 2050:1 2052:1 2105:1 2107:1 2123:1 2125:1 2209:1 2251:1 2323:1 2342:1 2416:1 2617:1 2758:2 2869:1 2894:1 2903:1 2905:1 2912:1 2933:1 2938:1 2939:1 2954:1 3241:1 3371:1 3533:1 3682:1 3871:2 3941:1 3954:1 4065:1 4168:1 4206:1 4514:1 4710:1 4876:1 4943:1 5372:1 5381:1 6466:1 6467:1 6568:1 6779:1 6883:1 7025:1 7115:1 7344:1 7375:1 7518:1 7579:1 7689:1 7690:1 7691:1 7692:1 7693:1 7694:1 7695:1 7696:1 7697:1 7698:1 7699:1 7700:1 7701:1 7702:1 7703:1 7704:1 7705:3 7706:1 7707:1 
1 0:2 2:1 3:1 4:1 5:3 6:3 8:6 9:5 10:5 12:1 13:1 14:1 20:1 21:2 23:1 24:1 25:1 29:7 31:1 36:1 38:3 45:4 50:2 52:2 54:1 55:1 59:1 60:1 63:1 65:2 81:3 85:1 108:1 115:1 132:1 136:1 137:1 143:1 145:1 150:1 180:1 191:1 195:2 216:1 220:1 256:1 257:1 265:1 273:1 276:2 306:1 308:1 309:1 310:2 311:1 318:1 334:2 355:1 359:1 369:1 392:2 393:2 394:2 395:1 396:1 397:1 398:1 399:1 400:1 401:1 402:2 403:1 404:1 405:1 406:1 407:1 408:1 409:1 410:1 411:1 412:1 413:1 414:1 415:1 416:1 417:1 418:1 419:1 420:1 421:1 422:1 423:1 424:1 425:1 426:1 427:1 428:1 429:1 430:1 431:1 432:1 433:1 434:1 435:1 436:1 437:1 438:1 439:1 440:1 441:1 442:1 443:1 444:1 445:1 446:1 
1 0:2 2:1 3:1 4:1 5:3 6:3 8:6 9:5 10:5 12:1 13:1 14:1 20:1 21:2 23:1 24:1 25:1 29:7 31:1 36:1 38:3 45:4 50:2 52:2 54:1 55:1 59:1 60:1 63:1 65:2 81:3 85:1 108:1 115:1 132:1 136:1 137:1 143:1 145:1 150:1 180:1 191:1 195:2 216:1 220:1 256:1 257:1 265:1 273:1 276:2 306:1 308:1 309:1 310:2 311:1 318:1 334:2 355:1 359:1 369:1 392:2 393:2 394:2 395:1 396:1 397:1 398:1 399:1 400:1 401:1 402:2 403:1 404:1 405:1 406:1 407:1 408:1 409:1 410:1 411:1 412:1 413:1 414:1 415:1 416:1 417:1 418:1 419:1 420:1 421:1 422:1 423:1 424:1 425:1 426:1 427:1 428:1 429:1 430:1 431:1 432:1 433:1 434:1 435:1 436:1 437:1 438:1 439:1 440:1 441:1 442:1 443:1 444:1 445:1 446:1 
1 0:2 2:1 3:1 4:1 5:3 6:3 8:6 9:2 10:3 13:1 20:1 21:3 23:1 24:3 25:7 29:7 38:2 41:2 42:1 45:4 46:1 47:1 50:1 52:1 54:4 56:1 65:2 67:2 71:1 78:5 82:1 85:1 113:1 115:1 128:1 142:1 146:1 154:1 173:1 205:1 238:1 239:1 244:1 245:1 273:1 292:1 298:1 299:1 301:1 309:1 312:1 323:1 363:1 372:1 391:3 395:1 403:1 460:2 497:1 501:1 514:1 534:1 539:1 638:1 742:1 820:2 851:1 921:1 935:1 969:2 1021:1 1062:1 1266:1 1275:1 1284:1 1338:1 1513:1 1682:1 2066:1 2236:1 2259:1 2790:1 2930:1 3179:1 3941:1 3947:1 4164:1 4438:1 5796:1 6883:1 7595:1 7634:1 7758:1 7759:1 7760:1 7761:1 7762:1 7763:1 7764:1 7765:1 
1 0:2 3:1 4:1 5:3 6:3 7:1 8:9 9:5 10:11 12:1 21:3 24:3 25:7 26:1 27:1 28:1 29:9 30:1 31:2 36:4 38:4 41:2 45:8 50:4 54:3 55:1 56:1 65:3 67:3 71:1 78:2 81:3 82:1 85:2 90:1 114:1 115:2 139:1 146:1 151:1 154:1 171:1 180:1 205:1 219:1 230:1 238:1 241:1 242:1 244:1 249:1 256:2 257:2 263:1 297:1 301:1 304:2 308:1 309:2 312:1 327:1 339:2 383:1 424:1 432:1 489:1 494:1 506:2 553:1 589:1 600:1 620:1 669:1 750:1 781:1 783:1 820:1 838:1 849:1 851:1 1021:2 1161:1 1236:1 1242:1 1275:1 1316:1 1526:1 1586:1 1632:1 1916:1 2066:1 2092:1 2416:2 2560:1 2900:1 3009:1 3230:1 3336:1 4150:1 4749:1 4948:1 5170:1 5812:1 5892:1 6056:1 6414:1 6473:1 6481:1 7541:1 7624:1 8083:2 8084:1 8085:1 8086:1 8087:1 8088:2 8089:1 8090:1 8091:1 8092:1 
0.7173494016889407 0:2 2:2 3:2 4:2 5:3 6:2 8:13 9:1 10:1 12:1 14:1 21:3 24:4 25:14 29:6 30:3 31:1 32:3 34:2 36:6 37:1 38:10 41:2 42:1 45:6 47:1 50:1 53:1 54:3 55:2 67:2 76:2 78:5 80:1 81:1 85:3 99:1 103:1 108:1 115:1 137:1 142:6 146:1 147:1 164:1 171:1 172:1 173:2 188:1 189:1 191:1 197:1 217:1 238:4 241:1 244:1 255:1 256:1 257:1 258:1 268:1 276:1 278:1 299:1 301:1 305:1 312:1 332:1 359:1 373:5 388:1 391:1 403:6 444:2 445:1 446:1 485:1 494:1 514:1 527:1 529:1 531:1 563:1 582:1 589:1 590:1 599:1 637:2 643:2 690:1 704:2 706:1 709:2 715:1 716:1 724:1 725:1 778:1 780:1 789:1 803:1 804:1 830:1 850:5 861:2 865:1 932:1 960:1 975:1 979:1 1021:1 1039:1 1054:1 1080:1 1117:1 1118:1 1119:1 1144:1 1159:1 1187:1 1192:1 1200:1 1216:1 1231:1 1237:1 1281:1 1338:1 1339:1 1350:1 1361:1 1375:1 1450:1 1452:1 1506:1 1507:2 1514:1 1542:1 1584:1 1656:2 1790:1 1880:1 1927:1 1928:1 2195:1 2440:1 3229:2 3261:1 3403:2 3404:1 3405:1 3406:1 3407:1 3408:1 3409:1 3410:1 3411:1 3412:1 3413:2 3414:1 3415:1 3416:1 3417:1 3418:1 
1 0:2 3:3 5:3 6:3 7:1 8:11 9:5 10:4 14:1 21:5 24:6 25:9 27:2 28:2 29:8 30:2 31:5 32:4 34:4 36:4 38:9 40:2 41:1 45:5 47:4 54:6 56:2 60:1 63:1 65:1 67:2 76:2 78:2 81:6 85:5 90:2 97:1 99:1 103:1 107:2 115:1 118:1 137:1 142:2 154:1 164:1 166:1 171:2 173:3 178:1 187:1 199:1 205:2 232:1 238:1 245:1 265:1 268:1 301:1 312:1 316:1 338:1 339:1 354:1 364:1 373:1 391:1 403:2 444:1 453:1 454:1 460:2 475:1 481:1 483:1 497:1 537:1 538:1 545:1 562:1 563:1 572:1 590:1 605:1 613:1 615:3 623:1 625:1 637:1 643:4 682:1 716:1 725:2 771:1 780:1 789:1 816:1 817:1 834:1 861:3 874:1 908:1 925:1 934:1 976:1 1054:1 1094:1 1115:2 1159:1 1177:1 1218:1 1227:1 1284:2 1341:1 1369:1 1371:1 1377:1 1450:2 1507:1 1523:1 1817:1 2058:2 2105:1 2107:1 2123:1 2125:1 2186:1 2261:1 2408:1 2464:2 2513:1 2693:1 2702:1 2751:1 2771:2 2848:1 3017:2 3023:1 3145:1 3281:1 3309:1 3326:1 3342:2 3941:1 3954:1 4505:2 4506:2 4667:1 4769:1 4770:1 4851:1 5659:1 6022:1 6466:1 6467:1 6556:1 7299:1 7766:1 7767:2 7768:1 7769:1 
1 0:2 2:1 3:1 4:1 5:3 6:3 7:1 8:14 9:4 10:3 11:1 12:1 13:2 14:3 15:4 16:1 17:1 18:1 19:1 20:2 21:4 22:1 23:2 24:1 25:1 28:1 29:14 36:5 38:7 39:1 40:1 45:3 47:1 50:1 51:1 54:3 65:3 67:3 70:1 71:1 72:1 78:1 81:5 85:2 99:3 108:1 115:1 120:1 124:1 131:1 143:2 145:1 146:1 154:1 156:1 157:1 161:1 162:1 180:1 187:1 189:1 190:1 191:3 197:1 213:1 216:1 238:1 244:1 249:2 301:2 308:1 310:3 311:2 327:1 334:1 339:2 358:1 360:1 361:1 384:1 444:1 447:1 448:1 449:1 450:1 451:1 452:1 453:1 454:1 455:1 456:1 457:1 458:1 459:2 460:1 461:1 462:1 463:1 464:1 465:1 466:1 467:1 468:1 469:1 470:1 471:1 472:1 473:1 474:1 475:1 476:1 477:1 478:1 479:1 480:1 
0.8985307484791152 0:2 2:1 3:4 4:2 5:3 6:3 8:7 9:3 21:1 24:4 25:5 29:6 30:1 31:1 32:2 33:1 34:3 38:5 45:10 46:1 49:1 50:2 52:1 54:2 55:2 65:5 67:6 72:2 73:3 76:1 78:1 81:1 82:1 85:3 90:1 104:1 105:1 106:1 107:2 115:1 118:1 137:1 142:1 145:1 166:2 167:2 168:2 173:1 203:2 206:2 216:2 298:1 303:1 306:2 308:2 309:1 310:1 311:1 323:1 339:1 351:1 356:1 359:2 364:4 368:1 372:1 391:1 395:1 403:1 444:1 482:2 514:1 515:1 519:1 520:2 578:1 589:1 669:1 709:1 716:1 772:1 781:1 985:1 987:2 1315:1 1318:1 1328:2 1330:1 1435:1 1436:2 1725:1 1729:1 1730:1 1964:1 2572:1 2725:1 2869:1 2951:1 3179:1 3645:1 4762:1 4897:1 5014:1 6247:1 6681:1 6779:1 7408:1 7814:2 8173:3 8174:4 8175:1 8176:1 8177:1 8178:1 8179:1 
1 0:2 2:1 3:1 4:1 5:3 6:3 7:1 8:6 9:6 10:5 12:2 14:1 21:5 23:1 24:3 25:6 28:1 29:8 36:2 38:2 40:1 42:1 45:9 46:1 52:1 54:7 60:1 65:1 67:3 71:1 76:1 78:3 81:3 82:2 85:3 100:1 110:1 115:1 129:1 137:1 141:1 165:1 166:2 167:2 173:2 180:1 216:2 235:1 238:1 245:1 247:1 249:2 256:1 257:2 273:1 281:1 300:1 301:2 309:1 312:1 339:1 378:1 381:1 406:1 424:1 427:1 448:1 493:1 505:1 569:1 627:1 669:1 711:1 840:1 851:1 897:1 1178:1 1227:2 2322:1 3190:1 3500:1 3546:1 4557:1 5213:1 5767:2 6230:1 6547:1 6583:1 6821:1 7577:1 7578:1 7579:1 7586:2 7587:2 7588:1 7589:1 7590:1 7591:1 7592:1 7593:1 
1 0:2 2:1 3:1 4:1 5:3 6:3 7:1 8:14 9:4 10:3 11:1 12:1 13:2 14:3 15:4 16:1 17:1 18:1 19:1 20:2 21:4 22:1 23:2 24:1 25:1 28:1 29:14 36:5 38:7 39:1 40:1 45:3 47:1 50:1 51:1 54:3 65:3 67:3 70:1 71:1 72:1 78:1 81:5 85:2 99:3 108:1 115:1 120:1 124:1 131:1 143:2 145:1 146:1 154:1 156:1 157:1 161:1 162:1 180:1 187:1 189:1 190:1 191:3 197:1 213:1 216:1 238:1 244:1 249:2 301:2 308:1 310:3 311:2 327:1 334:1 339:2 358:1 360:1 361:1 384:1 444:1 447:1 448:1 449:1 450:1 451:1 452:1 453:1 454:1 455:1 456:1 457:1 458:1 459:2 460:1 461:1 462:1 463:1 464:1 465:1 466:1 467:1 468:1 469:1 470:1 471:1 472:1 473:1 474:1 475:1 476:1 477:1 478:1 479:1 480:1 
0.2098930851175456 0:2 2:1 3:1 4:1 5:4 6:4 7:1 8:13 9:4 10:4 12:2 13:4 14:1 15:1 16:1 17:1 20:4 21:9 22:1 23:2 24:9 25:16 26:1 28:1 29:16 30:1 31:1 34:1 35:1 36:7 38:11 41:1 42:1 45:6 46:3 47:1 49:1 50:3 52:2 53:1 54:7 60:2 65:3 67:9 71:1 72:1 76:1 78:8 79:1 81:4 82:2 85:8 104:1 105:1 106:1 107:1 112:1 115:2 118:2 137:3 141:1 142:1 143:1 145:1 146:2 153:1 156:1 158:1 159:1 160:1 171:2 173:1 176:1 177:1 178:1 179:1 185:1 187:1 195:1 199:1 202:1 204:1 206:1 207:1 209:1 210:1 211:1 212:1 213:3 214:1 215:1 216:3 220:1 239:1 250:1 251:1 252:1 253:1 254:1 255:2 256:3 257:2 259:4 265:1 266:1 267:2 271:3 284:2 301:1 303:1 305:2 306:1 308:1 309:1 313:2 314:1 315:1 316:1 317:1 318:1 319:2 320:1 321:1 322:1 323:1 324:1 325:1 326:1 327:1 328:1 329:2 330:1 331:1 332:1 333:2 334:2 335:1 336:1 337:1 338:1 339:1 340:1 341:1 342:1 343:1 344:1 345:2 346:1 347:1 348:1 349:1 350:1 351:1 352:1 353:1 354:1 355:1 356:1 357:1 358:1 359:1 360:1 361:1 362:1 363:1 364:1 365:1 366:1 367:1 368:1 369:1 370:1 371:1 372:1 373:1 374:2 375:1 376:1 377:1 378:1 379:1 380:1 381:1 382:1 383:1 384:1 385:1 386:1 387:1 388:1 389:1 390:1 391:1 
1 0:2 5:3 6:3 8:4 9:4 10:4 12:2 14:2 21:1 29:17 31:1 36:5 38:4 45:6 46:1 50:1 52:1 53:1 54:3 56:3 65:1 67:2 71:2 76:2 78:1 81:4 82:1 85:2 99:1 103:1 107:2 115:1 118:1 137:1 164:1 173:1 187:1 188:1 192:1 203:1 232:1 239:1 241:1 245:1 247:1 249:2 265:1 290:1 308:1 309:2 378:2 389:2 393:1 397:1 403:1 406:1 454:1 455:1 481:1 482:1 493:1 506:1 514:1 594:1 711:1 807:1 808:1 851:2 860:1 861:3 865:1 879:1 930:1 1042:1 1236:1 1242:2 1312:1 1313:1 1410:1 1428:1 1435:1 1556:1 1670:1 1927:1 1928:1 2067:1 2092:1 2131:1 2244:1 2303:1 2702:1 2751:2 2913:1 3036:1 3396:1 3811:1 3951:1 5101:1 6032:1 
1 0:2 2:1 3:1 4:1 5:4 6:3 7:1 8:8 9:5 10:8 13:1 20:1 21:6 23:2 24:3 25:6 29:21 36:6 38:14 41:1 45:11 46:2 47:1 50:4 54:6 55:2 60:1 65:4 67:5 68:1 72:2 77:2 78:4 81:5 82:1 85:8 90:3 108:2 115:1 130:1 137:3 142:3 146:2 149:1 166:1 192:3 195:1 199:1 200:1 203:3 204:1 205:2 212:1 216:4 238:1 243:1 244:1 259:2 276:2 284:1 297:1 301:1 305:1 306:1 308:2 309:3 345:1 372:1 374:1 380:1 383:3 390:1 391:1 402:2 403:1 410:1 416:2 444:1 469:1 502:1 506:2 527:2 534:1 539:2 587:1 620:1 637:1 651:1 669:1 724:2 730:1 783:1 785:1 861:1 901:1 907:1 953:1 1038:1 1094:2 1107:2 1144:1 1158:1 1235:1 1237:2 1309:1 1311:1 1370:1 1430:1 1550:1 1554:1 1566:2 1665:1 1893:1 1929:1 2050:1 2058:1 2092:1 2333:1 2375:1 2513:1 2514:1 2547:1 2557:1 2587:1 2605:1 2710:1 2771:3 2965:1 2968:5 2970:1 2986:1 3574:1 4400:1 4401:1 4523:1 4799:1 4803:1 5068:1 5745:1 6025:3 6083:2 7207:1 7452:1 7740:1 7741:1 7742:1 7743:1 7744:1 7745:1 7746:1 7747:1 7748:1 
1 0:2 2:1 3:1 4:1 5:4 6:4 7:1 8:13 9:4 10:4 12:2 13:4 14:1 15:1 16:1 17:1 20:4 21:9 22:1 23:2 24:9 25:16 26:1 28:1 29:16 30:1 31:1 34:1 35:1 36:7 38:11 41:1 42:1 45:6 46:3 47:1 49:1 50:3 52:2 53:1 54:7 60:2 65:3 67:9 71:1 72:1 76:1 78:8 79:1 81:4 82:2 85:8 104:1 105:1 106:1 107:1 112:1 115:2 118:2 137:3 141:1 142:1 143:1 145:1 146:2 153:1 156:1 158:1 159:1 160:1 171:2 173:1 176:1 177:1 178:1 179:1 185:1 187:1 195:1 199:1 202:1 204:1 206:1 207:1 209:1 210:1 211:1 212:1 213:3 214:1 215:1 216:3 220:1 239:1 250:1 251:1 252:1 253:1 254:1 255:2 256:3 257:2 259:4 265:1 266:1 267:2 271:3 284:2 301:1 303:1 305:2 306:1 308:1 309:1 313:2 314:1 315:1 316:1 317:1 318:1 319:2 320:1 321:1 322:1 323:1 324:1 325:1 326:1 327:1 328:1 329:2 330:1 331:1 332:1 333:2 334:2 335:1 336:1 337:1 338:1 339:1 340:1 341:1 342:1 343:1 344:1 345:2 346:1 347:1 348:1 349:1 350:1 351:1 352:1 353:1 354:1 355:1 356:1 357:1 358:1 359:1 360:1 361:1 362:1 363:1 364:1 365:1 366:1 367:1 368:1 369:1 370:1 371:1 372:1 373:1 374:2 375:1 376:1 377:1 378:1 379:1 380:1 381:1 382:1 383:1 384:1 385:1 386:1 387:1 388:1 389:1 390:1 391:1 
1 0:2 2:2 3:2 4:1 5:3 6:3 7:1 8:3 9:1 10:2 12:1 14:1 24:1 25:1 29:6 38:4 45:3 46:1 50:1 51:1 65:1 67:3 81:3 85:1 90:1 100:1 108:1 115:1 129:1 156:4 157:2 162:1 165:1 166:1 167:1 173:1 192:1 195:1 202:1 306:1 309:1 356:1 358:1 504:1 505:1 513:1 539:1 638:1 711:1 820:1 928:1 1021:1 1566:1 2266:1 2370:1 2564:1 3259:1 3453:1 4924:1 4997:1 8045:1 8046:1 
1 0:2 2:2 3:4 4:3 5:5 6:5 8:9 9:1 10:1 12:1 21:4 23:3 24:2 25:5 29:5 36:3 38:5 41:1 42:1 45:5 49:1 52:1 54:4 65:1 67:2 72:1 73:2 77:1 78:1 81:3 82:2 85:1 90:1 103:3 108:1 115:1 118:2 124:1 129:1 137:2 142:1 151:1 156:1 168:1 169:1 173:2 174:1 176:1 192:3 216:2 238:2 241:1 259:1 305:1 309:2 319:1 323:1 364:4 368:1 395:1 403:2 416:1 449:1 475:3 505:3 513:1 520:4 523:1 527:1 534:1 539:2 583:1 589:1 590:1 638:1 711:1 724:1 871:1 929:2 941:1 1007:1 1034:1 1067:1 1090:1 1105:1 1107:1 1144:1 1315:2 1404:3 1431:1 1692:1 1704:1 1711:1 1715:1 1729:2 1730:2 1773:1 1895:2 1993:3 2032:1 2464:1 2501:1 2576:2 2773:2 2869:1 2880:1 2929:1 2968:1 2994:1 3008:1 3017:1 3433:1 3531:1 3602:1 3605:1 5685:1 6971:1 7401:1 7402:1 7403:1 7404:2 7405:3 7406:1 7407:1 7408:1 7409:1 7410:2 7411:1 7412:1 
1 0:2 2:1 3:1 4:1 5:6 6:6 7:1 8:5 9:3 10:3 14:1 21:4 24:3 25:3 29:7 36:3 38:9 45:11 46:2 50:4 54:1 60:1 65:2 67:1 72:4 73:2 78:1 81:3 85:1 115:1 137:3 139:1 146:1 151:1 162:1 166:1 167:1 173:2 188:1 199:2 206:1 216:1 228:1 238:1 242:1 258:1 259:1 306:1 308:1 309:2 322:1 339:1 344:1 350:1 353:1 356:1 359:1 364:1 368:1 372:1 383:2 391:1 398:1 400:1 402:1 406:1 435:1 444:2 445:1 448:1 475:6 482:2 505:1 506:2 539:1 578:1 711:1 789:1 908:1 948:1 1107:1 1113:1 1377:1 1435:1 1541:1 1816:1 1984:1 1993:1 2094:1 2303:1 2307:1 2376:1 2385:1 2516:1 2869:2 3369:1 3429:1 3541:1 3806:1 3871:1 4293:1 4477:1 6545:1 6553:1 6804:1 6883:1 7219:1 7238:1 7282:1 7370:1 7449:1 7450:1 7451:1 7452:1 7453:1 7454:1 7455:1 
1 0:2 2:1 3:1 4:1 5:3 6:3 8:6 9:5 10:5 12:1 13:1 14:1 20:1 21:2 23:1 24:1 25:1 29:7 31:1 36:1 38:3 45:4 50:2 52:2 54:1 55:1 59:1 60:1 63:1 65:2 81:3 85:1 108:1 115:1 132:1 136:1 137:1 143:1 145:1 150:1 180:1 191:1 195:2 216:1 220:1 256:1 257:1 265:1 273:1 276:2 306:1 308:1 309:1 310:2 311:1 318:1 334:2 355:1 359:1 369:1 392:2 393:2 394:2 395:1 396:1 397:1 398:1 399:1 400:1 401:1 402:2 403:1 404:1 405:1 406:1 407:1 408:1 409:1 410:1 411:1 412:1 413:1 414:1 415:1 416:1 417:1 418:1 419:1 420:1 421:1 422:1 423:1 424:1 425:1 426:1 427:1 428:1 429:1 430:1 431:1 432:1 433:1 434:1 435:1 436:1 437:1 438:1 439:1 440:1 441:1 442:1 443:1 444:1 445:1 446:1 
1 0:2 3:3 5:4 6:4 8:8 9:3 10:8 12:1 13:1 20:1 21:2 23:1 24:4 25:8 27:1 28:1 29:8 30:2 31:2 35:1 36:3 38:7 41:1 45:6 47:2 54:4 56:1 65:4 67:7 76:2 78:4 81:6 82:1 83:1 85:6 99:1 107:2 108:1 115:1 118:1 139:1 140:1 141:3 142:3 151:1 166:1 167:1 171:1 187:2 192:1 205:1 216:1 256:1 257:1 259:1 265:1 277:1 278:1 292:1 384:1 395:1 403:1 412:1 452:1 453:2 454:2 467:1 483:1 487:1 489:1 494:1 505:1 527:2 589:1 605:2 638:1 780:1 781:1 843:1 861:1 908:1 1189:1 1246:1 1284:1 1301:1 1371:1 1450:2 1545:1 1714:1 1836:1 2015:1 2058:2 2126:1 2131:1 2255:1 2464:1 2897:1 2939:1 3017:1 3191:2 3195:1 3954:1 5680:1 5831:1 6181:1 6366:1 6430:1 6965:1 7068:1 7651:1 8093:1 8108:1 8109:1 8110:1 
0.9410244550086329 0:2 2:1 3:1 4:1 5:4 6:4 7:1 8:13 9:4 10:4 12:2 13:4 14:1 15:1 16:1 17:1 20:4 21:9 22:1 23:2 24:9 25:16 26:1 28:1 29:16 30:1 31:1 34:1 35:1 36:7 38:11 41:1 42:1 45:6 46:3 47:1 49:1 50:3 52:2 53:1 54:7 60:2 65:3 67:9 71:1 72:1 76:1 78:8 79:1 81:4 82:2 85:8 104:1 105:1 106:1 107:1 112:1 115:2 118:2 137:3 141:1 142:1 143:1 145:1 146:2 153:1 156:1 158:1 159:1 160:1 171:2 173:1 176:1 177:1 178:1 179:1 185:1 187:1 195:1 199:1 202:1 204:1 206:1 207:1 209:1 210:1 211:1 212:1 213:3 214:1 215:1 216:3 220:1 239:1 250:1 251:1 252:1 253:1 254:1 255:2 256:3 257:2 259:4 265:1 266:1 267:2 271:3 284:2 301:1 303:1 305:2 306:1 308:1 309:1 313:2 314:1 315:1 316:1 317:1 318:1 319:2 320:1 321:1 322:1 323:1 324:1 325:1 326:1 327:1 328:1 329:2 330:1 331:1 332:1 333:2 334:2 335:1 336:1 337:1 338:1 339:1 340:1 341:1 342:1 343:1 344:1 345:2 346:1 347:1 348:1 349:1 350:1 351:1 352:1 353:1 354:1 355:1 356:1 357:1 358:1 359:1 360:1 361:1 362:1 363:1 364:1 365:1 366:1 367:1 368:1 369:1 370:1 371:1 372:1 373:1 374:2 375:1 376:1 377:1 378:1 379:1 380:1 381:1 382:1 383:1 384:1 385:1 386:1 387:1 388:1 389:1 390:1 391:1 
1 0:2 2:1 3:2 4:2 5:6 6:3 8:8 9:4 10:1 12:2 13:4 20:4 21:7 23:4 24:4 25:9 29:9 31:1 36:1 38:8 45:7 46:1 50:1 54:1 67:2 72:2 73:6 81:4 82:1 83:2 85:6 103:1 107:2 108:1 115:1 128:2 130:1 136:1 137:1 166:1 171:1 176:1 180:1 191:1 195:1 202:1 204:1 206:2 215:1 216:5 245:1 249:1 251:1 255:1 268:1 277:2 278:2 286:1 306:1 308:1 309:1 323:2 327:1 332:1 364:2 402:1 436:1 444:2 453:1 454:1 455:1 481:1 511:1 589:1 638:1 669:1 781:1 816:1 817:1 952:2 987:1 1007:1 1240:1 1352:1 1375:6 1506:1 1532:2 1536:1 1550:1 1713:1 1714:1 1741:1 2464:1 2758:1 2869:2 2933:1 2971:1 2991:1 3008:1 3017:1 3195:1 3522:1 3951:2 4057:1 4083:3 4784:1 5145:1 5887:1 7623:1 8074:1 8075:1 8076:1 8104:1 8105:2 8112:1 8113:1 8114:1 8115:1 8116:3 8117:1 8118:1 
0.1638975098137848 0:2 3:3 5:4 6:4 8:5 9:3 10:3 12:1 13:1 20:1 21:4 23:1 24:5 25:10 26:1 27:1 28:2 29:16 30:1 31:3 32:2 34:2 36:7 38:12 40:1 41:2 45:8 50:2 54:5 55:2 56:2 65:3 67:1 71:2 76:6 78:5 81:8 83:1 85:4 103:1 107:1 108:2 112:1 115:1 118:2 137:2 141:1 142:3 154:4 165:1 166:1 167:1 173:2 174:1 187:2 188:3 197:6 199:1 205:2 229:1 238:1 239:1 241:1 242:1 243:1 244:1 245:1 246:1 247:1 249:1 255:1 258:1 259:1 265:1 268:1 273:1 278:1 292:1 299:1 304:1 319:2 334:1 339:1 353:1 372:1 373:1 383:1 384:1 391:6 392:1 403:4 424:1 453:1 475:1 481:2 487:2 489:1 493:1 534:6 535:1 538:1 539:4 541:1 553:2 563:1 590:1 615:2 632:2 643:3 672:1 682:1 716:1 724:1 744:2 802:1 861:2 897:1 922:1 925:1 932:1 934:1 998:1 1021:1 1052:2 1116:1 1159:1 1189:1 1200:1 1218:1 1228:1 1237:1 1247:1 1250:2 1266:1 1275:1 1284:1 1299:1 1335:2 1341:1 1355:1 1435:1 1550:1 1659:1 1708:1 1709:1 1739:2 1779:1 1804:2 1873:1 2105:1 2107:1 2123:1 2125:1 2303:2 2652:1 2702:1 2720:1 2847:1 3007:1 3179:1 3868:1 3869:2 3871:1 3954:1 4279:3 4659:2 4914:3 5101:1 5473:1 6466:1 6467:1 7225:1 7935:2 7958:1 7959:1 7960:1 7961:1 7962:1 7963:1 7964:1 7965:1 
1 0:2 2:1 3:1 4:1 5:3 6:3 7:1 8:14 9:4 10:3 11:1 12:1 13:2 14:3 15:4 16:1 17:1 18:1 19:1 20:2 21:4 22:1 23:2 24:1 25:1 28:1 29:14 36:5 38:7 39:1 40:1 45:3 47:1 50:1 51:1 54:3 65:3 67:3 70:1 71:1 72:1 78:1 81:5 85:2 99:3 108:1 115:1 120:1 124:1 131:1 143:2 145:1 146:1 154:1 156:1 157:1 161:1 162:1 180:1 187:1 189:1 190:1 191:3 197:1 213:1 216:1 238:1 244:1 249:2 301:2 308:1 310:3 311:2 327:1 334:1 339:2 358:1 360:1 361:1 384:1 444:1 447:1 448:1 449:1 450:1 451:1 452:1 453:1 454:1 455:1 456:1 457:1 458:1 459:2 460:1 461:1 462:1 463:1 464:1 465:1 466:1 467:1 468:1 469:1 470:1 471:1 472:1 473:1 474:1 475:1 476:1 477:1 478:1 479:1 480:1 
1 0:2 2:1 3:1 4:1 5:3 6:3 7:1 8:14 9:4 10:3 11:1 12:1 13:2 14:3 15:4 16:1 17:1 18:1 19:1 20:2 21:4 22:1 23:2 24:1 25:1 28:1 29:14 36:5 38:7 39:1 40:1 45:3 47:1 50:1 51:1 54:3 65:3 67:3 70:1 71:1 72:1 78:1 81:5 85:2 99:3 108:1 115:1 120:1 124:1 131:1 143:2 145:1 146:1 154:1 156:1 157:1 161:1 162:1 180:1 187:1 189:1 190:1 191:3 197:1 213:1 216:1 238:1 244:1 249:2 301:2 308:1 310:3 311:2 327:1 334:1 339:2 358:1 360:1 361:1 384:1 444:1 447:1 448:1 449:1 450:1 451:1 452:1 453:1 454:1 455:1 456:1 457:1 458:1 459:2 460:1 461:1 462:1 463:1 464:1 465:1 466:1 467:1 468:1 469:1 470:1 471:1 472:1 473:1 474:1 475:1 476:1 477:1 478:1 479:1 480:1 
-0.9306952001080191 0:2 2:1 3:1 4:1 5:3 6:3 7:1 8:14 9:4 10:3 11:1 12:1 13:2 14:3 15:4 16:1 17:1 18:1 19:1 20:2 21:4 22:1 23:2 24:1 25:1 28:1 29:14 36:5 38:7 39:1 40:1 45:3 47:1 50:1 51:1 54:3 65:3 67:3 70:1 71:1 72:1 78:1 81:5 85:2 99:3 108:1 115:1 120:1 124:1 131:1 143:2 145:1 146:1 154:1 156:1 157:1 161:1 162:1 180:1 187:1 189:1 190:1 191:3 197:1 213:1 216:1 238:1 244:1 249:2 301:2 308:1 310:3 311:2 327:1 334:1 339:2 358:1 360:1 361:1 384:1 444:1 447:1 448:1 449:1 450:1 451:1 452:1 453:1 454:1 455:1 456:1 457:1 458:1 459:2 460:1 461:1 462:1 463:1 464:1 465:1 466:1 467:1 468:1 469:1 470:1 471:1 472:1 473:1 474:1 475:1 476:1 477:1 478:1 479:1 480:1 
-1 0:2 2:1 3:1 4:1 5:3 6:3 7:1 8:14 9:4 10:3 11:1 12:1 13:2 14:3 15:4 16:1 17:1 18:1 19:1 20:2 21:4 22:1 23:2 24:1 25:1 28:1 29:14 36:5 38:7 39:1 40:1 45:3 47:1 50:1 51:1 54:3 65:3 67:3 70:1 71:1 72:1 78:1 81:5 85:2 99:3 108:1 115:1 120:1 124:1 131:1 143:2 145:1 146:1 154:1 156:1 157:1 161:1 162:1 180:1 187:1 189:1 190:1 191:3 197:1 213:1 216:1 238:1 244:1 249:2 301:2 308:1 310:3 311:2 327:1 334:1 339:2 358:1 360:1 361:1 384:1 444:1 447:1 448:1 449:1 450:1 451:1 452:1 453:1 454:1 455:1 456:1 457:1 458:1 459:2 460:1 461:1 462:1 463:1 464:1 465:1 466:1 467:1 468:1 469:1 470:1 471:1 472:1 473:1 474:1 475:1 476:1 477:1 478:1 479:1 480:1 
-1 0:2 2:1 3:1 4:1 5:3 6:3 7:1 8:14 9:4 10:3 11:1 12:1 13:2 14:3 15:4 16:1 17:1 18:1 19:1 20:2 21:4 22:1 23:2 24:1 25:1 28:1 29:14 36:5 38:7 39:1 40:1 45:3 47:1 50:1 51:1 54:3 65:3 67:3 70:1 71:1 72:1 78:1 81:5 85:2 99:3 108:1 115:1 120:1 124:1 131:1 143:2 145:1 146:1 154:1 156:1 157:1 161:1 162:1 180:1 187:1 189:1 190:1 191:3 197:1 213:1 216:1 238:1 244:1 249:2 301:2 308:1 310:3 311:2 327:1 334:1 339:2 358:1 360:1 361:1 384:1 444:1 447:1 448:1 449:1 450:1 451:1 452:1 453:1 454:1 455:1 456:1 457:1 458:1 459:2 460:1 461:1 462:1 463:1 464:1 465:1 466:1 467:1 468:1 469:1 470:1 471:1 472:1 473:1 474:1 475:1 476:1 477:1 478:1 479:1 480:1 
-1 0:2 2:1 3:1 4:1 5:3 6:3 7:1 8:14 9:4 10:3 11:1 12:1 13:2 14:3 15:4 16:1 17:1 18:1 19:1 20:2 21:4 22:1 23:2 24:1 25:1 28:1 29:14 36:5 38:7 39:1 40:1 45:3 47:1 50:1 51:1 54:3 65:3 67:3 70:1 71:1 72:1 78:1 81:5 85:2 99:3 108:1 115:1 120:1 124:1 131:1 143:2 145:1 146:1 154:1 156:1 157:1 161:1 162:1 180:1 187:1 189:1 190:1 191:3 197:1 213:1 216:1 238:1 244:1 249:2 301:2 308:1 310:3 311:2 327:1 334:1 339:2 358:1 360:1 361:1 384:1 444:1 447:1 448:1 449:1 450:1 451:1 452:1 453:1 454:1 455:1 456:1 457:1 458:1 459:2 460:1 461:1 462:1 463:1 464:1 465:1 466:1 467:1 468:1 469:1 470:1 471:1 472:1 473:1 474:1 475:1 476:1 477:1 478:1 479:1 480:1 
-1 0:2 2:1 3:1 4:1 5:3 6:3 7:1 8:14 9:4 10:3 11:1 12:1 13:2 14:3 15:4 16:1 17:1 18:1 19:1 20:2 21:4 22:1 23:2 24:1 25:1 28:1 29:14 36:5 38:7 39:1 40:1 45:3 47:1 50:1 51:1 54:3 65:3 67:3 70:1 71:1 72:1 78:1 81:5 85:2 99:3 108:1 115:1 120:1 124:1 131:1 143:2 145:1 146:1 154:1 156:1 157:1 161:1 162:1 180:1 187:1 189:1 190:1 191:3 197:1 213:1 216:1 238:1 244:1 249:2 301:2 308:1 310:3 311:2 327:1 334:1 339:2 358:1 360:1 361:1 384:1 444:1 447:1 448:1 449:1 450:1 451:1 452:1 453:1 454:1 455:1 456:1 457:1 458:1 459:2 460:1 461:1 462:1 463:1 464:1 465:1 466:1 467:1 468:1 469:1 470:1 471:1 472:1 473:1 474:1 475:1 476:1 477:1 478:1 479:1 480:1 
-1 0:2 2:1 3:1 4:1 5:3 6:3 7:1 8:14 9:4 10:3 11:1 12:1 13:2 14:3 15:4 16:1 17:1 18:1 19:1 20:2 21:4 22:1 23:2 24:1 25:1 28:1 29:14 36:5 38:7 39:1 40:1 45:3 47:1 50:1 51:1 54:3 65:3 67:3 70:1 71:1 72:1 78:1 81:5 85:2 99:3 108:1 115:1 120:1 124:1 131:1 143:2 145:1 146:1 154:1 156:1 157:1 161:1 162:1 180:1 187:1 189:1 190:1 191:3 197:1 213:1 216:1 238:1 244:1 249:2 301:2 308:1 310:3 311:2 327:1 334:1 339:2 358:1 360:1 361:1 384:1 444:1 447:1 448:1 449:1 450:1 451:1 452:1 453:1 454:1 455:1 456:1 457:1 458:1 459:2 460:1 461:1 462:1 463:1 464:1 465:1 466:1 467:1 468:1 469:1 470:1 471:1 472:1 473:1 474:1 475:1 476:1 477:1 478:1 479:1 480:1 
-1 0:2 2:1 3:1 4:1 5:3 6:3 7:1 8:14 9:4 10:3 11:1 12:1 13:2 14:3 15:4 16:1 17:1 18:1 19:1 20:2 21:4 22:1 23:2 24:1 25:1 28:1 29:14 36:5 38:7 39:1 40:1 45:3 47:1 50:1 51:1 54:3 65:3 67:3 70:1 71:1 72:1 78:1 81:5 85:2 99:3 108:1 115:1 120:1 124:1 131:1 143:2 145:1 146:1 154:1 156:1 157:1 161:1 162:1 180:1 187:1 189:1 190:1 191:3 197:1 213:1 216:1 238:1 244:1 249:2 301:2 308:1 310:3 311:2 327:1 334:1 339:2 358:1 360:1 361:1 384:1 444:1 447:1 448:1 449:1 450:1 451:1 452:1 453:1 454:1 455:1 456:1 457:1 458:1 459:2 460:1 461:1 462:1 463:1 464:1 465:1 466:1 467:1 468:1 469:1 470:1 471:1 472:1 473:1 474:1 475:1 476:1 477:1 478:1 479:1 480:1 
-1 0:2 2:1 3:1 4:1 5:3 6:3 7:1 8:14 9:4 10:3 11:1 12:1 13:2 14:3 15:4 16:1 17:1 18:1 19:1 20:2 21:4 22:1 23:2 24:1 25:1 28:1 29:14 36:5 38:7 39:1 40:1 45:3 47:1 50:1 51:1 54:3 65:3 67:3 70:1 71:1 72:1 78:1 81:5 85:2 99:3 108:1 115:1 120:1 124:1 131:1 143:2 145:1 146:1 154:1 156:1 157:1 161:1 162:1 180:1 187:1 189:1 190:1 191:3 197:1 213:1 216:1 238:1 244:1 249:2 301:2 308:1 310:3 311:2 327:1 334:1 339:2 358:1 360:1 361:1 384:1 444:1 447:1 448:1 449:1 450:1 451:1 452:1 453:1 454:1 455:1 456:1 457:1 458:1 459:2 460:1 461:1 462:1 463:1 464:1 465:1 466:1 467:1 468:1 469:1 470:1 471:1 472:1 473:1 474:1 475:1 476:1 477:1 478:1 479:1 480:1 
-1 0:2 2:1 3:1 4:1 5:3 6:3 7:1 8:14 9:4 10:3 11:1 12:1 13:2 14:3 15:4 16:1 17:1 18:1 19:1 20:2 21:4 22:1 23:2 24:1 25:1 28:1 29:14 36:5 38:7 39:1 40:1 45:3 47:1 50:1 51:1 54:3 65:3 67:3 70:1 71:1 72:1 78:1 81:5 85:2 99:3 108:1 115:1 120:1 124:1 131:1 143:2 145:1 146:1 154:1 156:1 157:1 161:1 162:1 180:1 187:1 189:1 190:1 191:3 197:1 213:1 216:1 238:1 244:1 249:2 301:2 308:1 310:3 311:2 327:1 334:1 339:2 358:1 360:1 361:1 384:1 444:1 447:1 448:1 449:1 450:1 451:1 452:1 453:1 454:1 455:1 456:1 457:1 458:1 459:2 460:1 461:1 462:1 463:1 464:1 465:1 466:1 467:1 468:1 469:1 470:1 471:1 472:1 473:1 474:1 475:1 476:1 477:1 478:1 479:1 480:1 
-1 0:2 2:1 3:1 4:1 5:3 6:3 7:1 8:14 9:4 10:3 11:1 12:1 13:2 14:3 15:4 16:1 17:1 18:1 19:1 20:2 21:4 22:1 23:2 24:1 25:1 28:1 29:14 36:5 38:7 39:1 40:1 45:3 47:1 50:1 51:1 54:3 65:3 67:3 70:1 71:1 72:1 78:1 81:5 85:2 99:3 108:1 115:1 120:1 124:1 131:1 143:2 145:1 146:1 154:1 156:1 157:1 161:1 162:1 180:1 187:1 189:1 190:1 191:3 197:1 213:1 216:1 238:1 244:1 249:2 301:2 308:1 310:3 311:2 327:1 334:1 339:2 358:1 360:1 361:1 384:1 444:1 447:1 448:1 449:1 450:1 451:1 452:1 453:1 454:1 455:1 456:1 457:1 458:1 459:2 460:1 461:1 462:1 463:1 464:1 465:1 466:1 467:1 468:1 469:1 470:1 471:1 472:1 473:1 474:1 475:1 476:1 477:1 478:1 479:1 480:1 
-1 0:2 2:1 3:1 4:1 5:3 6:3 7:1 8:14 9:4 10:3 11:1 12:1 13:2 14:3 15:4 16:1 17:1 18:1 19:1 20:2 21:4 22:1 23:2 24:1 25:1 28:1 29:14 36:5 38:7 39:1 40:1 45:3 47:1 50:1 51:1 54:3 65:3 67:3 70:1 71:1 72:1 78:1 81:5 85:2 99:3 108:1 115:1 120:1 124:1 131:1 143:2 145:1 146:1 154:1 156:1 157:1 161:1 162:1 180:1 187:1 189:1 190:1 191:3 197:1 213:1 216:1 238:1 244:1 249:2 301:2 308:1 310:3 311:2 327:1 334:1 339:2 358:1 360:1 361:1 384:1 444:1 447:1 448:1 449:1 450:1 451:1 452:1 453:1 454:1 455:1 456:1 457:1 458:1 459:2 460:1 461:1 462:1 463:1 464:1 465:1 466:1 467:1 468:1 469:1 470:1 471:1 472:1 473:1 474:1 475:1 476:1 477:1 478:1 479:1 480:1 
-1 0:2 2:1 3:1 4:1 5:3 6:3 7:1 8:14 9:4 10:3 11:1 12:1 13:2 14:3 15:4 16:1 17:1 18:1 19:1 20:2 21:4 22:1 23:2 24:1 25:1 28:1 29:14 36:5 38:7 39:1 40:1 45:3 47:1 50:1 51:1 54:3 65:3 67:3 70:1 71:1 72:1 78:1 81:5 85:2 99:3 108:1 115:1 120:1 124:1 131:1 143:2 145:1 146:1 154:1 156:1 157:1 161:1 162:1 180:1 187:1 189:1 190:1 191:3 197:1 213:1 216:1 238:1 244:1 249:2 301:2 308:1 310:3 311:2 327:1 334:1 339:2 358:1 360:1 361:1 384:1 444:1 447:1 448:1 449:1 450:1 451:1 452:1 453:1 454:1 455:1 456:1 457:1 458:1 459:2 460:1 461:1 462:1 463:1 464:1 465:1 466:1 467:1 468:1 469:1 470:1 471:1 472:1 473:1 474:1 475:1 476:1 477:1 478:1 479:1 480:1 
-1 0:2 2:1 3:1 4:1 5:3 6:3 7:1 8:14 9:4 10:3 11:1 12:1 13:2 14:3 15:4 16:1 17:1 18:1 19:1 20:2 21:4 22:1 23:2 24:1 25:1 28:1 29:14 36:5 38:7 39:1 40:1 45:3 47:1 50:1 51:1 54:3 65:3 67:3 70:1 71:1 72:1 78:1 81:5 85:2 99:3 108:1 115:1 120:1 124:1 131:1 143:2 145:1 146:1 154:1 156:1 157:1 161:1 162:1 180:1 187:1 189:1 190:1 191:3 197:1 213:1 216:1 238:1 244:1 249:2 301:2 308:1 310:3 311:2 327:1 334:1 339:2 358:1 360:1 361:1 384:1 444:1 447:1 448:1 449:1 450:1 451:1 452:1 453:1 454:1 455:1 456:1 457:1 458:1 459:2 460:1 461:1 462:1 463:1 464:1 465:1 466:1 467:1 468:1 469:1 470:1 471:1 472:1 473:1 474:1 475:1 476:1 477:1 478:1 479:1 480:1 
-1 0:2 2:1 3:1 4:1 5:3 6:3 7:1 8:14 9:4 10:3 11:1 12:1 13:2 14:3 15:4 16:1 17:1 18:1 19:1 20:2 21:4 22:1 23:2 24:1 25:1 28:1 29:14 36:5 38:7 39:1 40:1 45:3 47:1 50:1 51:1 54:3 65:3 67:3 70:1 71:1 72:1 78:1 81:5 85:2 99:3 108:1 115:1 120:1 124:1 131:1 143:2 145:1 146:1 154:1 156:1 157:1 161:1 162:1 180:1 187:1 189:1 190:1 191:3 197:1 213:1 216:1 238:1 244:1 249:2 301:2 308:1 310:3 311:2 327:1 334:1 339:2 358:1 360:1 361:1 384:1 444:1 447:1 448:1 449:1 450:1 451:1 452:1 453:1 454:1 455:1 456:1 457:1 458:1 459:2 460:1 461:1 462:1 463:1 464:1 465:1 466:1 467:1 468:1 469:1 470:1 471:1 472:1 473:1 474:1 475:1 476:1 477:1 478:1 479:1 480:1 
-1 0:2 2:1 3:1 4:1 5:3 6:3 7:1 8:14 9:4 10:3 11:1 12:1 13:2 14:3 15:4 16:1 17:1 18:1 19:1 20:2 21:4 22:1 23:2 24:1 25:1 28:1 29:14 36:5 38:7 39:1 40:1 45:3 47:1 50:1 51:1 54:3 65:3 67:3 70:1 71:1 72:1 78:1 81:5 85:2 99:3 108:1 115:1 120:1 124:1 131:1 143:2 145:1 146:1 154:1 156:1 157:1 161:1 162:1 180:1 187:1 189:1 190:1 191:3 197:1 213:1 216:1 238:1 244:1 249:2 301:2 308:1 310:3 311:2 327:1 334:1 339:2 358:1 360:1 361:1 384:1 444:1 447:1 448:1 449:1 450:1 451:1 452:1 453:1 454:1 455:1 456:1 457:1 458:1 459:2 460:1 461:1 462:1 463:1 464:1 465:1 466:1 467:1 468:1 469:1 470:1 471:1 472:1 473:1 474:1 475:1 476:1 477:1 478:1 479:1 480:1 
-1 0:2 2:1 3:1 4:1 5:3 6:3 7:1 8:14 9:4 10:3 11:1 12:1 13:2 14:3 15:4 16:1 17:1 18:1 19:1 20:2 21:4 22:1 23:2 24:1 25:1 28:1 29:14 36:5 38:7 39:1 40:1 45:3 47:1 50:1 51:1 54:3 65:3 67:3 70:1 71:1 72:1 78:1 81:5 85:2 99:3 108:1 115:1 120:1 124:1 131:1 143:2 145:1 146:1 154:1 156:1 157:1 161:1 162:1 180:1 187:1 189:1 190:1 191:3 197:1 213:1 216:1 238:1 244:1 249:2 301:2 308:1 310:3 311:2 327:1 334:1 339:2 358:1 360:1 361:1 384:1 444:1 447:1 448:1 449:1 450:1 451:1 452:1 453:1 454:1 455:1 456:1 457:1 458:1 459:2 460:1 461:1 462:1 463:1 464:1 465:1 466:1 467:1 468:1 469:1 470:1 471:1 472:1 473:1 474:1 475:1 476:1 477:1 478:1 479:1 480:1 
-1 0:2 2:1 3:1 4:1 5:3 6:3 7:1 8:14 9:4 10:3 11:1 12:1 13:2 14:3 15:4 16:1 17:1 18:1 19:1 20:2 21:4 22:1 23:2 24:1 25:1 28:1 29:14 36:5 38:7 39:1 40:1 45:3 47:1 50:1 51:1 54:3 65:3 67:3 70:1 71:1 72:1 78:1 81:5 85:2 99:3 108:1 115:1 120:1 124:1 131:1 143:2 145:1 146:1 154:1 156:1 157:1 161:1 162:1 180:1 187:1 189:1 190:1 191:3 197:1 213:1 216:1 238:1 244:1 249:2 301:2 308:1 310:3 311:2 327:1 334:1 339:2 358:1 360:1 361:1 384:1 444:1 447:1 448:1 449:1 450:1 451:1 452:1 453:1 454:1 455:1 456:1 457:1 458:1 459:2 460:1 461:1 462:1 463:1 464:1 465:1 466:1 467:1 468:1 469:1 470:1 471:1 472:1 473:1 474:1 475:1 476:1 477:1 478:1 479:1 480:1 
-1 0:2 2:1 3:1 4:1 5:3 6:3 7:1 8:14 9:4 10:3 11:1 12:1 13:2 14:3 15:4 16:1 17:1 18:1 19:1 20:2 21:4 22:1 23:2 24:1 25:1 28:1 29:14 36:5 38:7 39:1 40:1 45:3 47:1 50:1 51:1 54:3 65:3 67:3 70:1 71:1 72:1 78:1 81:5 85:2 99:3 108:1 115:1 120:1 124:1 131:1 143:2 145:1 146:1 154:1 156:1 157:1 161:1 162:1 180:1 187:1 189:1 190:1 191:3 197:1 213:1 216:1 238:1 244:1 249:2 301:2 308:1 310:3 311:2 327:1 334:1 339:2 358:1 360:1 361:1 384:1 444:1 447:1 448:1 449:1 450:1 451:1 452:1 453:1 454:1 455:1 456:1 457:1 458:1 459:2 460:1 461:1 462:1 463:1 464:1 465:1 466:1 467:1 468:1 469:1 470:1 471:1 472:1 473:1 474:1 475:1 476:1 477:1 478:1 479:1 480:1 
-1 0:2 2:1 3:1 4:1 5:3 6:3 7:1 8:14 9:4 10:3 11:1 12:1 13:2 14:3 15:4 16:1 17:1 18:1 19:1 20:2 21:4 22:1 23:2 24:1 25:1 28:1 29:14 36:5 38:7 39:1 40:1 45:3 47:1 50:1 51:1 54:3 65:3 67:3 70:1 71:1 72:1 78:1 81:5 85:2 99:3 108:1 115:1 120:1 124:1 131:1 143:2 145:1 146:1 154:1 156:1 157:1 161:1 162:1 180:1 187:1 189:1 190:1 191:3 197:1 213:1 216:1 238:1 244:1 249:2 301:2 308:1 310:3 311:2 327:1 334:1 339:2 358:1 360:1 361:1 384:1 444:1 447:1 448:1 449:1 450:1 451:1 452:1 453:1 454:1 455:1 456:1 457:1 458:1 459:2 460:1 461:1 462:1 463:1 464:1 465:1 466:1 467:1 468:1 469:1 470:1 471:1 472:1 473:1 474:1 475:1 476:1 477:1 478:1 479:1 480:1 
-1 0:2 2:1 3:1 4:1 5:3 6:3 7:1 8:14 9:4 10:3 11:1 12:1 13:2 14:3 15:4 16:1 17:1 18:1 19:1 20:2 21:4 22:1 23:2 24:1 25:1 28:1 29:14 36:5 38:7 39:1 40:1 45:3 47:1 50:1 51:1 54:3 65:3 67:3 70:1 71:1 72:1 78:1 81:5 85:2 99:3 108:1 115:1 120:1 124:1 131:1 143:2 145:1 146:1 154:1 156:1 157:1 161:1 162:1 180:1 187:1 189:1 190:1 191:3 197:1 213:1 216:1 238:1 244:1 249:2 301:2 308:1 310:3 311:2 327:1 334:1 339:2 358:1 360:1 361:1 384:1 444:1 447:1 448:1 449:1 450:1 451:1 452:1 453:1 454:1 455:1 456:1 457:1 458:1 459:2 460:1 461:1 462:1 463:1 464:1 465:1 466:1 467:1 468:1 469:1 470:1 471:1 472:1 473:1 474:1 475:1 476:1 477:1 478:1 479:1 480:1 
-1 0:2 2:1 3:1 4:1 5:3 6:3 7:1 8:14 9:4 10:3 11:1 12:1 13:2 14:3 15:4 16:1 17:1 18:1 19:1 20:2 21:4 22:1 23:2 24:1 25:1 28:1 29:14 36:5 38:7 39:1 40:1 45:3 47:1 50:1 51:1 54:3 65:3 67:3 70:1 71:1 72:1 78:1 81:5 85:2 99:3 108:1 115:1 120:1 124:1 131:1 143:2 145:1 146:1 154:1 156:1 157:1 161:1 162:1 180:1 187:1 189:1 190:1 191:3 197:1 213:1 216:1 238:1 244:1 249:2 301:2 308:1 310:3 311:2 327:1 334:1 339:2 358:1 360:1 361:1 384:1 444:1 447:1 448:1 449:1 450:1 451:1 452:1 453:1 454:1 455:1 456:1 457:1 458:1 459:2 460:1 461:1 462:1 463:1 464:1 465:1 466:1 467:1 468:1 469:1 470:1 471:1 472:1 473:1 474:1 475:1 476:1 477:1 478:1 479:1 480:1 
-1 0:2 2:1 3:1 4:1 5:3 6:3 7:1 8:14 9:4 10:3 11:1 12:1 13:2 14:3 15:4 16:1 17:1 18:1 19:1 20:2 21:4 22:1 23:2 24:1 25:1 28:1 29:14 36:5 38:7 39:1 40:1 45:3 47:1 50:1 51:1 54:3 65:3 67:3 70:1 71:1 72:1 78:1 81:5 85:2 99:3 108:1 115:1 120:1 124:1 131:1 143:2 145:1 146:1 154:1 156:1 157:1 161:1 162:1 180:1 187:1 189:1 190:1 191:3 197:1 213:1 216:1 238:1 244:1 249:2 301:2 308:1 310:3 311:2 327:1 334:1 339:2 358:1 360:1 361:1 384:1 444:1 447:1 448:1 449:1 450:1 451:1 452:1 453:1 454:1 455:1 456:1 457:1 458:1 459:2 460:1 461:1 462:1 463:1 464:1 465:1 466:1 467:1 468:1 469:1 470:1 471:1 472:1 473:1 474:1 475:1 476:1 477:1 478:1 479:1 480:1 
-1 0:2 2:1 3:1 4:1 5:3 6:3 7:1 8:14 9:4 10:3 11:1 12:1 13:2 14:3 15:4 16:1 17:1 18:1 19:1 20:2 21:4 22:1 23:2 24:1 25:1 28:1 29:14 36:5 38:7 39:1 40:1 45:3 47:1 50:1 51:1 54:3 65:3 67:3 70:1 71:1 72:1 78:1 81:5 85:2 99:3 108:1 115:1 120:1 124:1 131:1 143:2 145:1 146:1 154:1 156:1 157:1 161:1 162:1 180:1 187:1 189:1 190:1 191:3 197:1 213:1 216:1 238:1 244:1 249:2 301:2 308:1 310:3 311:2 327:1 334:1 339:2 358:1 360:1 361:1 384:1 444:1 447:1 448:1 449:1 450:1 451:1 452:1 453:1 454:1 455:1 456:1 457:1 458:1 459:2 460:1 461:1 462:1 463:1 464:1 465:1 466:1 467:1 468:1 469:1 470:1 471:1 472:1 473:1 474:1 475:1 476:1 477:1 478:1 479:1 480:1 
-1 0:2 2:1 3:1 4:1 5:3 6:3 7:1 8:14 9:4 10:3 11:1 12:1 13:2 14:3 15:4 16:1 17:1 18:1 19:1 20:2 21:4 22:1 23:2 24:1 25:1 28:1 29:14 36:5 38:7 39:1 40:1 45:3 47:1 50:1 51:1 54:3 65:3 67:3 70:1 71:1 72:1 78:1 81:5 85:2 99:3 108:1 115:1 120:1 124:1 131:1 143:2 145:1 146:1 154:1 156:1 157:1 161:1 162:1 180:1 187:1 189:1 190:1 191:3 197:1 213:1 216:1 238:1 244:1 249:2 301:2 308:1 310:3 311:2 327:1 334:1 339:2 358:1 360:1 361:1 384:1 444:1 447:1 448:1 449:1 450:1 451:1 452:1 453:1 454:1 455:1 456:1 457:1 458:1 459:2 460:1 461:1 462:1 463:1 464:1 465:1 466:1 467:1 468:1 469:1 470:1 471:1 472:1 473:1 474:1 475:1 476:1 477:1 478:1 479:1 480:1 
-1 0:2 2:1 3:1 4:1 5:3 6:3 7:1 8:14 9:4 10:3 11:1 12:1 13:2 14:3 15:4 16:1 17:1 18:1 19:1 20:2 21:4 22:1 23:2 24:1 25:1 28:1 29:14 36:5 38:7 39:1 40:1 45:3 47:1 50:1 51:1 54:3 65:3 67:3 70:1 71:1 72:1 78:1 81:5 85:2 99:3 108:1 115:1 120:1 124:1 131:1 143:2 145:1 146:1 154:1 156:1 157:1 161:1 162:1 180:1 187:1 189:1 190:1 191:3 197:1 213:1 216:1 238:1 244:1 249:2 301:2 308:1 310:3 311:2 327:1 334:1 339:2 358:1 360:1 361:1 384:1 444:1 447:1 448:1 449:1 450:1 451:1 452:1 453:1 454:1 455:1 456:1 457:1 458:1 459:2 460:1 461:1 462:1 463:1 464:1 465:1 466:1 467:1 468:1 469:1 470:1 471:1 472:1 473:1 474:1 475:1 476:1 477:1 478:1 479:1 480:1 
-1 0:2 2:1 3:1 4:1 5:3 6:3 7:1 8:14 9:4 10:3 11:1 12:1 13:2 14:3 15:4 16:1 17:1 18:1 19:1 20:2 21:4 22:1 23:2 24:1 25:1 28:1 29:14 36:5 38:7 39:1 40:1 45:3 47:1 50:1 51:1 54:3 65:3 67:3 70:1 71:1 72:1 78:1 81:5 85:2 99:3 108:1 115:1 120:1 124:1 131:1 143:2 145:1 146:1 154:1 156:1 157:1 161:1 162:1 180:1 187:1 189:1 190:1 191:3 197:1 213:1 216:1 238:1 244:1 249:2 301:2 308:1 310:3 311:2 327:1 334:1 339:2 358:1 360:1 361:1 384:1 444:1 447:1 448:1 449:1 450:1 451:1 452:1 453:1 454:1 455:1 456:1 457:1 458:1 459:2 460:1 461:1 462:1 463:1 464:1 465:1 466:1 467:1 468:1 469:1 470:1 471:1 472:1 473:1 474:1 475:1 476:1 477:1 478:1 479:1 480:1 
-1 0:2 2:1 3:1 4:1 5:3 6:3 7:1 8:14 9:4 10:3 11:1 12:1 13:2 14:3 15:4 16:1 17:1 18:1 19:1 20:2 21:4 22:1 23:2 24:1 25:1 28:1 29:14 36:5 38:7 39:1 40:1 45:3 47:1 50:1 51:1 54:3 65:3 67:3 70:1 71:1 72:1 78:1 81:5 85:2 99:3 108:1 115:1 120:1 124:1 131:1 143:2 145:1 146:1 154:1 156:1 157:1 161:1 162:1 180:1 187:1 189:1 190:1 191:3 197:1 213:1 216:1 238:1 244:1 249:2 301:2 308:1 310:3 311:2 327:1 334:1 339:2 358:1 360:1 361:1 384:1 444:1 447:1 448:1 449:1 450:1 451:1 452:1 453:1 454:1 455:1 456:1 457:1 458:1 459:2 460:1 461:1 462:1 463:1 464:1 465:1 466:1 467:1 468:1 469:1 470:1 471:1 472:1 473:1 474:1 475:1 476:1 477:1 478:1 479:1 480:1 
-1 0:2 2:1 3:1 4:1 5:3 6:3 7:1 8:14 9:4 10:3 11:1 12:1 13:2 14:3 15:4 16:1 17:1 18:1 19:1 20:2 21:4 22:1 23:2 24:1 25:1 28:1 29:14 36:5 38:7 39:1 40:1 45:3 47:1 50:1 51:1 54:3 65:3 67:3 70:1 71:1 72:1 78:1 81:5 85:2 99:3 108:1 115:1 120:1 124:1 131:1 143:2 145:1 146:1 154:1 156:1 157:1 161:1 162:1 180:1 187:1 189:1 190:1 191:3 197:1 213:1 216:1 238:1 244:1 249:2 301:2 308:1 310:3 311:2 327:1 334:1 339:2 358:1 360:1 361:1 384:1 444:1 447:1 448:1 449:1 450:1 451:1 452:1 453:1 454:1 455:1 456:1 457:1 458:1 459:2 460:1 461:1 462:1 463:1 464:1 465:1 466:1 467:1 468:1 469:1 470:1 471:1 472:1 473:1 474:1 475:1 476:1 477:1 478:1 479:1 480:1 
-1 0:2 2:1 3:1 4:1 5:3 6:3 7:1 8:14 9:4 10:3 11:1 12:1 13:2 14:3 15:4 16:1 17:1 18:1 19:1 20:2 21:4 22:1 23:2 24:1 25:1 28:1 29:14 36:5 38:7 39:1 40:1 45:3 47:1 50:1 51:1 54:3 65:3 67:3 70:1 71:1 72:1 78:1 81:5 85:2 99:3 108:1 115:1 120:1 124:1 131:1 143:2 145:1 146:1 154:1 156:1 157:1 161:1 162:1 180:1 187:1 189:1 190:1 191:3 197:1 213:1 216:1 238:1 244:1 249:2 301:2 308:1 310:3 311:2 327:1 334:1 339:2 358:1 360:1 361:1 384:1 444:1 447:1 448:1 449:1 450:1 451:1 452:1 453:1 454:1 455:1 456:1 457:1 458:1 459:2 460:1 461:1 462:1 463:1 464:1 465:1 466:1 467:1 468:1 469:1 470:1 471:1 472:1 473:1 474:1 475:1 476:1 477:1 478:1 479:1 480:1 
-1 0:2 2:1 3:1 4:1 5:3 6:3 7:1 8:14 9:4 10:3 11:1 12:1 13:2 14:3 15:4 16:1 17:1 18:1 19:1 20:2 21:4 22:1 23:2 24:1 25:1 28:1 29:14 36:5 38:7 39:1 40:1 45:3 47:1 50:1 51:1 54:3 65:3 67:3 70:1 71:1 72:1 78:1 81:5 85:2 99:3 108:1 115:1 120:1 124:1 131:1 143:2 145:1 146:1 154:1 156:1 157:1 161:1 162:1 180:1 187:1 189:1 190:1 191:3 197:1 213:1 216:1 238:1 244:1 249:2 301:2 308:1 310:3 311:2 327:1 334:1 339:2 358:1 360:1 361:1 384:1 444:1 447:1 448:1 449:1 450:1 451:1 452:1 453:1 454:1 455:1 456:1 457:1 458:1 459:2 460:1 461:1 462:1 463:1 464:1 465:1 466:1 467:1 468:1 469:1 470:1 471:1 472:1 473:1 474:1 475:1 476:1 477:1 478:1 479:1 480:1 
-1 0:2 2:1 3:1 4:1 5:3 6:3 7:1 8:14 9:4 10:3 11:1 12:1 13:2 14:3 15:4 16:1 17:1 18:1 19:1 20:2 21:4 22:1 23:2 24:1 25:1 28:1 29:14 36:5 38:7 39:1 40:1 45:3 47:1 50:1 51:1 54:3 65:3 67:3 70:1 71:1 72:1 78:1 81:5 85:2 99:3 108:1 115:1 120:1 124:1 131:1 143:2 145:1 146:1 154:1 156:1 157:1 161:1 162:1 180:1 187:1 189:1 190:1 191:3 197:1 213:1 216:1 238:1 244:1 249:2 301:2 308:1 310:3 311:2 327:1 334:1 339:2 358:1 360:1 361:1 384:1 444:1 447:1 448:1 449:1 450:1 451:1 452:1 453:1 454:1 455:1 456:1 457:1 458:1 459:2 460:1 461:1 462:1 463:1 464:1 465:1 466:1 467:1 468:1 469:1 470:1 471:1 472:1 473:1 474:1 475:1 476:1 477:1 478:1 479:1 480:1 
-1 0:2 2:1 3:1 4:1 5:3 6:3 7:1 8:14 9:4 10:3 11:1 12:1 13:2 14:3 15:4 16:1 17:1 18:1 19:1 20:2 21:4 22:1 23:2 24:1 25:1 28:1 29:14 36:5 38:7 39:1 40:1 45:3 47:1 50:1 51:1 54:3 65:3 67:3 70:1 71:1 72:1 78:1 81:5 85:2 99:3 108:1 115:1 120:1 124:1 131:1 143:2 145:1 146:1 154:1 156:1 157:1 161:1 162:1 180:1 187:1 189:1 190:1 191:3 197:1 213:1 216:1 238:1 244:1 249:2 301:2 308:1 310:3 311:2 327:1 334:1 339:2 358:1 360:1 361:1 384:1 444:1 447:1 448:1 449:1 450:1 451:1 452:1 453:1 454:1 455:1 456:1 457:1 458:1 459:2 460:1 461:1 462:1 463:1 464:1 465:1 466:1 467:1 468:1 469:1 470:1 471:1 472:1 473:1 474:1 475:1 476:1 477:1 478:1 479:1 480:1 
-1 0:2 2:1 3:1 4:1 5:3 6:3 7:1 8:14 9:4 10:3 11:1 12:1 13:2 14:3 15:4 16:1 17:1 18:1 19:1 20:2 21:4 22:1 23:2 24:1 25:1 28:1 29:14 36:5 38:7 39:1 40:1 45:3 47:1 50:1 51:1 54:3 65:3 67:3 70:1 71:1 72:1 78:1 81:5 85:2 99:3 108:1 115:1 120:1 124:1 131:1 143:2 145:1 146:1 154:1 156:1 157:1 161:1 162:1 180:1 187:1 189:1 190:1 191:3 197:1 213:1 216:1 238:1 244:1 249:2 301:2 308:1 310:3 311:2 327:1 334:1 339:2 358:1 360:1 361:1 384:1 444:1 447:1 448:1 449:1 450:1 451:1 452:1 453:1 454:1 455:1 456:1 457:1 458:1 459:2 460:1 461:1 462:1 463:1 464:1 465:1 466:1 467:1 468:1 469:1 470:1 471:1 472:1 473:1 474:1 475:1 476:1 477:1 478:1 479:1 480:1 
