svm_type c_svc
kernel_type rbf
gamma 0.000121462
nr_class 2
total_sv 60
rho 1.12117
label 1 0
nr_sv 28 32
SV
0.8620252653820386 0:2 2:1 3:1 4:1 5:3 6:3 7:1 8:14 9:4 10:3 11:1 12:1 13:2 14:3 15:4 16:1 17:1 18:1 19:1 20:2 21:4 22:1 23:2 24:1 25:1 28:1 29:14 36:5 38:7 39:1 40:1 45:3 47:1 50:1 51:1 54:3 65:3 67:3 70:1 71:1 72:1 78:1 81:5 85:2 99:3 108:1 115:1 120:1 124:1 131:1 143:2 145:1 146:1 154:1 156:1 157:1 161:1 162:1 180:1 187:1 189:1 190:1 191:3 197:1 213:1 216:1 238:1 244:1 249:2 301:2 308:1 310:3 311:2 327:1 334:1 339:2 358:1 360:1 361:1 384:1 444:1 447:1 448:1 449:1 450:1 451:1 452:1 453:1 454:1 455:1 456:1 457:1 458:1 459:2 460:1 461:1 462:1 463:1 464:1 465:1 466:1 467:1 468:1 469:1 470:1 471:1 472:1 473:1 474:1 475:1 476:1 477:1 478:1 479:1 480:1 
1 0:2 2:1 3:1 4:1 5:3 6:3 7:1 8:14 9:4 10:3 11:1 12:1 13:2 14:3 15:4 16:1 17:1 18:1 19:1 20:2 21:4 22:1 23:2 24:1 25:1 28:1 29:14 36:5 38:7 39:1 40:1 45:3 47:1 50:1 51:1 54:3 65:3 67:3 70:1 71:1 72:1 78:1 81:5 85:2 99:3 108:1 115:1 120:1 124:1 131:1 143:2 145:1 146:1 154:1 156:1 157:1 161:1 162:1 180:1 187:1 189:1 190:1 191:3 197:1 213:1 216:1 238:1 244:1 249:2 301:2 308:1 310:3 311:2 327:1 334:1 339:2 358:1 360:1 361:1 384:1 444:1 447:1 448:1 449:1 450:1 451:1 452:1 453:1 454:1 455:1 456:1 457:1 458:1 459:2 460:1 461:1 462:1 463:1 464:1 465:1 466:1 467:1 468:1 469:1 470:1 471:1 472:1 473:1 474:1 475:1 476:1 477:1 478:1 479:1 480:1 
1 0:2 2:1 3:1 4:1 5:3 6:3 7:1 8:14 9:4 10:3 11:1 12:1 13:2 14:3 15:4 16:1 17:1 18:1 19:1 20:2 21:4 22:1 23:2 24:1 25:1 28:1 29:14 36:5 38:7 39:1 40:1 45:3 47:1 50:1 51:1 54:3 65:3 67:3 70:1 71:1 72:1 78:1 81:5 85:2 99:3 108:1 115:1 120:1 124:1 131:1 143:2 145:1 146:1 154:1 156:1 157:1 161:1 162:1 180:1 187:1 189:1 190:1 191:3 197:1 213:1 216:1 238:1 244:1 249:2 301:2 308:1 310:3 311:2 327:1 334:1 339:2 358:1 360:1 361:1 384:1 444:1 447:1 448:1 449:1 450:1 451:1 452:1 453:1 454:1 455:1 456:1 457:1 458:1 459:2 460:1 461:1 462:1 463:1 464:1 465:1 466:1 467:1 468:1 469:1 470:1 471:1 472:1 473:1 474:1 475:1 476:1 477:1 478:1 479:1 480:1 
1 0:2 2:1 3:1 4:1 5:3 6:3 7:1 8:14 9:4 10:3 11:1 12:1 13:2 14:3 15:4 16:1 17:1 18:1 19:1 20:2 21:4 22:1 23:2 24:1 25:1 28:1 29:14 36:5 38:7 39:1 40:1 45:3 47:1 50:1 51:1 54:3 65:3 67:3 70:1 71:1 72:1 78:1 81:5 85:2 99:3 108:1 115:1 120:1 124:1 131:1 143:2 145:1 146:1 154:1 156:1 157:1 161:1 162:1 180:1 187:1 189:1 190:1 191:3 197:1 213:1 216:1 238:1 244:1 249:2 301:2 308:1 310:3 311:2 327:1 334:1 339:2 358:1 360:1 361:1 384:1 444:1 447:1 448:1 449:1 450:1 451:1 452:1 453:1 454:1 455:1 456:1 457:1 458:1 459:2 460:1 461:1 462:1 463:1 464:1 465:1 466:1 467:1 468:1 469:1 470:1 471:1 472:1 473:1 474:1 475:1 476:1 477:1 478:1 479:1 480:1 
1 0:2 2:1 3:1 4:1 5:3 6:3 7:1 8:14 9:4 10:3 11:1 12:1 13:2 14:3 15:4 16:1 17:1 18:1 19:1 20:2 21:4 22:1 23:2 24:1 25:1 28:1 29:14 36:5 38:7 39:1 40:1 45:3 47:1 50:1 51:1 54:3 65:3 67:3 70:1 71:1 72:1 78:1 81:5 85:2 99:3 108:1 115:1 120:1 124:1 131:1 143:2 145:1 146:1 154:1 156:1 157:1 161:1 162:1 180:1 187:1 189:1 190:1 191:3 197:1 213:1 216:1 238:1 244:1 249:2 301:2 308:1 310:3 311:2 327:1 334:1 339:2 358:1 360:1 361:1 384:1 444:1 447:1 448:1 449:1 450:1 451:1 452:1 453:1 454:1 455:1 456:1 457:1 458:1 459:2 460:1 461:1 462:1 463:1 464:1 465:1 466:1 467:1 468:1 469:1 470:1 471:1 472:1 473:1 474:1 475:1 476:1 477:1 478:1 479:1 480:1 
1 0:2 2:1 3:1 4:1 5:3 6:3 7:1 8:14 9:4 10:3 11:1 12:1 13:2 14:3 15:4 16:1 17:1 18:1 19:1 20:2 21:4 22:1 23:2 24:1 25:1 28:1 29:14 36:5 38:7 39:1 40:1 45:3 47:1 50:1 51:1 54:3 65:3 67:3 70:1 71:1 72:1 78:1 81:5 85:2 99:3 108:1 115:1 120:1 124:1 131:1 143:2 145:1 146:1 154:1 156:1 157:1 161:1 162:1 180:1 187:1 189:1 190:1 191:3 197:1 213:1 216:1 238:1 244:1 249:2 301:2 308:1 310:3 311:2 327:1 334:1 339:2 358:1 360:1 361:1 384:1 444:1 447:1 448:1 449:1 450:1 451:1 452:1 453:1 454:1 455:1 456:1 457:1 458:1 459:2 460:1 461:1 462:1 463:1 464:1 465:1 466:1 467:1 468:1 469:1 470:1 471:1 472:1 473:1 474:1 475:1 476:1 477:1 478:1 479:1 480:1 
1 0:2 2:1 3:1 4:1 5:3 6:3 7:1 8:14 9:4 10:3 11:1 12:1 13:2 14:3 15:4 16:1 17:1 18:1 19:1 20:2 21:4 22:1 23:2 24:1 25:1 28:1 29:14 36:5 38:7 39:1 40:1 45:3 47:1 50:1 51:1 54:3 65:3 67:3 70:1 71:1 72:1 78:1 81:5 85:2 99:3 108:1 115:1 120:1 124:1 131:1 143:2 145:1 146:1 154:1 156:1 157:1 161:1 162:1 180:1 187:1 189:1 190:1 191:3 197:1 213:1 216:1 238:1 244:1 249:2 301:2 308:1 310:3 311:2 327:1 334:1 339:2 358:1 360:1 361:1 384:1 444:1 447:1 448:1 449:1 450:1 451:1 452:1 453:1 454:1 455:1 456:1 457:1 458:1 459:2 460:1 461:1 462:1 463:1 464:1 465:1 466:1 467:1 468:1 469:1 470:1 471:1 472:1 473:1 474:1 475:1 476:1 477:1 478:1 479:1 480:1 
1 0:2 2:1 3:1 4:1 5:3 6:3 7:1 8:14 9:4 10:3 11:1 12:1 13:2 14:3 15:4 16:1 17:1 18:1 19:1 20:2 21:4 22:1 23:2 24:1 25:1 28:1 29:14 36:5 38:7 39:1 40:1 45:3 47:1 50:1 51:1 54:3 65:3 67:3 70:1 71:1 72:1 78:1 81:5 85:2 99:3 108:1 115:1 120:1 124:1 131:1 143:2 145:1 146:1 154:1 156:1 157:1 161:1 162:1 180:1 187:1 189:1 190:1 191:3 197:1 213:1 216:1 238:1 244:1 249:2 301:2 308:1 310:3 311:2 327:1 334:1 339:2 358:1 360:1 361:1 384:1 444:1 447:1 448:1 449:1 450:1 451:1 452:1 453:1 454:1 455:1 456:1 457:1 458:1 459:2 460:1 461:1 462:1 463:1 464:1 465:1 466:1 467:1 468:1 469:1 470:1 471:1 472:1 473:1 474:1 475:1 476:1 477:1 478:1 479:1 480:1 
1 0:2 2:1 3:1 4:1 5:3 6:3 7:1 8:14 9:4 10:3 11:1 12:1 13:2 14:3 15:4 16:1 17:1 18:1 19:1 20:2 21:4 22:1 23:2 24:1 25:1 28:1 29:14 36:5 38:7 39:1 40:1 45:3 47:1 50:1 51:1 54:3 65:3 67:3 70:1 71:1 72:1 78:1 81:5 85:2 99:3 108:1 115:1 120:1 124:1 131:1 143:2 145:1 146:1 154:1 156:1 157:1 161:1 162:1 180:1 187:1 189:1 190:1 191:3 197:1 213:1 216:1 238:1 244:1 249:2 301:2 308:1 310:3 311:2 327:1 334:1 339:2 358:1 360:1 361:1 384:1 444:1 447:1 448:1 449:1 450:1 451:1 452:1 453:1 454:1 455:1 456:1 457:1 458:1 459:2 460:1 461:1 462:1 463:1 464:1 465:1 466:1 467:1 468:1 469:1 470:1 471:1 472:1 473:1 474:1 475:1 476:1 477:1 478:1 479:1 480:1 
1 0:2 2:1 3:1 4:1 5:3 6:3 7:1 8:14 9:4 10:3 11:1 12:1 13:2 14:3 15:4 16:1 17:1 18:1 19:1 20:2 21:4 22:1 23:2 24:1 25:1 28:1 29:14 36:5 38:7 39:1 40:1 45:3 47:1 50:1 51:1 54:3 65:3 67:3 70:1 71:1 72:1 78:1 81:5 85:2 99:3 108:1 115:1 120:1 124:1 131:1 143:2 145:1 146:1 154:1 156:1 157:1 161:1 162:1 180:1 187:1 189:1 190:1 191:3 197:1 213:1 216:1 238:1 244:1 249:2 301:2 308:1 310:3 311:2 327:1 334:1 339:2 358:1 360:1 361:1 384:1 444:1 447:1 448:1 449:1 450:1 451:1 452:1 453:1 454:1 455:1 456:1 457:1 458:1 459:2 460:1 461:1 462:1 463:1 464:1 465:1 466:1 467:1 468:1 469:1 470:1 471:1 472:1 473:1 474:1 475:1 476:1 477:1 478:1 479:1 480:1 
1 0:2 2:1 3:1 4:1 5:3 6:3 7:1 8:14 9:4 10:3 11:1 12:1 13:2 14:3 15:4 16:1 17:1 18:1 19:1 20:2 21:4 22:1 23:2 24:1 25:1 28:1 29:14 36:5 38:7 39:1 40:1 45:3 47:1 50:1 51:1 54:3 65:3 67:3 70:1 71:1 72:1 78:1 81:5 85:2 99:3 108:1 115:1 120:1 124:1 131:1 143:2 145:1 146:1 154:1 156:1 157:1 161:1 162:1 180:1 187:1 189:1 190:1 191:3 197:1 213:1 216:1 238:1 244:1 249:2 301:2 308:1 310:3 311:2 327:1 334:1 339:2 358:1 360:1 361:1 384:1 444:1 447:1 448:1 449:1 450:1 451:1 452:1 453:1 454:1 455:1 456:1 457:1 458:1 459:2 460:1 461:1 462:1 463:1 464:1 465:1 466:1 467:1 468:1 469:1 470:1 471:1 472:1 473:1 474:1 475:1 476:1 477:1 478:1 479:1 480:1 
1 0:2 2:1 3:1 4:1 5:3 6:3 7:1 8:14 9:4 10:3 11:1 12:1 13:2 14:3 15:4 16:1 17:1 18:1 19:1 20:2 21:4 22:1 23:2 24:1 25:1 28:1 29:14 36:5 38:7 39:1 40:1 45:3 47:1 50:1 51:1 54:3 65:3 67:3 70:1 71:1 72:1 78:1 81:5 85:2 99:3 108:1 115:1 120:1 124:1 131:1 143:2 145:1 146:1 154:1 156:1 157:1 161:1 162:1 180:1 187:1 189:1 190:1 191:3 197:1 213:1 216:1 238:1 244:1 249:2 301:2 308:1 310:3 311:2 327:1 334:1 339:2 358:1 360:1 361:1 384:1 444:1 447:1 448:1 449:1 450:1 451:1 452:1 453:1 454:1 455:1 456:1 457:1 458:1 459:2 460:1 461:1 462:1 463:1 464:1 465:1 466:1 467:1 468:1 469:1 470:1 471:1 472:1 473:1 474:1 475:1 476:1 477:1 478:1 479:1 480:1 
1 0:2 2:1 3:1 4:1 5:3 6:3 7:1 8:14 9:4 10:3 11:1 12:1 13:2 14:3 15:4 16:1 17:1 18:1 19:1 20:2 21:4 22:1 23:2 24:1 25:1 28:1 29:14 36:5 38:7 39:1 40:1 45:3 47:1 50:1 51:1 54:3 65:3 67:3 70:1 71:1 72:1 78:1 81:5 85:2 99:3 108:1 115:1 120:1 124:1 131:1 143:2 145:1 146:1 154:1 156:1 157:1 161:1 162:1 180:1 187:1 189:1 190:1 191:3 197:1 213:1 216:1 238:1 244:1 249:2 301:2 308:1 310:3 311:2 327:1 334:1 339:2 358:1 360:1 361:1 384:1 444:1 447:1 448:1 449:1 450:1 451:1 452:1 453:1 454:1 455:1 456:1 457:1 458:1 459:2 460:1 461:1 462:1 463:1 464:1 465:1 466:1 467:1 468:1 469:1 470:1 471:1 472:1 473:1 474:1 475:1 476:1 477:1 478:1 479:1 480:1 
1 0:2 2:1 3:1 4:1 5:3 6:3 7:1 8:14 9:4 10:3 11:1 12:1 13:2 14:3 15:4 16:1 17:1 18:1 19:1 20:2 21:4 22:1 23:2 24:1 25:1 28:1 29:14 36:5 38:7 39:1 40:1 45:3 47:1 50:1 51:1 54:3 65:3 67:3 70:1 71:1 72:1 78:1 81:5 85:2 99:3 108:1 115:1 120:1 124:1 131:1 143:2 145:1 146:1 154:1 156:1 157:1 161:1 162:1 180:1 187:1 189:1 190:1 191:3 197:1 213:1 216:1 238:1 244:1 249:2 301:2 308:1 310:3 311:2 327:1 334:1 339:2 358:1 360:1 361:1 384:1 444:1 447:1 448:1 449:1 450:1 451:1 452:1 453:1 454:1 455:1 456:1 457:1 458:1 459:2 460:1 461:1 462:1 463:1 464:1 465:1 466:1 467:1 468:1 469:1 470:1 471:1 472:1 473:1 474:1 475:1 476:1 477:1 478:1 479:1 480:1 
1 0:2 2:1 3:1 4:1 5:3 6:3 7:1 8:14 9:4 10:3 11:1 12:1 13:2 14:3 15:4 16:1 17:1 18:1 19:1 20:2 21:4 22:1 23:2 24:1 25:1 28:1 29:14 36:5 38:7 39:1 40:1 45:3 47:1 50:1 51:1 54:3 65:3 67:3 70:1 71:1 72:1 78:1 81:5 85:2 99:3 108:1 115:1 120:1 124:1 131:1 143:2 145:1 146:1 154:1 156:1 157:1 161:1 162:1 180:1 187:1 189:1 190:1 191:3 197:1 213:1 216:1 238:1 244:1 249:2 301:2 308:1 310:3 311:2 327:1 334:1 339:2 358:1 360:1 361:1 384:1 444:1 447:1 448:1 449:1 450:1 451:1 452:1 453:1 454:1 455:1 456:1 457:1 458:1 459:2 460:1 461:1 462:1 463:1 464:1 465:1 466:1 467:1 468:1 469:1 470:1 471:1 472:1 473:1 474:1 475:1 476:1 477:1 478:1 479:1 480:1 
1 0:2 2:1 3:1 4:1 5:3 6:3 7:1 8:14 9:4 10:3 11:1 12:1 13:2 14:3 15:4 16:1 17:1 18:1 19:1 20:2 21:4 22:1 23:2 24:1 25:1 28:1 29:14 36:5 38:7 39:1 40:1 45:3 47:1 50:1 51:1 54:3 65:3 67:3 70:1 71:1 72:1 78:1 81:5 85:2 99:3 108:1 115:1 120:1 124:1 131:1 143:2 145:1 146:1 154:1 156:1 157:1 161:1 162:1 180:1 187:1 189:1 190:1 191:3 197:1 213:1 216:1 238:1 244:1 249:2 301:2 308:1 310:3 311:2 327:1 334:1 339:2 358:1 360:1 361:1 384:1 444:1 447:1 448:1 449:1 450:1 451:1 452:1 453:1 454:1 455:1 456:1 457:1 458:1 459:2 460:1 461:1 462:1 463:1 464:1 465:1 466:1 467:1 468:1 469:1 470:1 471:1 472:1 473:1 474:1 475:1 476:1 477:1 478:1 479:1 480:1 
1 0:2 2:1 3:1 4:1 5:3 6:3 7:1 8:14 9:4 10:3 11:1 12:1 13:2 14:3 15:4 16:1 17:1 18:1 19:1 20:2 21:4 22:1 23:2 24:1 25:1 28:1 29:14 36:5 38:7 39:1 40:1 45:3 47:1 50:1 51:1 54:3 65:3 67:3 70:1 71:1 72:1 78:1 81:5 85:2 99:3 108:1 115:1 120:1 124:1 131:1 143:2 145:1 146:1 154:1 156:1 157:1 161:1 162:1 180:1 187:1 189:1 190:1 191:3 197:1 213:1 216:1 238:1 244:1 249:2 301:2 308:1 310:3 311:2 327:1 334:1 339:2 358:1 360:1 361:1 384:1 444:1 447:1 448:1 449:1 450:1 451:1 452:1 453:1 454:1 455:1 456:1 457:1 458:1 459:2 460:1 461:1 462:1 463:1 464:1 465:1 466:1 467:1 468:1 469:1 470:1 471:1 472:1 473:1 474:1 475:1 476:1 477:1 478:1 479:1 480:1 
1 0:2 2:1 3:1 4:1 5:3 6:3 7:1 8:14 9:4 10:3 11:1 12:1 13:2 14:3 15:4 16:1 17:1 18:1 19:1 20:2 21:4 22:1 23:2 24:1 25:1 28:1 29:14 36:5 38:7 39:1 40:1 45:3 47:1 50:1 51:1 54:3 65:3 67:3 70:1 71:1 72:1 78:1 81:5 85:2 99:3 108:1 115:1 120:1 124:1 131:1 143:2 145:1 146:1 154:1 156:1 157:1 161:1 162:1 180:1 187:1 189:1 190:1 191:3 197:1 213:1 216:1 238:1 244:1 249:2 301:2 308:1 310:3 311:2 327:1 334:1 339:2 358:1 360:1 361:1 384:1 444:1 447:1 448:1 449:1 450:1 451:1 452:1 453:1 454:1 455:1 456:1 457:1 458:1 459:2 460:1 461:1 462:1 463:1 464:1 465:1 466:1 467:1 468:1 469:1 470:1 471:1 472:1 473:1 474:1 475:1 476:1 477:1 478:1 479:1 480:1 
1 0:2 2:1 3:1 4:1 5:3 6:3 7:1 8:14 9:4 10:3 11:1 12:1 13:2 14:3 15:4 16:1 17:1 18:1 19:1 20:2 21:4 22:1 23:2 24:1 25:1 28:1 29:14 36:5 38:7 39:1 40:1 45:3 47:1 50:1 51:1 54:3 65:3 67:3 70:1 71:1 72:1 78:1 81:5 85:2 99:3 108:1 115:1 120:1 124:1 131:1 143:2 145:1 146:1 154:1 156:1 157:1 161:1 162:1 180:1 187:1 189:1 190:1 191:3 197:1 213:1 216:1 238:1 244:1 249:2 301:2 308:1 310:3 311:2 327:1 334:1 339:2 358:1 360:1 361:1 384:1 444:1 447:1 448:1 449:1 450:1 451:1 452:1 453:1 454:1 455:1 456:1 457:1 458:1 459:2 460:1 461:1 462:1 463:1 464:1 465:1 466:1 467:1 468:1 469:1 470:1 471:1 472:1 473:1 474:1 475:1 476:1 477:1 478:1 479:1 480:1 
1 0:2 2:1 3:1 4:1 5:3 6:3 7:1 8:14 9:4 10:3 11:1 12:1 13:2 14:3 15:4 16:1 17:1 18:1 19:1 20:2 21:4 22:1 23:2 24:1 25:1 28:1 29:14 36:5 38:7 39:1 40:1 45:3 47:1 50:1 51:1 54:3 65:3 67:3 70:1 71:1 72:1 78:1 81:5 85:2 99:3 108:1 115:1 120:1 124:1 131:1 143:2 145:1 146:1 154:1 156:1 157:1 161:1 162:1 180:1 187:1 189:1 190:1 191:3 197:1 213:1 216:1 238:1 244:1 249:2 301:2 308:1 310:3 311:2 327:1 334:1 339:2 358:1 360:1 361:1 384:1 444:1 447:1 448:1 449:1 450:1 451:1 452:1 453:1 454:1 455:1 456:1 457:1 458:1 459:2 460:1 461:1 462:1 463:1 464:1 465:1 466:1 467:1 468:1 469:1 470:1 471:1 472:1 473:1 474:1 475:1 476:1 477:1 478:1 479:1 480:1 
1 0:2 2:1 3:1 4:1 5:3 6:3 7:1 8:14 9:4 10:3 11:1 12:1 13:2 14:3 15:4 16:1 17:1 18:1 19:1 20:2 21:4 22:1 23:2 24:1 25:1 28:1 29:14 36:5 38:7 39:1 40:1 45:3 47:1 50:1 51:1 54:3 65:3 67:3 70:1 71:1 72:1 78:1 81:5 85:2 99:3 108:1 115:1 120:1 124:1 131:1 143:2 145:1 146:1 154:1 156:1 157:1 161:1 162:1 180:1 187:1 189:1 190:1 191:3 197:1 213:1 216:1 238:1 244:1 249:2 301:2 308:1 310:3 311:2 327:1 334:1 339:2 358:1 360:1 361:1 384:1 444:1 447:1 448:1 449:1 450:1 451:1 452:1 453:1 454:1 455:1 456:1 457:1 458:1 459:2 460:1 461:1 462:1 463:1 464:1 465:1 466:1 467:1 468:1 469:1 470:1 471:1 472:1 473:1 474:1 475:1 476:1 477:1 478:1 479:1 480:1 
1 0:2 2:1 3:1 4:1 5:3 6:3 7:1 8:14 9:4 10:3 11:1 12:1 13:2 14:3 15:4 16:1 17:1 18:1 19:1 20:2 21:4 22:1 23:2 24:1 25:1 28:1 29:14 36:5 38:7 39:1 40:1 45:3 47:1 50:1 51:1 54:3 65:3 67:3 70:1 71:1 72:1 78:1 81:5 85:2 99:3 108:1 115:1 120:1 124:1 131:1 143:2 145:1 146:1 154:1 156:1 157:1 161:1 162:1 180:1 187:1 189:1 190:1 191:3 197:1 213:1 216:1 238:1 244:1 249:2 301:2 308:1 310:3 311:2 327:1 334:1 339:2 358:1 360:1 361:1 384:1 444:1 447:1 448:1 449:1 450:1 451:1 452:1 453:1 454:1 455:1 456:1 457:1 458:1 459:2 460:1 461:1 462:1 463:1 464:1 465:1 466:1 467:1 468:1 469:1 470:1 471:1 472:1 473:1 474:1 475:1 476:1 477:1 478:1 479:1 480:1 
1 0:2 2:1 3:1 4:1 5:3 6:3 7:1 8:14 9:4 10:3 11:1 12:1 13:2 14:3 15:4 16:1 17:1 18:1 19:1 20:2 21:4 22:1 23:2 24:1 25:1 28:1 29:14 36:5 38:7 39:1 40:1 45:3 47:1 50:1 51:1 54:3 65:3 67:3 70:1 71:1 72:1 78:1 81:5 85:2 99:3 108:1 115:1 120:1 124:1 131:1 143:2 145:1 146:1 154:1 156:1 157:1 161:1 162:1 180:1 187:1 189:1 190:1 191:3 197:1 213:1 216:1 238:1 244:1 249:2 301:2 308:1 310:3 311:2 327:1 334:1 339:2 358:1 360:1 361:1 384:1 444:1 447:1 448:1 449:1 450:1 451:1 452:1 453:1 454:1 455:1 456:1 457:1 458:1 459:2 460:1 461:1 462:1 463:1 464:1 465:1 466:1 467:1 468:1 469:1 470:1 471:1 472:1 473:1 474:1 475:1 476:1 477:1 478:1 479:1 480:1 
1 0:2 2:1 3:1 4:1 5:3 6:3 7:1 8:14 9:4 10:3 11:1 12:1 13:2 14:3 15:4 16:1 17:1 18:1 19:1 20:2 21:4 22:1 23:2 24:1 25:1 28:1 29:14 36:5 38:7 39:1 40:1 45:3 47:1 50:1 51:1 54:3 65:3 67:3 70:1 71:1 72:1 78:1 81:5 85:2 99:3 108:1 115:1 120:1 124:1 131:1 143:2 145:1 146:1 154:1 156:1 157:1 161:1 162:1 180:1 187:1 189:1 190:1 191:3 197:1 213:1 216:1 238:1 244:1 249:2 301:2 308:1 310:3 311:2 327:1 334:1 339:2 358:1 360:1 361:1 384:1 444:1 447:1 448:1 449:1 450:1 451:1 452:1 453:1 454:1 455:1 456:1 457:1 458:1 459:2 460:1 461:1 462:1 463:1 464:1 465:1 466:1 467:1 468:1 469:1 470:1 471:1 472:1 473:1 474:1 475:1 476:1 477:1 478:1 479:1 480:1 
1 0:2 2:1 3:1 4:1 5:3 6:3 7:1 8:14 9:4 10:3 11:1 12:1 13:2 14:3 15:4 16:1 17:1 18:1 19:1 20:2 21:4 22:1 23:2 24:1 25:1 28:1 29:14 36:5 38:7 39:1 40:1 45:3 47:1 50:1 51:1 54:3 65:3 67:3 70:1 71:1 72:1 78:1 81:5 85:2 99:3 108:1 115:1 120:1 124:1 131:1 143:2 145:1 146:1 154:1 156:1 157:1 161:1 162:1 180:1 187:1 189:1 190:1 191:3 197:1 213:1 216:1 238:1 244:1 249:2 301:2 308:1 310:3 311:2 327:1 334:1 339:2 358:1 360:1 361:1 384:1 444:1 447:1 448:1 449:1 450:1 451:1 452:1 453:1 454:1 455:1 456:1 457:1 458:1 459:2 460:1 461:1 462:1 463:1 464:1 465:1 466:1 467:1 468:1 469:1 470:1 471:1 472:1 473:1 474:1 475:1 476:1 477:1 478:1 479:1 480:1 
1 0:2 2:1 3:1 4:1 5:3 6:3 7:1 8:14 9:4 10:3 11:1 12:1 13:2 14:3 15:4 16:1 17:1 18:1 19:1 20:2 21:4 22:1 23:2 24:1 25:1 28:1 29:14 36:5 38:7 39:1 40:1 45:3 47:1 50:1 51:1 54:3 65:3 67:3 70:1 71:1 72:1 78:1 81:5 85:2 99:3 108:1 115:1 120:1 124:1 131:1 143:2 145:1 146:1 154:1 156:1 157:1 161:1 162:1 180:1 187:1 189:1 190:1 191:3 197:1 213:1 216:1 238:1 244:1 249:2 301:2 308:1 310:3 311:2 327:1 334:1 339:2 358:1 360:1 361:1 384:1 444:1 447:1 448:1 449:1 450:1 451:1 452:1 453:1 454:1 455:1 456:1 457:1 458:1 459:2 460:1 461:1 462:1 463:1 464:1 465:1 466:1 467:1 468:1 469:1 470:1 471:1 472:1 473:1 474:1 475:1 476:1 477:1 478:1 479:1 480:1 
1 0:2 2:1 3:1 4:1 5:3 6:3 7:1 8:14 9:4 10:3 11:1 12:1 13:2 14:3 15:4 16:1 17:1 18:1 19:1 20:2 21:4 22:1 23:2 24:1 25:1 28:1 29:14 36:5 38:7 39:1 40:1 45:3 47:1 50:1 51:1 54:3 65:3 67:3 70:1 71:1 72:1 78:1 81:5 85:2 99:3 108:1 115:1 120:1 124:1 131:1 143:2 145:1 146:1 154:1 156:1 157:1 161:1 162:1 180:1 187:1 189:1 190:1 191:3 197:1 213:1 216:1 238:1 244:1 249:2 301:2 308:1 310:3 311:2 327:1 334:1 339:2 358:1 360:1 361:1 384:1 444:1 447:1 448:1 449:1 450:1 451:1 452:1 453:1 454:1 455:1 456:1 457:1 458:1 459:2 460:1 461:1 462:1 463:1 464:1 465:1 466:1 467:1 468:1 469:1 470:1 471:1 472:1 473:1 474:1 475:1 476:1 477:1 478:1 479:1 480:1 
1 0:2 2:1 3:1 4:1 5:3 6:3 7:1 8:14 9:4 10:3 11:1 12:1 13:2 14:3 15:4 16:1 17:1 18:1 19:1 20:2 21:4 22:1 23:2 24:1 25:1 28:1 29:14 36:5 38:7 39:1 40:1 45:3 47:1 50:1 51:1 54:3 65:3 67:3 70:1 71:1 72:1 78:1 81:5 85:2 99:3 108:1 115:1 120:1 124:1 131:1 143:2 145:1 146:1 154:1 156:1 157:1 161:1 162:1 180:1 187:1 189:1 190:1 191:3 197:1 213:1 216:1 238:1 244:1 249:2 301:2 308:1 310:3 311:2 327:1 334:1 339:2 358:1 360:1 361:1 384:1 444:1 447:1 448:1 449:1 450:1 451:1 452:1 453:1 454:1 455:1 456:1 457:1 458:1 459:2 460:1 461:1 462:1 463:1 464:1 465:1 466:1 467:1 468:1 469:1 470:1 471:1 472:1 473:1 474:1 475:1 476:1 477:1 478:1 479:1 480:1 
-1 0:2 2:1 3:2 4:2 5:4 6:4 8:8 9:4 10:1 21:3 24:4 25:7 26:1 27:1 28:1 29:8 30:1 31:1 38:5 45:6 46:1 47:1 49:1 50:1 51:1 54:3 60:1 65:1 67:3 70:1 71:2 72:1 73:1 78:1 81:1 82:2 85:3 90:1 105:1 107:1 111:1 115:1 137:2 142:1 143:1 144:2 145:1 146:1 154:1 156:1 166:1 167:1 181:1 220:2 231:2 234:1 239:1 258:1 268:1 292:1 303:1 304:1 319:3 339:1 372:1 384:1 395:1 403:2 424:1 541:1 587:1 589:1 609:1 622:1 716:1 780:1 781:1 802:1 849:1 851:1 865:2 899:1 908:1 1109:1 1110:1 1188:1 1284:1 1473:1 1873:1 2128:1 2136:2 2271:1 2279:1 2666:1 2782:3 2869:1 3545:1 3871:1 3877:1 4943:1 5289:2 6384:1 6468:1 7453:1 7696:1 7972:1 8155:1 8231:1 
-0.1689425301314515 0:2 2:2 3:2 4:2 5:7 6:7 7:2 8:20 9:10 10:13 12:3 13:5 14:2 15:1 16:1 17:1 20:5 21:11 22:1 23:3 24:12 25:25 26:1 28:1 29:25 30:1 31:3 32:2 34:3 35:1 36:10 38:15 40:3 41:1 42:1 45:15 46:3 47:3 49:1 50:5 51:1 52:4 53:1 54:11 55:1 56:2 59:1 60:3 63:1 65:8 67:13 71:1 72:1 76:2 78:9 79:1 81:8 82:2 85:11 99:1 103:1 104:1 105:1 106:1 107:4 108:2 112:1 114:1 115:3 118:3 132:1 136:1 137:7 141:1 142:2 143:2 145:2 146:2 150:1 153:1 156:1 158:1 159:1 160:1 171:2 173:1 176:1 177:1 178:1 179:1 180:1 185:1 187:1 191:1 195:3 199:3 202:1 204:1 206:1 207:1 209:1 210:1 211:1 212:1 213:3 214:1 215:2 216:5 220:2 239:1 242:1 247:1 250:1 251:1 252:2 253:2 254:1 255:2 256:5 257:4 259:4 265:2 266:1 267:2 271:3 273:1 276:2 284:2 301:2 303:1 305:2 306:2 308:2 309:4 310:2 311:1 313:2 314:2 315:1 316:1 317:1 318:2 319:2 320:1 321:1 322:1 323:1 324:1 325:1 326:1 327:1 328:1 329:2 330:1 331:1 332:1 333:3 334:4 335:1 336:1 337:1 338:1 339:1 340:1 341:1 342:1 343:1 344:1 345:2 346:1 347:1 348:1 349:1 350:1 351:1 352:1 353:1 354:1 355:2 356:1 357:1 358:1 359:2 360:1 361:1 362:1 363:1 364:1 365:1 366:1 367:1 368:1 369:3 370:1 371:1 372:1 373:1 374:2 375:1 376:1 377:1 378:1 379:1 380:1 381:1 382:1 383:1 384:1 385:1 386:1 387:1 388:1 389:1 390:1 391:3 392:3 393:2 394:2 395:1 396:1 397:1 398:1 399:1 400:1 401:1 402:2 403:1 404:1 405:1 406:1 407:1 408:1 409:1 410:1 411:1 412:1 413:1 414:1 415:1 416:1 417:1 418:1 419:1 420:1 421:1 422:1 423:1 424:1 425:1 426:1 427:1 428:1 429:1 430:1 431:1 432:1 433:1 434:1 435:1 436:1 437:1 438:1 439:1 440:1 441:1 442:1 443:1 444:1 445:1 446:1 475:1 484:1 494:1 529:2 530:2 531:2 532:1 533:1 534:2 535:2 536:1 537:1 538:1 539:1 540:1 541:1 542:1 543:1 544:1 545:1 546:1 547:1 548:1 549:2 550:1 551:1 552:1 553:1 554:1 555:1 556:1 557:1 558:1 559:1 560:1 561:1 562:1 563:1 564:1 565:1 
-1 0:2 3:8 4:3 5:5 6:5 7:1 8:20 9:1 10:4 21:2 24:1 25:3 29:1 32:1 34:1 35:1 36:2 38:3 42:1 45:5 50:2 54:2 56:1 67:3 71:1 72:1 73:1 76:1 78:5 81:1 82:1 85:2 90:1 103:1 115:1 118:1 164:1 167:1 168:1 173:1 190:1 191:1 192:3 206:1 238:7 243:1 249:1 298:1 300:1 309:4 320:1 345:1 351:1 368:1 372:1 391:1 410:1 441:2 445:1 463:1 497:1 505:1 506:1 510:1 534:2 539:6 561:1 563:1 589:3 590:1 615:1 649:1 711:1 716:1 724:2 781:3 802:1 818:1 827:1 899:1 910:1 1301:1 1430:1 1450:1 1689:1 1917:1 1964:1 2028:1 2142:1 2376:1 2692:1 2871:1 2994:2 3364:1 3373:1 3524:1 3605:1 3880:1 4324:2 4422:1 4481:2 4588:1 4589:1 4590:1 4591:1 4592:1 4593:1 5021:1 6583:1 7024:1 7162:1 7163:1 7439:1 7440:1 7441:1 7442:1 7443:1 7444:1 7445:1 7446:1 7447:1 7448:1 
-0.1138004551687303 0:2 2:2 3:4 4:2 5:3 6:3 7:1 8:8 9:2 10:3 12:3 13:1 14:1 20:1 21:5 23:1 24:6 25:11 26:1 27:1 29:5 30:1 31:1 32:1 33:1 34:1 36:2 38:8 40:1 45:8 47:1 50:1 51:1 54:4 60:1 63:1 65:2 67:4 76:2 78:3 81:2 82:1 83:1 85:2 114:1 115:1 137:2 143:1 145:1 167:1 171:2 173:1 187:1 241:1 244:1 250:2 251:2 252:2 253:2 254:1 255:1 256:2 257:2 258:2 259:4 260:1 261:1 262:1 263:1 264:1 265:1 266:1 267:1 268:2 269:1 270:1 271:1 272:1 273:1 274:1 275:1 276:1 277:1 278:1 279:2 280:1 281:1 282:1 283:1 284:1 285:1 286:1 287:1 288:1 289:1 290:1 291:1 292:1 293:1 294:1 295:1 296:1 297:1 298:1 299:1 300:1 301:1 302:1 303:1 304:1 305:1 306:1 307:1 308:1 309:1 310:2 311:1 312:1 
-1 0:2 2:1 3:3 4:1 5:3 6:3 8:7 9:2 10:2 11:3 12:2 21:2 24:2 25:9 26:1 27:1 29:7 30:1 31:2 32:1 33:1 34:1 36:3 38:5 41:3 45:4 46:1 50:2 54:1 55:1 56:1 65:2 67:2 76:1 78:1 81:3 85:2 90:1 107:4 108:1 115:1 137:2 143:1 145:2 171:1 195:1 203:1 205:3 213:1 238:1 241:1 244:1 245:1 246:1 256:1 257:1 258:1 259:1 263:1 268:1 276:1 292:1 306:1 308:1 309:1 310:3 311:2 319:2 339:1 402:1 403:2 424:2 444:1 480:1 481:1 482:2 483:1 484:1 485:1 486:1 487:2 488:1 489:1 490:1 491:1 492:1 493:1 494:1 495:1 496:1 497:1 498:1 499:1 500:1 501:1 502:1 503:1 504:1 505:2 506:1 507:1 508:1 509:1 510:1 511:1 512:1 513:1 514:1 515:1 
-1 0:2 2:1 3:2 4:2 5:2 6:2 8:7 9:4 12:1 29:1 32:1 38:2 42:1 45:1 54:1 55:1 103:1 105:1 108:1 115:1 173:1 177:2 309:1 444:1 445:1 468:1 589:1 611:1 675:1 781:1 865:3 1225:3 2376:1 2999:1 3547:1 4390:2 6365:1 7160:1 7585:1 7737:1 7738:1 7739:1 
-1 0:2 2:1 3:1 4:1 5:3 6:3 7:1 8:5 9:2 10:3 24:2 25:2 29:4 30:1 31:1 36:2 38:3 42:1 45:5 47:1 54:2 67:2 76:2 81:3 85:1 90:1 115:1 130:1 166:2 167:1 208:1 217:1 245:1 327:1 354:1 484:1 488:1 534:2 578:1 647:1 711:1 861:1 948:1 1109:1 1110:1 1128:2 1130:1 1550:1 2002:1 2058:1 2092:1 2833:1 2854:1 5645:1 6230:3 8008:1 
-1 0:2 3:3 4:2 5:3 6:3 7:1 8:25 9:3 10:2 14:1 21:3 24:1 25:5 29:3 36:5 38:6 41:2 42:2 45:13 46:1 50:1 54:2 63:2 67:6 68:3 71:1 72:4 73:3 78:3 79:1 81:3 82:4 83:1 85:5 90:1 99:1 103:1 108:2 115:1 142:6 181:1 186:1 190:1 191:1 205:1 218:1 233:1 238:3 242:1 245:1 246:1 249:1 256:1 257:1 300:2 301:2 308:1 309:3 334:1 351:2 357:1 359:1 367:1 383:1 384:3 389:1 391:4 441:1 444:1 448:1 464:1 475:3 483:1 489:3 494:1 539:5 589:4 590:1 600:1 613:1 637:3 721:2 725:1 742:1 755:1 768:1 772:1 781:2 789:2 803:1 847:1 849:1 851:1 996:1 1004:1 1007:1 1008:1 1009:1 1021:2 1042:1 1051:1 1108:1 1236:2 1275:1 1335:3 1576:1 1685:1 1790:1 1833:1 2090:1 2092:1 2104:1 2142:1 2247:1 2479:1 2771:1 2870:1 2871:1 3200:1 3336:3 3369:1 3808:1 3864:1 4137:1 4772:1 5468:1 5699:1 6008:1 6173:1 6649:1 7162:1 7163:1 7465:1 7466:1 7467:1 7468:1 7469:1 7470:2 7471:1 7472:1 7473:1 7474:1 
-1 0:2 2:1 3:2 4:2 5:2 6:2 7:1 8:9 9:1 10:3 21:5 24:3 25:3 29:9 31:2 36:3 38:4 40:1 45:5 46:1 50:1 54:5 55:1 65:1 67:2 72:1 76:2 78:4 81:9 83:1 85:5 108:2 115:1 129:1 137:1 139:2 156:1 158:3 166:1 167:1 168:1 169:1 170:1 171:1 180:1 187:1 204:1 205:1 208:1 216:1 238:1 242:1 244:1 249:1 277:1 278:2 279:1 280:1 285:1 292:1 301:2 334:1 338:1 339:1 365:1 453:2 454:2 458:1 460:1 486:1 508:1 589:1 622:1 669:2 742:1 745:2 780:1 781:1 814:1 816:1 817:1 891:1 1034:1 1212:1 1266:1 1315:1 1435:1 1487:1 1507:1 1711:1 1717:1 1761:1 2011:1 2028:1 2128:1 2323:1 2515:1 2920:1 3017:1 3342:1 4753:1 5796:1 6658:1 7132:1 7351:1 7395:1 7577:1 7578:1 8155:1 8232:1 8233:1 
-1 0:2 2:1 3:2 4:1 5:3 6:3 7:2 8:8 9:5 10:5 13:1 14:1 20:1 21:4 24:3 25:7 29:11 30:1 31:2 32:4 34:3 35:2 36:7 38:8 41:1 45:6 47:1 48:1 49:1 50:2 54:3 55:3 56:1 65:5 67:8 68:1 76:1 78:3 81:4 85:5 100:1 107:2 108:1 115:2 129:1 137:1 142:3 146:3 148:1 166:1 167:1 168:1 169:1 173:1 176:1 180:1 184:1 188:1 190:2 195:2 199:1 205:3 206:1 216:1 232:1 238:2 256:2 257:2 265:1 301:1 306:1 309:3 334:1 339:1 393:1 398:1 400:2 403:1 406:1 444:1 450:1 460:1 475:8 485:1 504:1 505:1 513:2 514:1 516:3 534:1 538:1 539:3 541:2 543:1 544:1 545:1 562:2 563:4 585:4 599:2 600:1 613:1 615:2 637:1 638:2 643:2 651:2 654:1 679:1 680:1 681:1 704:1 709:2 713:1 714:1 806:1 861:2 873:1 874:1 919:1 925:2 930:1 931:1 962:1 989:1 1004:1 1021:1 1117:1 1118:1 1187:1 1215:1 1223:2 1262:1 1344:1 1355:1 1393:1 1450:1 1487:1 1499:1 1507:1 1515:1 1559:1 1903:1 1944:1 2019:1 2028:1 2209:1 2252:1 2413:1 2464:1 2520:1 2636:1 2692:1 2724:1 3017:1 3830:1 3899:1 4516:1 5101:1 6395:1 6749:1 7025:1 7133:1 7134:1 7669:1 7852:1 7930:1 7973:1 7974:3 7975:1 7976:1 7977:1 7978:1 
-1 0:2 2:1 3:1 4:1 5:3 6:3 7:1 8:6 9:6 10:5 12:2 14:1 21:5 23:1 24:3 25:6 28:1 29:8 36:2 38:2 40:1 42:1 45:9 46:1 52:1 54:7 60:1 65:1 67:3 71:1 76:1 78:3 81:3 82:2 85:3 100:1 110:1 115:1 129:1 137:1 141:1 165:1 166:2 167:2 173:2 180:1 216:2 235:1 238:1 245:1 247:1 249:2 256:1 257:2 273:1 281:1 300:1 301:2 309:1 312:1 339:1 378:1 381:1 406:1 424:1 427:1 448:1 493:1 505:1 569:1 627:1 669:1 711:1 840:1 851:1 897:1 1178:1 1227:2 2322:1 3190:1 3500:1 3546:1 4557:1 5213:1 5767:2 6230:1 6547:1 6583:1 6821:1 7577:1 7578:1 7579:1 7586:2 7587:2 7588:1 7589:1 7590:1 7591:1 7592:1 7593:1 
-1 0:2 3:3 5:4 6:4 8:8 9:3 10:8 12:1 13:1 20:1 21:2 23:1 24:4 25:8 27:1 28:1 29:8 30:2 31:2 35:1 36:3 38:7 41:1 45:6 47:2 54:4 56:1 65:4 67:7 76:2 78:4 81:6 82:1 83:1 85:6 99:1 107:2 108:1 115:1 118:1 139:1 140:1 141:3 142:3 151:1 166:1 167:1 171:1 187:2 192:1 205:1 216:1 256:1 257:1 259:1 265:1 277:1 278:1 292:1 384:1 395:1 403:1 412:1 452:1 453:2 454:2 467:1 483:1 487:1 489:1 494:1 505:1 527:2 589:1 605:2 638:1 780:1 781:1 843:1 861:1 908:1 1189:1 1246:1 1284:1 1301:1 1371:1 1450:2 1545:1 1714:1 1836:1 2015:1 2058:2 2126:1 2131:1 2255:1 2464:1 2897:1 2939:1 3017:1 3191:2 3195:1 3954:1 5680:1 5831:1 6181:1 6366:1 6430:1 6965:1 7068:1 7651:1 8093:1 8108:1 8109:1 8110:1 
-1 0:2 3:2 4:1 5:4 6:4 7:1 8:21 13:1 21:4 24:2 25:5 29:5 30:1 31:1 32:1 36:2 38:6 41:1 42:6 44:1 45:13 49:1 50:3 54:3 65:1 67:2 71:1 72:1 73:1 78:3 81:1 85:3 90:2 103:2 115:1 137:2 142:1 155:1 173:1 188:1 192:2 194:1 200:1 205:1 216:1 238:1 239:1 245:1 246:1 247:1 256:1 257:1 300:1 309:6 325:1 326:1 346:1 359:3 383:1 391:2 403:2 435:1 444:1 475:1 535:1 539:2 553:1 578:2 583:1 633:2 643:1 651:1 711:1 783:4 928:1 1008:1 1009:1 1107:1 1208:1 1229:1 1275:1 1299:1 1380:1 1506:1 1643:1 1655:1 1950:1 2017:1 2032:2 2092:1 2240:2 2508:1 2564:1 2685:1 3336:3 4137:1 4432:1 4772:1 5523:3 5525:1 5526:1 6241:2 6942:1 7155:1 7456:1 7457:1 7458:1 7459:1 7460:1 7461:1 7462:1 7463:1 7464:1 
-1 0:2 2:1 3:1 4:1 5:2 6:2 7:1 8:4 9:3 10:5 24:3 25:6 29:8 36:5 38:2 41:1 45:5 54:2 55:2 56:1 65:3 67:3 72:1 76:1 78:4 81:2 82:2 85:2 100:1 103:1 115:1 139:1 142:2 146:1 154:1 173:2 176:1 186:1 188:1 205:1 265:1 273:1 284:1 292:1 301:1 304:1 309:3 312:1 326:1 333:1 344:1 349:1 454:1 567:1 724:1 730:1 789:1 861:1 878:1 921:1 922:1 930:1 1021:1 1189:1 1335:2 1418:1 1431:1 1451:1 1513:1 1592:1 1602:1 1682:1 1739:2 1925:1 2098:1 2310:1 2702:1 2995:1 3372:1 3674:1 3811:1 3870:1 4168:1 4391:1 7115:1 7662:1 7770:1 7771:1 7772:1 7773:1 7774:1 
-1 0:2 3:1 4:1 5:3 6:3 7:1 8:13 9:1 10:1 12:1 13:2 20:2 21:2 23:3 24:3 25:13 27:1 28:2 29:10 30:2 31:2 36:2 38:6 40:1 41:2 42:2 45:10 46:1 47:1 50:1 51:1 54:5 65:2 67:3 69:1 71:1 72:1 73:1 78:4 81:3 85:4 105:1 108:1 112:1 114:1 115:1 118:2 129:1 142:2 143:1 144:2 145:1 156:1 164:1 166:1 167:1 168:1 169:1 171:1 173:1 178:1 188:1 197:1 206:1 209:1 216:1 238:2 268:1 284:1 285:1 286:1 320:1 324:1 335:1 344:1 349:1 359:1 364:1 373:1 397:1 398:2 403:1 410:1 454:1 465:1 494:1 527:2 539:1 589:1 594:1 605:2 637:1 669:2 781:1 802:1 851:1 891:1 925:1 930:1 963:1 964:1 965:1 1070:1 1117:1 1118:1 1119:1 1153:1 1228:1 1229:1 1313:1 1315:1 1331:1 1341:1 1450:1 1645:1 1725:1 2055:1 2058:1 2210:1 2442:1 2503:1 2696:1 2771:1 2900:1 3023:1 3433:2 3622:1 3863:1 3871:2 4816:1 5025:1 5068:1 5101:1 5458:1 5685:1 5740:1 7674:1 7747:1 7749:1 7750:1 7751:1 7752:1 7753:1 7754:1 
-1 0:2 2:2 3:4 4:3 5:5 6:5 8:12 9:3 10:6 12:1 21:10 23:4 24:3 25:7 29:8 36:6 38:9 41:1 42:1 45:13 46:2 49:1 50:1 52:2 53:1 54:5 65:3 67:4 72:1 73:2 76:3 77:1 78:1 81:7 82:2 85:5 90:1 100:1 103:3 108:3 115:2 118:2 124:1 129:1 137:4 142:1 151:1 156:1 168:1 169:1 171:2 173:2 174:1 176:2 185:1 192:3 214:1 216:2 229:1 238:3 241:2 246:1 259:1 273:1 278:2 305:1 309:3 319:1 323:1 334:1 363:1 364:4 368:1 384:1 395:1 403:2 416:2 449:1 475:3 505:3 513:1 520:4 523:1 527:1 534:2 539:2 553:1 583:1 585:2 589:1 590:1 637:1 638:1 669:1 694:1 711:1 724:1 761:1 786:1 871:1 929:2 941:1 1007:1 1021:2 1034:1 1067:1 1073:1 1090:1 1105:1 1107:1 1144:1 1154:1 1174:1 1299:1 1315:2 1404:3 1413:1 1431:1 1519:1 1692:1 1704:1 1711:1 1715:1 1729:2 1730:2 1773:1 1895:2 1993:3 2032:1 2093:1 2323:1 2417:1 2464:1 2501:1 2576:2 2605:2 2769:1 2770:1 2773:2 2869:1 2880:1 2929:1 2968:1 2994:1 3008:1 3009:1 3017:1 3179:1 3191:1 3194:1 3326:1 3433:1 3531:1 3602:1 3605:1 3972:1 4404:1 4652:1 4928:1 5068:1 5685:1 6269:1 6971:1 7401:1 7402:1 7403:1 7404:2 7405:3 7406:1 7407:1 7408:1 7409:1 7410:2 7411:1 7412:1 7422:3 7423:1 7424:2 7425:1 7426:1 7427:1 
-1 0:2 2:1 3:1 4:1 5:5 6:5 7:1 8:10 9:8 10:6 12:1 13:1 20:1 21:8 23:2 24:5 25:13 29:24 30:3 31:3 36:9 37:1 38:11 41:1 42:1 45:15 46:6 47:1 50:4 53:1 54:6 56:3 63:2 65:6 67:3 72:2 73:1 76:5 77:1 78:6 81:7 82:4 85:11 99:1 100:1 107:1 108:2 111:1 114:1 115:2 128:1 130:1 137:2 142:1 143:1 145:1 154:1 162:1 166:1 167:1 171:1 173:3 180:2 187:2 197:1 199:1 205:3 206:2 213:1 216:1 238:1 242:1 244:2 245:2 246:1 249:3 259:1 265:2 283:1 290:2 292:4 301:1 306:1 308:1 309:6 312:1 324:1 327:1 335:1 359:1 368:1 373:4 378:1 381:1 391:4 395:1 403:5 432:1 444:1 448:1 482:1 493:2 497:1 502:1 539:1 582:1 632:1 721:1 724:1 744:1 764:1 780:1 789:1 807:1 808:1 818:2 819:1 848:1 850:4 861:3 921:1 1080:1 1187:2 1189:1 1192:1 1208:1 1262:1 1312:1 1313:1 1358:1 1428:1 1432:1 1436:1 1507:2 1513:1 1556:1 1624:1 1669:1 1670:1 1682:1 1689:1 1700:1 1714:1 1769:2 1770:2 1927:2 1928:2 2008:1 2034:1 2067:2 2149:1 2265:1 2303:1 2307:1 2401:1 2440:1 2464:1 2496:2 2520:2 2521:1 2629:1 2702:2 2751:1 2899:1 3017:1 3034:1 3035:1 3331:1 3336:1 3364:1 3421:1 3638:2 3639:2 3656:1 3671:2 3729:1 3851:2 3951:2 4930:1 5101:2 5193:1 5468:2 5772:1 6316:1 6334:1 6779:1 7467:1 7617:1 7765:1 7930:1 7935:1 7943:1 7944:1 7945:1 7946:1 7947:1 7948:1 7949:1 
-1 0:2 3:3 4:1 5:4 6:3 7:1 8:8 9:4 10:2 12:1 21:4 23:1 24:5 25:10 26:2 27:1 28:3 29:16 30:2 31:2 36:3 38:9 40:3 45:5 47:1 50:1 54:3 56:1 65:2 67:4 71:2 76:1 78:3 81:2 82:2 83:1 85:1 86:1 90:1 100:1 107:1 115:1 137:2 141:1 156:1 157:2 162:2 168:1 169:1 197:3 199:1 216:1 231:1 239:1 245:2 246:1 247:1 257:4 273:1 277:1 278:1 284:1 285:1 301:2 309:1 312:1 319:1 323:1 324:1 325:1 335:1 344:1 363:1 365:1 391:2 424:1 453:1 454:1 482:2 589:1 594:1 632:1 635:1 744:1 781:1 830:1 851:1 865:1 912:1 994:1 1024:1 1027:1 1029:1 1034:1 1109:1 1110:1 1114:1 1312:1 1313:1 1553:1 1716:1 1859:1 1947:1 2028:1 2166:1 2176:1 2247:1 2782:2 3546:1 3578:1 3954:1 4667:1 4710:1 4927:2 5074:1 6506:1 6507:1 7384:1 7577:1 7578:1 7935:1 7958:1 8063:1 8155:1 8191:1 8192:1 8193:1 8208:1 8219:1 8228:1 8229:1 8230:1 
-0.3695324009742246 0:2 2:1 3:1 4:1 5:3 6:3 7:1 8:14 9:6 10:12 14:1 21:4 24:5 25:11 29:12 30:1 31:2 32:5 34:5 35:1 36:5 38:13 41:2 45:12 46:1 47:2 50:3 51:1 53:2 54:9 55:1 56:1 60:1 65:10 67:3 73:1 78:8 81:3 82:1 85:6 86:1 107:1 108:2 114:1 115:2 137:4 139:1 141:1 142:4 146:1 151:1 158:1 164:1 166:2 167:1 171:2 177:1 187:2 188:1 195:1 197:3 199:3 200:2 202:1 203:2 205:3 208:1 215:1 216:2 233:1 238:2 244:1 245:2 259:1 308:1 309:4 320:1 323:1 334:1 339:1 342:1 346:1 351:1 358:1 364:1 367:1 383:3 384:1 391:1 395:1 418:1 423:1 424:1 432:2 443:4 444:2 453:2 454:1 475:4 483:3 504:1 506:3 510:1 514:1 527:1 528:1 538:1 539:1 562:3 563:1 572:1 589:1 590:1 606:1 613:1 615:1 629:1 637:1 638:2 643:2 654:1 669:1 702:1 711:1 713:1 714:1 721:1 780:1 789:1 814:2 816:1 817:1 832:1 840:1 879:1 908:1 948:1 951:1 960:2 1007:2 1105:1 1109:1 1161:1 1178:1 1186:1 1189:1 1200:3 1237:1 1262:1 1299:1 1308:1 1350:2 1375:1 1413:1 1450:2 1503:1 1517:1 1523:2 1536:1 1545:1 1810:1 1970:1 1984:1 1993:1 2015:1 2019:2 2028:1 2058:1 2340:1 2343:1 2464:2 2566:1 2577:1 2587:1 2621:1 2647:1 2899:1 2959:1 3017:2 3149:1 3152:1 3336:1 3342:1 3430:1 3582:1 3747:1 4210:1 4646:1 4667:1 4753:1 4937:1 5229:1 5299:1 5346:1 6032:1 6454:3 6572:1 6824:1 7107:1 7435:1 7472:1 7600:1 7601:1 7602:1 7603:1 7604:1 7605:1 7606:1 7607:1 7608:1 7609:1 7610:1 
-0.4853703520949958 0:2 3:3 4:2 5:4 6:4 7:1 8:20 9:2 10:11 21:5 24:2 25:6 29:3 30:1 31:1 32:3 34:3 36:7 38:11 41:1 45:9 46:1 47:6 49:1 50:7 53:1 54:6 56:1 64:1 65:3 67:2 71:3 76:3 78:5 81:3 83:1 85:14 90:2 102:3 103:1 107:2 108:2 113:1 114:1 115:1 118:1 137:2 141:1 142:1 146:2 147:1 148:1 151:1 154:1 156:1 166:1 167:1 174:1 176:2 177:1 180:1 186:1 187:2 188:1 195:1 196:1 199:1 200:1 202:2 205:6 216:1 231:2 238:2 239:1 241:1 243:2 286:1 298:1 309:3 312:1 345:1 367:1 384:1 391:2 402:1 406:1 407:1 416:1 432:1 436:1 438:1 444:1 455:1 475:4 483:1 487:2 493:1 506:1 538:1 539:8 543:1 563:1 589:2 590:1 605:1 609:1 613:1 615:1 638:1 643:1 669:1 675:1 711:1 721:2 729:1 781:1 789:1 814:2 855:1 859:1 860:1 861:1 872:1 916:1 985:1 1010:1 1021:1 1033:1 1070:1 1076:1 1100:1 1130:1 1187:1 1227:1 1237:1 1247:1 1262:3 1275:1 1301:1 1330:1 1385:2 1408:1 1507:1 1517:1 1598:1 1790:1 1805:1 1862:1 1924:1 1927:1 1928:2 1948:1 1974:1 2077:1 2088:1 2111:1 2237:1 2249:1 2280:1 2501:1 2514:1 2556:1 2702:1 2851:1 2899:1 2994:1 3132:1 3250:1 3273:1 3622:1 3870:2 3877:1 3918:2 4425:1 4771:1 4803:1 5245:1 5505:1 6075:1 6280:1 6365:1 6742:1 6824:1 7083:1 7144:1 7162:1 7163:1 7184:1 7186:1 7225:1 7257:2 7566:1 7567:1 7568:1 7569:1 7570:1 7571:1 7572:1 7573:1 7574:1 7575:1 7576:1 
-1 0:2 2:1 3:3 4:1 5:4 6:3 8:3 9:1 10:1 13:2 20:2 25:3 29:5 31:1 36:5 38:4 45:2 46:1 50:1 54:2 56:2 67:3 72:1 76:1 78:2 81:2 82:1 85:3 103:2 107:1 108:1 115:1 124:1 142:1 154:1 164:1 173:1 176:1 188:1 192:1 201:1 204:1 205:3 206:2 216:1 244:1 249:1 259:2 306:1 308:1 309:2 327:1 335:2 339:1 359:1 364:1 383:1 403:2 467:2 468:1 481:1 482:1 506:2 510:1 514:2 539:1 638:1 715:1 811:1 839:2 1262:1 1284:1 1377:1 1432:1 1677:1 1692:1 1714:1 2464:1 2520:3 3017:1 3871:1 3954:1 5101:1 5772:1 6285:1 7930:2 7942:1 
-1 0:2 3:4 4:2 5:7 6:6 7:1 8:16 9:8 10:3 12:1 21:7 23:1 24:9 25:17 26:3 27:2 28:4 29:24 30:3 31:3 36:3 38:14 40:3 45:11 46:1 47:2 49:1 50:2 51:1 54:6 56:1 60:1 65:3 67:7 70:1 71:4 72:1 73:1 76:1 78:4 81:3 82:4 83:1 85:4 86:1 90:2 100:1 105:1 107:2 111:1 115:2 137:4 141:1 142:1 143:1 144:2 145:1 146:1 154:1 156:2 157:2 162:2 166:1 167:1 168:1 169:1 181:1 197:3 199:1 216:1 220:2 231:3 234:1 239:2 245:2 246:1 247:1 257:4 258:1 268:1 273:1 277:1 278:1 284:1 285:1 292:1 301:2 303:1 304:1 309:1 312:1 319:4 323:1 324:1 325:1 335:1 339:1 344:1 363:1 365:1 372:1 384:1 391:2 395:1 403:2 424:2 453:1 454:1 482:2 541:1 587:1 589:2 594:1 609:1 622:1 632:1 635:1 716:1 744:1 780:1 781:2 802:1 830:1 849:1 851:2 865:3 899:1 908:1 912:1 994:1 1024:1 1027:1 1029:1 1034:1 1109:2 1110:2 1114:1 1188:1 1284:1 1312:1 1313:1 1473:1 1553:1 1716:1 1859:1 1873:1 1947:1 2028:1 2128:1 2136:2 2166:1 2176:1 2247:1 2279:1 2666:1 2782:5 2869:1 3545:1 3546:1 3578:1 3871:1 3877:1 3954:1 4667:1 4710:1 4927:2 4943:1 5074:1 5289:2 6384:1 6468:1 6506:1 6507:1 7384:1 7453:1 7577:1 7578:1 7696:1 7935:1 7958:1 7972:1 8063:1 8155:2 8191:1 8192:1 8193:1 8208:1 8219:1 8228:1 8229:1 8230:1 8231:1 
-1 0:2 2:3 3:4 4:4 5:4 6:4 8:5 9:2 12:1 21:4 24:1 25:2 29:4 36:3 38:2 40:1 45:2 49:1 50:1 54:2 61:1 63:1 67:1 78:2 81:2 82:1 103:2 115:1 158:1 171:1 173:2 206:1 216:1 243:1 279:1 298:1 301:1 327:1 332:1 339:1 403:1 454:1 589:1 599:1 628:1 707:1 781:1 823:1 891:2 930:2 987:1 1062:1 1100:1 1212:1 1791:1 2236:3 2333:1 2882:1 3124:1 3539:1 4168:1 5238:1 5723:1 5796:1 6758:1 6973:1 7594:3 7595:1 7596:1 7597:1 7598:1 7599:1 
-1 0:2 2:2 3:2 4:1 5:3 6:3 7:1 8:15 9:2 10:4 12:1 21:2 24:4 25:11 26:1 27:1 28:2 29:4 30:1 31:1 36:2 38:3 42:1 45:5 47:1 50:1 53:1 54:4 65:2 67:2 78:2 103:1 114:1 115:1 137:2 139:1 141:1 142:1 146:1 156:2 161:1 173:1 181:1 199:1 234:1 235:2 238:3 239:2 241:1 243:2 244:2 268:2 300:1 308:1 309:1 312:1 391:1 403:1 460:2 482:2 534:1 535:1 539:3 541:1 711:1 724:1 750:1 783:2 802:1 861:6 931:1 1144:1 1192:1 1220:1 1228:2 1229:2 1242:1 1275:2 1428:1 1434:1 2176:1 2303:1 2564:1 2633:2 3478:1 3878:1 4134:1 4322:2 4373:2 4803:4 5014:2 5101:2 5238:1 5397:1 6277:1 6751:1 7317:2 7795:1 7796:1 7797:1 
-1 0:2 2:1 3:1 4:1 5:3 6:3 7:1 8:14 9:4 10:3 11:1 12:1 13:2 14:3 15:4 16:1 17:1 18:1 19:1 20:2 21:4 22:1 23:2 24:1 25:1 28:1 29:14 36:5 38:7 39:1 40:1 45:3 47:1 50:1 51:1 54:3 65:3 67:3 70:1 71:1 72:1 78:1 81:5 85:2 99:3 105:1 108:1 115:1 120:1 124:1 131:1 143:2 145:1 146:1 154:1 156:1 157:1 161:1 162:1 180:1 187:1 189:1 190:1 191:3 197:1 202:1 213:1 216:1 238:1 244:1 249:2 301:2 308:1 310:3 311:2 327:1 334:1 339:2 358:1 360:1 361:1 364:24 384:1 444:1 447:1 448:1 449:1 450:1 451:1 452:1 453:1 454:1 455:1 456:1 457:1 458:1 459:2 460:1 461:1 462:1 463:1 464:1 465:1 466:1 467:1 468:7 469:1 470:1 471:1 472:1 473:1 474:1 475:1 476:1 477:1 478:1 479:1 480:1 482:1 483:1 516:6 517:6 518:6 519:6 520:18 521:6 522:6 523:6 524:6 525:6 526:1 527:2 528:1 
-1 0:2 2:1 3:2 4:2 5:2 6:2 8:8 9:3 10:2 12:1 24:2 25:5 29:16 35:1 36:3 38:7 41:2 45:3 46:1 50:3 54:3 55:1 67:3 71:1 72:2 81:4 82:1 85:6 87:1 90:2 107:1 108:1 115:1 129:1 137:2 139:1 142:1 187:2 192:1 197:1 228:1 235:1 242:1 243:2 246:1 273:1 274:1 301:1 306:1 308:1 309:1 335:1 338:1 339:1 355:1 367:1 391:1 395:1 493:2 527:1 540:1 587:1 589:1 638:2 669:1 709:1 711:2 729:1 781:1 859:1 879:1 910:1 941:1 1021:1 1143:2 1203:1 1237:1 1246:1 1284:1 1331:1 1692:1 1693:1 1694:1 1779:1 1954:1 2266:1 2464:1 2520:1 2572:1 2871:1 2882:1 2897:1 2961:1 2974:1 3017:1 3610:1 3615:1 3633:1 3688:1 3697:1 3951:1 4134:1 4360:1 4439:1 4921:1 4922:1 5056:1 5249:1 6051:1 6113:1 6114:1 7638:1 8016:1 8017:1 8018:1 8019:1 8020:1 8021:1 8022:1 8023:1 8024:1 8025:1 
-0.5409294187035563 0:2 2:1 3:1 4:1 5:3 6:4 7:1 8:7 9:4 10:6 12:1 21:4 23:5 24:10 25:14 27:1 28:5 29:19 30:2 31:2 35:1 36:2 38:15 41:1 45:9 46:1 47:4 49:1 50:3 54:2 60:1 63:3 65:5 67:7 76:2 77:1 78:1 81:1 82:1 84:1 85:8 90:2 99:1 103:1 107:2 112:1 114:1 115:1 118:2 137:8 142:1 143:1 146:1 164:1 166:1 167:1 173:2 180:1 190:2 192:1 213:1 216:4 233:2 238:1 241:1 243:2 244:1 245:1 246:1 249:1 259:2 273:2 276:2 284:1 292:1 297:1 298:2 299:2 306:1 309:1 318:1 323:2 374:2 384:1 391:3 403:6 516:1 555:1 594:1 600:1 612:1 638:2 715:1 716:1 742:2 750:1 908:1 925:2 937:1 963:1 964:1 965:1 1187:1 1188:2 1192:1 1242:1 1275:1 1316:1 1405:6 1536:1 1547:1 1556:1 1592:1 1711:2 1779:1 1788:1 1791:1 1833:1 1928:1 1961:1 2058:1 2066:1 2140:1 2141:1 2250:1 2379:2 3531:1 3758:1 3833:1 3951:1 4044:1 4236:1 4377:1 4621:1 4764:2 4788:1 5621:1 6032:1 6108:2 6356:1 6403:1 6816:1 6912:1 7123:1 7124:1 7453:1 7836:1 7837:1 7838:1 7839:1 7840:1 7841:1 7842:1 7843:1 7844:1 7845:1 7846:1 7847:1 7848:1 7849:1 7850:1 
-1 0:2 2:1 3:3 4:1 5:4 6:4 8:5 9:4 10:3 12:1 13:2 20:2 21:4 22:1 23:1 24:6 25:9 26:1 27:1 28:1 29:9 30:1 31:2 36:1 38:7 45:5 47:1 50:2 54:5 56:1 60:2 65:2 67:3 78:5 81:1 82:2 85:2 107:1 109:1 115:1 129:1 136:1 137:1 141:2 142:2 146:1 154:2 156:1 166:2 167:2 168:2 169:1 173:1 176:1 180:2 188:1 204:1 205:1 216:2 231:1 255:1 257:1 306:1 308:1 320:1 321:1 324:1 325:1 361:1 362:1 364:1 481:1 497:1 669:2 823:1 952:2 1020:1 1021:1 1090:1 1240:2 1284:1 1430:1 1532:1 1550:1 1689:1 2077:1 2102:1 2464:1 2758:1 2909:1 2925:1 2933:1 2991:1 3017:1 3589:1 3954:1 4063:1 4479:1 4712:1 7384:1 7979:1 7985:1 8072:1 8073:1 8074:1 8075:1 8076:2 8077:1 8078:1 8079:1 8080:1 8081:1 8082:1 
-1 0:2 2:1 3:4 4:1 5:2 6:1 7:2 8:18 10:4 12:1 13:2 14:1 20:2 21:1 23:1 24:1 25:5 29:8 35:1 36:5 38:8 45:10 46:1 49:1 50:2 52:1 53:1 54:6 55:1 56:2 60:1 65:1 67:6 76:1 78:4 81:9 82:5 85:6 86:1 90:1 99:1 103:2 108:2 115:3 118:2 124:1 129:1 137:2 142:4 143:1 145:1 164:1 166:1 168:1 169:1 173:1 199:1 216:3 238:1 243:1 258:1 273:1 301:2 306:1 308:2 309:2 318:1 323:1 338:1 339:1 345:1 358:1 363:1 364:1 365:2 368:1 372:1 387:2 391:9 403:2 406:1 414:1 441:1 442:1 443:1 445:1 467:2 468:2 489:1 494:1 505:1 512:1 513:1 534:1 539:1 553:1 572:2 578:1 585:1 587:4 589:2 590:1 608:1 613:1 615:1 637:2 638:2 699:1 709:1 715:1 716:2 739:1 764:1 802:1 820:1 859:1 874:1 906:1 912:1 1021:1 1042:1 1055:2 1272:1 1301:1 1400:1 1408:1 1496:1 1505:1 1560:1 1576:1 1601:1 1681:1 1761:1 1779:1 1895:1 2016:1 2028:2 2029:1 2036:1 2048:3 2052:1 2068:1 2069:1 2126:3 2169:1 2303:1 2376:1 2520:1 2769:1 2770:1 2854:1 2894:1 2938:1 3248:1 3323:1 3610:1 3661:1 3665:1 3747:1 3950:1 3954:2 4423:1 5512:1 6139:1 6247:1 6388:1 6645:2 6826:1 7729:1 7930:1 7950:1 7951:2 7952:2 7953:1 7954:1 7955:1 7956:1 7957:1 
-1 0:2 2:1 3:1 4:1 5:5 6:5 8:7 9:4 10:4 13:1 14:2 15:4 20:1 21:4 23:3 24:2 25:3 28:2 29:12 30:1 31:2 36:4 38:8 41:1 45:5 46:1 47:2 54:4 55:1 56:1 61:1 62:1 63:1 65:1 72:1 78:4 81:6 82:1 83:1 85:2 90:2 115:1 137:1 141:1 143:1 145:1 150:1 154:3 155:1 166:1 174:1 176:1 190:2 191:3 197:1 199:1 205:1 216:4 235:2 248:1 274:1 306:1 308:2 309:1 310:4 318:1 339:1 358:1 361:1 364:1 410:2 416:1 441:1 444:2 475:3 481:1 493:1 502:1 520:1 523:1 742:1 807:1 816:1 817:1 937:1 987:1 1185:1 1227:1 1284:1 1431:2 1729:1 1730:1 1779:1 1828:2 2342:1 2758:2 2869:1 2894:1 2903:1 2905:1 2912:1 2933:1 2939:1 2954:1 3371:1 3682:1 3871:2 3941:1 4168:1 4206:1 4876:1 5381:1 6779:1 6883:1 7115:1 7375:1 7518:1 7579:1 7689:1 7690:1 7691:1 7692:1 
-1 0:2 2:1 3:3 4:1 5:3 6:3 8:7 9:2 10:2 11:3 12:2 21:2 24:2 25:9 26:1 27:1 29:7 30:1 31:2 32:1 33:1 34:1 36:3 38:5 41:3 45:4 46:1 50:2 54:1 55:1 56:1 65:2 67:2 76:1 78:1 81:3 85:2 90:1 107:4 108:1 115:1 137:2 143:1 145:2 171:1 195:1 203:1 205:3 213:1 238:1 241:1 244:1 245:1 246:1 256:1 257:1 258:1 259:1 263:1 268:1 276:1 292:1 306:1 308:1 309:1 310:3 311:2 319:2 339:1 402:1 403:2 424:2 444:1 480:1 481:1 482:2 483:1 484:1 485:1 486:1 487:2 488:1 489:1 490:1 491:1 492:1 493:1 494:1 495:1 496:1 497:1 498:1 499:1 500:1 501:1 502:1 503:1 504:1 505:2 506:1 507:1 508:1 509:1 510:1 511:1 512:1 513:1 514:1 515:1 
-0.1834501083090803 0:2 2:1 3:1 4:1 5:3 6:3 7:1 8:14 9:6 10:10 12:1 13:4 20:4 21:5 23:2 24:8 25:20 26:1 27:2 28:4 29:21 30:3 31:3 32:1 34:1 36:6 38:11 40:1 41:3 45:10 47:2 49:1 50:3 54:5 55:1 56:1 60:1 63:1 65:3 67:3 68:1 71:1 76:2 78:7 81:1 82:2 85:6 90:16 99:1 107:1 115:1 118:3 128:1 137:1 141:1 142:1 146:1 154:2 156:3 165:1 166:1 167:1 173:1 180:1 181:1 186:1 197:1 205:2 216:2 231:1 234:1 241:1 245:1 246:1 268:1 273:3 292:1 298:2 301:2 309:2 312:1 323:1 326:1 327:3 342:1 349:2 365:1 391:1 403:1 444:1 453:1 454:1 482:1 487:1 488:1 497:1 502:1 539:1 540:1 541:1 557:1 609:2 619:1 625:1 632:1 638:1 669:3 744:1 750:2 806:1 820:1 832:1 851:1 922:1 969:1 1007:1 1012:1 1028:1 1055:1 1109:1 1110:1 1117:1 1118:1 1119:1 1284:1 1430:1 1436:1 1711:1 1925:1 2086:1 2206:1 2416:2 2464:1 2520:2 2521:1 2572:1 2899:1 3017:1 3081:1 3265:1 3529:1 3613:1 3696:1 3697:1 3707:1 3712:1 3789:2 3877:1 3942:2 3951:1 4212:1 4538:1 4910:1 4921:1 4922:3 4924:1 5101:1 5702:1 6113:2 6114:4 6450:1 7117:1 7118:1 7120:1 7121:1 7122:1 7389:2 7869:1 7870:1 7920:2 7921:1 7922:1 7923:1 7924:1 7925:1 7926:2 7927:3 7928:1 7929:1 7930:1 7931:2 7932:1 7933:1 7934:1 7935:1 
