svm_type c_svc
kernel_type rbf
gamma 0.000360881
nr_class 6
total_sv 1769
rho 0.527801 -1.0227 -0.942878 0.347839 -1.01432 -0.850664 -0.856984 -0.576739 -0.949151 0.776799 0.795975 -0.991956 0.819565 -0.942181 -0.940145
label 6 4 2 1 3 5
nr_sv 297 468 226 278 332 168
SV
1 0 1 1 1 0:2 12:1 46:1 199:1 2186:1 2450:1 
1 1 1 1 1 0:2 54:1 756:1 1991:1 2451:1 
1 1 1 1 0.0646026990935166 0:2 5:1 8:2 11:1 46:1 60:1 62:1 84:2 667:1 1328:1 1973:1 2004:1 2452:1 2453:1 
1 1 1 1 1 0:2 84:1 871:1 2454:1 2455:1 
1 0 1 1 0 0:2 2:1 4:1 5:1 8:1 26:1 33:1 44:1 46:1 54:2 66:1 83:1 100:1 144:3 353:1 529:1 1672:1 1991:1 2186:1 2456:1 2457:1 2458:1 2459:1 2460:1 2461:1 2462:1 
1 0 1 1 0 0:2 12:1 20:1 44:2 54:1 62:1 71:1 84:1 110:1 144:2 189:1 292:1 406:1 418:1 488:2 571:1 1973:1 2138:1 2186:2 2463:1 2464:1 2465:1 2466:1 2467:1 2468:1 
1 0 1 1 0 0:2 11:2 33:2 46:1 62:1 69:1 84:1 85:1 93:1 107:1 132:1 189:1 201:1 209:1 488:3 969:1 2186:2 2376:1 2451:1 2464:1 2469:1 2470:1 
1 1 1 1 1 0:2 20:1 110:1 301:1 529:1 651:1 
1 1 1 1 1 0:2 16:1 71:1 488:1 529:1 916:1 2471:1 
1 0 1 1 0 0:2 12:1 83:1 488:1 756:1 2186:1 2452:1 2472:1 
1 0 1 1 0 0:2 5:1 12:1 18:1 20:1 46:1 54:2 214:1 263:1 291:1 292:1 295:1 529:1 871:1 1312:1 2473:1 2474:1 2475:1 2476:1 
1 1 1 1 1 0:2 54:1 756:1 
1 0 0 1 0 0:2 5:1 11:1 27:1 30:2 47:1 54:6 62:1 66:1 69:1 77:1 84:1 97:1 144:2 151:1 189:1 263:1 291:1 340:1 488:4 501:1 529:3 556:2 682:1 688:1 699:1 817:1 1048:1 1404:1 2172:1 2186:1 2384:1 2477:1 2478:1 2479:1 2480:1 2481:1 2482:1 2483:2 
1 1 1 1 1 0:2 27:1 30:1 54:2 66:1 77:1 109:1 144:1 263:1 435:1 2484:1 2485:1 
1 0.1815834799765896 1 1 0.5319866785340656 0:2 5:1 12:1 16:1 20:1 30:1 46:1 62:3 97:1 556:1 692:1 2186:1 2472:1 2482:1 2486:1 
1 1 1 1 0 0:2 5:2 11:2 12:2 18:1 20:1 21:1 71:1 77:1 84:3 144:1 164:1 189:1 207:1 315:1 374:1 488:1 610:1 731:1 2395:1 2487:1 2488:1 2489:1 2490:1 2491:1 2492:1 
1 1 1 1 0.4821213378035266 0:2 16:1 18:1 54:2 77:1 88:1 274:1 288:1 440:1 2493:1 
1 1 1 1 0 0:2 54:2 62:1 134:1 2494:1 2495:1 2496:1 
1 1 1 1 1 0:2 12:1 18:1 20:1 21:1 33:1 2497:1 2498:1 2499:1 2500:1 2501:1 
1 0.8123066876974459 1 1 0 0:2 12:2 18:1 33:2 46:1 54:1 60:1 100:1 556:1 2392:1 2502:1 2503:1 2504:1 
1 1 1 1 1 0:2 5:1 51:1 555:2 976:1 
1 1 1 1 1 0:2 51:1 373:1 
1 1 1 1 0.3504524398254572 0:2 54:1 189:1 
1 0 1 1 0 0:2 12:1 46:1 59:1 488:1 
1 0 0.5087722750782435 1 0 0:2 5:1 12:1 16:3 27:1 51:1 54:2 62:1 77:1 88:1 171:1 172:1 263:2 381:1 388:1 488:1 529:2 2186:1 2505:1 2506:1 2507:1 2508:1 2509:1 
1 1 1 1 0 0:2 16:1 54:2 62:1 340:1 433:1 471:1 2510:1 
1 1 1 1 1 0:2 11:1 12:1 18:1 124:1 156:1 189:1 307:1 315:1 488:1 2487:1 
1 0 0.4079535470883766 1 0 0:2 12:2 16:2 27:1 46:1 51:2 54:2 73:1 84:2 100:1 107:1 189:1 425:1 488:1 606:1 694:1 742:1 871:1 
1 0 1 1 0.3043900756392262 0:2 12:1 433:1 488:1 556:1 
1 1 1 1 1 0:2 12:1 20:1 100:1 488:1 2176:1 
1 1 1 1 1 0:2 2054:1 
1 1 1 1 1 0:2 11:1 12:1 54:1 71:1 107:1 564:1 572:1 632:1 
1 1 1 1 1 0:2 110:1 2511:1 
1 1 1 1 0 0:2 12:1 16:1 189:1 650:1 1983:1 2186:1 2512:1 2513:1 
1 1 1 1 0.7528507072002988 0:2 12:1 18:1 20:1 58:1 203:1 209:1 263:1 461:1 633:2 1251:1 
1 1 1 1 1 0:2 54:1 155:1 187:1 
1 1 1 1 0 0:2 12:1 54:1 461:1 1192:1 
1 0 1 1 0 0:2 12:2 54:1 484:3 2514:1 2515:1 2516:1 2517:1 2518:1 2519:1 
1 1 1 1 1 0:2 11:2 54:2 62:1 66:1 81:1 125:1 126:1 144:1 173:1 187:1 263:1 
1 1 1 1 1 0:2 11:1 12:1 30:1 54:1 88:1 100:1 148:1 175:1 198:1 418:1 445:1 580:1 2520:1 2521:1 
1 1 1 1 0.7761234100577314 0:2 12:1 189:1 854:1 2186:1 2522:1 
1 1 1 1 1 0:2 16:1 62:1 83:1 110:1 756:1 2158:1 
1 1 1 1 0.2845968267887344 0:2 12:1 33:1 84:1 88:1 101:1 107:1 164:1 189:1 223:1 669:1 2523:1 
1 0 1 1 0 0:2 12:3 27:1 44:1 88:1 100:1 263:1 488:2 590:1 611:1 949:2 
1 1 1 1 1 0:2 5:1 12:1 21:1 33:1 590:1 1126:1 2524:1 2525:1 
1 1 1 1 1 0:2 73:1 258:1 488:1 2526:1 2527:1 
1 1 1 1 0 0:2 12:1 16:1 62:1 77:1 84:1 485:1 2186:1 2528:1 2529:1 
1 1 1 1 1 0:2 11:1 12:1 47:1 54:1 66:2 100:1 110:1 112:1 125:1 126:1 144:1 206:1 291:1 314:1 578:1 699:1 
1 1 1 1 0 0:2 8:1 11:1 12:1 16:1 20:1 30:1 33:1 46:1 51:1 54:2 71:2 77:1 84:1 144:1 158:1 173:1 189:1 209:1 331:1 480:1 841:1 1082:1 1855:1 2115:1 2297:1 2530:1 
1 1 1 1 1 0:2 11:1 18:1 30:1 54:2 60:1 62:1 66:1 79:1 88:1 148:1 171:1 189:1 314:1 333:1 374:1 575:1 632:1 740:1 2299:1 
1 1 1 1 1 0:2 12:2 18:2 20:1 27:1 30:1 33:1 44:2 46:1 54:1 62:1 71:1 158:1 187:1 204:1 461:1 625:1 688:1 712:1 728:1 1165:1 1484:1 2055:1 2531:1 2532:1 2533:1 2534:1 2535:1 2536:1 
1 0 1 1 0 0:2 5:1 12:2 20:1 46:1 54:1 263:1 420:1 529:1 871:1 1339:1 
1 1 1 1 0 0:2 5:2 20:1 27:1 66:1 84:2 100:2 107:1 189:1 263:1 383:1 529:1 614:1 837:1 854:2 2079:1 2537:1 2538:1 
1 1 1 1 0.7524711247632632 0:2 5:1 11:1 12:2 16:2 27:1 51:1 75:1 97:1 100:2 109:1 115:1 140:1 156:1 171:1 187:2 220:1 353:1 549:1 723:1 751:1 837:1 919:1 931:1 1226:1 1283:1 2523:1 2524:1 2539:1 2540:1 2541:1 
1 1 1 1 0 0:2 12:1 16:1 30:1 84:1 107:1 144:1 164:1 189:1 423:1 873:1 976:1 
1 1 0 1 1 0:2 5:2 8:1 11:2 12:3 16:1 18:2 33:2 43:1 54:1 62:1 66:1 75:2 84:1 88:2 144:1 148:2 171:1 187:1 189:1 209:1 254:1 281:1 317:1 321:1 353:1 376:1 529:1 594:1 599:1 738:1 873:1 1055:1 1091:1 1338:1 2542:1 2543:1 
1 0.1715533434034898 1 1 0 0:2 5:1 11:1 12:2 16:1 18:1 30:1 33:1 73:1 77:1 84:1 88:2 107:1 112:1 164:1 187:2 189:1 223:1 280:1 307:1 440:1 549:1 710:1 786:1 873:1 1080:1 1154:1 1234:1 2544:1 2545:1 
1 0 1 1 0 0:2 11:1 12:1 18:1 33:1 43:1 51:1 54:2 62:1 66:2 74:1 84:1 87:1 88:1 107:1 110:1 144:3 148:2 164:1 376:1 383:1 529:1 580:1 584:1 632:1 1104:1 1283:1 2186:1 2529:1 2546:1 2547:1 
1 1 1 1 1 0:2 11:1 16:1 127:1 529:1 2125:1 
1 1 1 1 1 0:2 16:1 21:1 33:1 62:1 88:1 305:1 316:1 488:1 2489:1 2548:1 2549:1 
1 0.1253519350511516 1 1 1 0:2 5:1 12:1 18:1 28:1 30:1 62:1 107:1 108:1 134:1 137:1 1977:1 2136:1 2550:1 2551:1 
1 0.1583367024131618 1 1 0 0:2 12:2 77:1 81:1 187:1 280:1 590:1 
1 1 1 1 1 0:2 18:2 20:1 33:1 62:1 66:1 73:1 88:2 100:1 110:1 124:1 263:1 307:1 313:1 383:1 446:1 488:1 529:3 542:1 596:1 837:1 2153:1 2213:1 2552:1 
1 1 1 1 0 0:2 12:1 18:1 20:1 46:1 54:1 62:1 263:1 313:1 529:1 542:1 
1 0 1 1 1 0:2 21:1 83:1 2186:2 
1 0.3502333512326029 1 1 1 0:2 5:1 20:1 21:1 33:1 62:1 556:1 2343:1 2401:1 2489:1 2553:1 
1 1 1 1 1 0:2 4:1 51:1 2554:1 2555:1 
1 1 1 1 1 0:2 12:1 51:1 88:1 2079:1 2513:1 2556:1 2557:1 
1 0 1 1 0 0:2 11:1 12:1 33:2 47:1 62:1 77:1 84:1 110:1 206:1 291:1 321:1 331:1 488:2 633:1 699:1 776:1 777:1 841:1 854:1 974:1 1192:1 
1 0 1 1 1 0:2 5:1 11:2 12:2 47:1 54:1 62:1 75:1 88:1 144:1 173:1 206:1 211:1 545:1 857:1 871:1 1249:1 1484:1 1762:1 2534:1 
1 0 1 1 0 0:2 12:1 47:1 206:1 433:1 488:1 556:1 
1 1 1 1 1 0:2 12:1 2186:1 2511:2 
1 1 1 1 1 0:2 488:1 620:1 
1 1 1 1 0.2128271908776397 0:2 12:1 144:1 364:2 488:1 2541:1 
1 1 1 1 0 0:2 12:1 18:1 89:1 144:1 187:1 263:1 488:1 2524:1 
1 1 1 1 1 0:2 83:1 110:1 199:1 2558:1 
1 1 1 1 1 0:2 12:1 20:1 820:1 
1 1 1 1 1 0:2 75:1 96:1 110:1 2559:1 
1 1 1 1 1 0:2 12:1 20:1 33:1 307:1 556:1 2560:1 
1 1 1 1 1 0:2 110:1 381:1 
1 0.1509487326347045 1 1 0 0:2 415:1 488:2 694:1 880:1 974:1 2172:1 2186:1 
1 1 1 1 0.3505038704141099 0:2 12:1 144:1 187:1 212:1 415:1 529:1 2561:1 2562:1 
1 1 1 1 1 0:2 110:1 1479:1 2563:1 2564:1 2565:1 
1 1 1 1 1 0:2 12:1 174:1 620:1 
1 1 1 1 1 0:2 5:1 12:1 16:1 30:1 60:1 84:1 139:1 418:1 423:1 2347:1 
1 1 1 1 0 0:2 5:1 11:1 12:1 54:1 60:1 83:1 144:1 199:1 529:1 
1 1 1 1 1 0:2 110:1 2184:1 
1 0 1 1 0 0:2 12:1 47:1 187:1 206:1 488:1 871:1 2523:1 2566:1 2567:1 
1 1 1 1 1 0:2 38:1 293:1 488:1 2186:1 
1 1 1 1 0 0:2 12:1 16:1 51:1 84:1 189:1 263:1 471:1 529:1 898:1 1258:1 2568:1 
1 0.5790937539732315 1 1 0 0:2 46:1 54:1 62:1 110:1 189:1 2186:1 
1 0.5387346150177881 0.8804494173337867 1 0.3959613953660571 0:2 5:1 11:6 12:4 18:2 27:1 30:1 33:1 43:2 47:1 54:1 62:1 63:1 71:1 84:1 107:1 110:1 112:1 115:1 128:1 144:3 148:1 156:1 187:1 189:1 206:1 328:1 529:1 594:1 596:1 651:1 837:1 871:1 1339:2 1507:1 1535:2 1762:1 2374:1 2569:2 2570:1 
1 1 1 1 0.2484316464749862 0:2 12:1 20:1 73:1 128:1 237:1 252:1 488:1 529:1 786:1 2571:1 
1 1 1 1 1 0:2 28:1 62:1 66:1 67:1 110:1 112:1 382:1 2114:1 
1 0.4627288397898505 1 1 1 0:2 5:2 11:1 20:1 30:1 51:1 75:1 84:1 107:1 110:1 420:1 2136:1 2572:1 
1 1 1 1 1 0:2 12:1 35:1 110:1 132:1 756:1 1479:1 2420:1 
1 0.8731149943914713 1 1 1 0:2 5:1 8:1 12:1 16:1 17:1 18:1 20:1 21:1 26:1 27:1 51:1 62:1 134:1 156:1 263:1 313:1 529:1 541:1 580:1 694:1 751:1 1076:1 2154:1 
1 1 1 1 0 0:2 8:1 11:1 20:1 54:2 124:1 189:1 
1 1 1 1 1 0:2 30:1 54:1 291:1 894:1 1314:1 
1 0 1 1 0.4787791211170233 0:2 11:1 12:2 46:1 47:1 54:1 58:1 73:1 206:1 2099:1 
1 0 1 1 0 0:2 5:2 12:1 18:1 20:1 27:1 46:1 47:1 62:1 71:2 73:1 180:1 187:1 206:1 313:1 854:1 1251:1 1371:1 2016:1 2084:1 2573:1 2574:1 
1 1 1 1 0.5240284507638462 0:2 11:1 12:1 30:1 41:1 54:1 100:1 180:1 189:1 200:1 231:1 291:1 307:1 446:1 751:1 1314:1 2575:1 2576:1 
1 1 1 1 1 0:2 5:1 16:1 18:1 27:1 88:1 105:1 545:1 1160:1 2359:1 
1 1 1 1 1 0:2 5:1 461:1 561:1 625:1 2532:1 
1 1 1 1 1 0:2 12:2 231:1 976:1 1010:1 2577:1 
1 0 1 1 0 0:2 5:3 12:1 27:1 44:1 62:1 66:1 79:1 80:1 84:1 88:1 100:1 107:1 144:2 161:1 200:1 209:1 216:1 307:1 507:1 549:2 695:1 735:1 1161:1 1247:1 1265:1 1905:1 2006:1 2578:1 2579:1 
1 1 1 1 1 0:2 5:1 8:1 27:1 75:1 576:2 804:1 2580:1 2581:1 
1 1 1 1 1 0:2 20:1 2061:1 2196:1 
1 1 1 1 1 0:2 17:1 20:1 488:1 2196:1 
1 0 1 1 0 0:2 5:2 11:1 16:2 18:1 33:1 47:2 62:2 73:1 77:2 84:1 110:2 187:1 191:1 206:2 252:1 488:3 911:1 2582:1 2583:2 
1 1 1 1 1 0:2 12:1 110:1 151:1 461:1 
1 1 1 1 0 0:2 5:1 12:1 20:1 75:1 110:1 529:1 556:1 1281:1 2048:1 
1 1 1 1 0 0:2 84:1 110:1 144:1 187:1 292:1 458:1 2084:1 
1 0 0 1 0 0:2 5:2 11:2 12:3 16:1 18:2 20:1 27:1 33:2 53:1 54:2 59:1 62:1 88:1 100:1 107:1 144:1 156:2 187:1 200:1 209:1 228:1 252:2 263:1 307:1 315:1 461:1 484:1 488:1 549:1 568:1 710:1 730:1 894:1 1778:1 1781:1 2186:5 2521:1 2585:1 2586:1 2587:1 2588:1 2589:1 2590:1 
1 0.5648373551812356 1 1 1 0:2 5:1 12:1 16:2 66:1 67:1 75:2 84:1 124:1 529:1 2524:2 
1 0.9314868795749739 1 1 1 0:2 5:2 11:3 12:5 16:1 18:4 27:1 47:1 62:2 71:1 77:1 81:2 84:1 88:3 100:2 132:1 144:1 148:1 164:1 171:1 173:1 187:1 189:1 191:1 198:1 206:1 240:1 263:1 315:1 425:1 496:1 549:2 623:1 919:1 1104:1 1154:2 1217:1 2084:1 
1 1 1 1 0.2703289015414513 0:2 5:1 11:1 12:1 16:1 18:1 20:1 33:2 84:2 107:1 164:1 189:1 208:1 259:1 294:1 301:1 441:1 710:1 711:1 2056:1 2591:1 2592:1 
1 1 1 1 0 0:2 12:1 33:1 46:1 54:1 62:1 73:1 80:1 125:1 126:1 156:1 187:1 209:1 228:1 353:1 383:1 523:1 
1 0.7346737166444867 1 1 1 0:2 5:1 12:1 16:2 51:1 75:1 84:1 88:1 110:1 232:1 633:1 
1 0 1 1 0 0:2 5:1 11:1 12:2 20:1 30:1 33:3 43:2 47:1 62:1 74:1 84:1 107:1 110:2 148:1 164:1 189:1 206:1 291:1 301:1 529:1 540:1 1197:1 1210:1 2569:2 2593:1 2594:1 
1 1 1 1 1 0:2 11:2 12:3 18:1 30:1 33:1 44:1 47:1 49:1 54:1 71:1 83:1 99:1 124:1 144:1 173:1 189:1 198:1 206:1 307:1 461:1 529:1 623:1 625:1 637:1 751:1 871:1 911:1 938:1 1159:1 2532:1 2595:1 
1 1 1 1 0 0:2 26:1 30:1 33:1 54:1 77:1 139:1 144:2 187:1 189:1 209:1 231:1 291:1 512:1 699:1 767:1 2596:1 
1 1 1 1 1 0:2 110:1 373:1 
1 1 1 1 1 0:2 11:1 54:1 71:1 73:1 263:1 2597:1 
1 1 1 1 0 0:2 12:1 16:1 51:1 54:1 84:1 144:1 611:1 2025:1 2598:1 2599:1 
1 0.8148963461826452 0 1 0 0:2 5:3 8:2 12:7 16:1 18:3 20:2 25:1 26:1 27:2 30:2 33:1 44:1 51:1 66:2 67:3 83:1 84:1 85:2 88:1 105:1 107:1 156:4 171:1 187:2 189:1 200:1 203:1 214:1 280:1 295:1 316:1 328:1 397:1 426:1 484:1 556:1 623:1 818:1 911:1 923:1 1082:1 1121:1 1413:1 1476:1 1900:1 2021:1 2084:1 2600:1 2601:1 2602:1 2603:1 2604:1 2605:1 2606:1 2607:1 2608:1 2609:1 2610:1 
1 1 1 1 1 0:2 33:1 54:1 2541:1 
1 1 1 1 1 0:2 54:1 461:1 
1 1 1 1 0 0:2 12:1 44:1 84:1 110:1 237:1 372:1 2607:1 2608:1 
1 1 1 1 0.5494007937121543 0:2 5:2 12:1 16:2 84:1 93:1 96:1 110:1 278:1 290:1 423:2 630:1 1223:1 2128:1 
1 1 1 1 1 0:2 16:1 109:1 
1 1 1 1 0 0:2 12:2 16:1 84:1 100:2 109:1 125:1 189:1 390:1 
1 1 1 1 0.6927130931806937 0:2 27:1 84:1 174:1 488:2 2196:1 2611:1 
1 1 1 1 1 0:2 5:1 20:1 51:1 187:1 301:1 898:1 2136:2 2566:1 2612:1 
1 0 0 1 0 0:2 11:2 12:2 54:2 144:1 187:1 189:2 263:1 513:1 529:1 738:1 976:1 2186:1 2487:1 2613:1 
1 0 1 1 0 0:2 8:1 12:2 17:1 20:1 33:1 54:2 107:1 189:1 231:1 237:1 488:1 556:1 630:1 1358:1 2614:1 2615:1 
1 1 1 1 1 0:2 5:1 12:1 20:1 88:1 171:1 699:1 762:1 2616:1 
1 1 1 1 0.6652475302572037 0:2 12:1 27:1 51:1 54:1 74:1 84:1 100:1 189:1 274:1 598:1 1918:1 
1 1 1 1 1 0:2 12:1 17:1 18:1 633:1 
1 1 1 1 1 0:2 110:1 592:1 
1 1 1 1 1 0:2 5:1 8:1 11:1 16:1 20:1 54:1 124:1 1977:1 2163:1 
1 1 1 1 0 0:2 11:1 12:1 20:1 54:1 137:1 263:1 529:1 2184:1 
1 1 1 1 0 0:2 12:1 54:1 62:2 77:1 263:1 
1 1 1 1 0.608468998779307 0:2 12:1 15:1 60:1 79:1 96:1 418:1 549:1 580:1 2617:1 2618:1 
1 1 1 1 1 0:2 21:1 30:1 156:1 488:1 2186:1 2513:1 2619:1 2620:1 
1 1 1 1 1 0:2 5:1 21:1 29:1 33:1 2186:1 2621:1 2622:1 2623:2 
1 0.5588030829048376 1 1 1 0:2 5:2 8:2 11:2 12:1 16:1 18:1 20:1 28:1 30:1 33:1 43:1 46:1 51:1 54:1 62:2 66:1 70:1 88:1 100:1 110:1 127:1 149:1 187:1 189:1 200:1 216:1 729:1 740:1 767:1 837:1 916:1 1163:1 1374:2 1977:1 2063:1 2577:1 2624:1 2625:1 2626:1 2627:1 
1 0 0 1 0 0:2 5:1 12:1 28:1 51:1 54:2 63:1 71:1 84:1 144:1 199:1 263:1 353:1 501:1 529:3 650:1 2186:4 2217:1 2508:2 2550:1 2628:1 2629:1 2630:1 2631:1 
1 0 1 1 1 0:2 5:1 9:2 11:2 12:3 18:1 30:1 44:1 49:1 51:1 62:1 99:1 107:1 125:1 126:1 199:1 284:1 488:1 650:1 710:1 1251:1 1255:1 1978:1 2186:1 2524:1 2632:1 2633:1 2634:1 2635:1 2636:1 2637:1 
1 0.4973680040282383 0 1 0 0:2 5:3 11:1 12:3 18:2 20:2 27:2 28:1 30:1 43:1 47:1 66:1 71:1 75:1 84:1 88:2 89:1 96:1 100:1 107:1 144:2 149:1 173:1 187:2 200:2 206:1 216:1 291:1 294:1 301:2 315:1 441:1 473:1 529:1 575:1 902:1 935:1 975:2 1163:1 1244:1 1383:1 2140:1 2524:1 2559:1 2638:1 2639:1 
1 0 1 1 0 0:2 12:1 18:1 54:1 62:1 73:1 144:1 156:1 263:1 420:1 529:1 549:1 568:1 2186:2 2541:1 
1 0.7247262599537622 1 1 0.08893393119196172 0:2 5:2 8:1 11:3 12:2 16:1 18:1 20:2 30:1 33:1 44:1 62:2 79:1 84:1 107:1 125:1 126:1 144:1 156:1 158:1 187:1 307:2 361:1 473:1 549:1 710:1 738:1 1407:1 1476:1 2640:1 2641:1 2642:1 
1 1 0 1 0 0:2 5:4 11:5 12:3 16:1 18:1 20:4 25:1 27:2 28:1 30:3 33:3 41:1 44:1 46:1 60:1 62:1 75:2 79:1 84:4 85:1 88:1 125:1 126:1 137:1 139:2 144:1 156:1 187:4 189:3 191:1 280:1 307:1 414:1 415:1 447:1 549:1 730:1 738:2 912:1 1078:1 1137:1 1197:1 1226:1 1244:1 1339:1 2156:1 2592:1 2643:1 2644:1 2645:1 2646:1 
1 0.6729243894804516 1 1 1 0:2 12:1 34:1 62:1 66:1 88:1 107:1 373:1 2647:1 2648:1 
1 1 1 1 1 0:2 12:1 28:1 51:1 976:1 
1 1 1 1 0 0:2 12:1 62:1 84:1 144:1 189:1 228:1 529:1 605:1 1412:1 
1 0 1 1 0 0:2 5:1 11:1 12:1 33:1 54:2 62:1 109:1 124:1 144:1 556:1 898:1 1467:1 2607:1 2628:1 2649:1 2650:1 
1 1 1 1 0 0:2 8:1 11:1 20:1 54:2 124:1 189:1 
1 1 0.1067887447027019 1 0 0:2 5:2 8:2 11:2 16:1 18:2 41:1 44:1 60:1 62:1 80:1 84:2 144:2 189:1 418:1 549:1 568:1 650:1 674:1 681:1 1010:1 1182:1 2607:1 2651:1 2652:1 
1 0 1 1 0 0:2 5:1 12:2 16:1 51:1 54:1 88:1 100:1 144:1 529:1 556:1 581:1 976:1 2648:1 
1 1 1 1 1 0:2 11:1 12:1 28:1 33:1 83:1 1365:1 2096:1 2607:1 2653:1 2654:1 
1 1 1 1 1 0:2 44:2 60:2 
1 1 1 1 1 0:2 8:2 11:1 12:1 18:1 20:1 30:1 33:1 44:1 51:1 62:1 78:1 84:1 144:1 165:1 189:1 230:1 508:1 596:1 605:1 710:1 837:1 2411:1 2655:1 
1 1 1 1 1 0:2 5:1 8:1 51:1 84:1 144:1 158:1 200:1 319:1 976:1 2656:1 2657:1 
1 1 1 1 0.7273797368904995 0:2 46:1 54:1 
1 1 1 1 1 0:2 5:1 11:2 12:1 18:1 44:1 51:1 71:1 84:1 100:1 173:1 174:1 331:1 492:1 691:1 694:1 841:1 2658:1 2659:1 
1 0 1 1 0 0:2 5:2 8:2 12:1 18:1 20:1 47:1 51:1 62:1 75:1 77:1 84:1 189:1 206:1 237:1 264:1 313:1 576:2 857:1 2344:1 
1 1 1 1 1 0:2 54:1 88:1 171:1 440:1 2660:1 
1 1 1 1 1 0:2 5:1 215:1 2027:1 2037:1 
1 1 1 1 1 0:2 5:2 8:1 11:1 12:1 16:1 18:3 33:3 71:1 80:1 83:1 97:1 107:1 173:1 280:1 353:1 361:1 425:1 603:1 607:1 636:1 688:1 1400:1 2217:1 2661:1 
1 1 1 1 0 0:2 5:1 8:1 12:2 33:2 43:1 44:1 46:1 66:2 67:1 84:2 88:1 96:1 100:1 144:1 148:1 189:1 212:1 237:1 730:1 873:1 980:1 1352:1 1363:1 2084:1 2283:1 2662:1 2663:1 2664:1 2665:1 2666:1 
1 1 1 1 1 0:2 2667:1 
1 1 1 1 0 0:2 5:1 8:1 16:1 20:1 33:1 84:1 88:1 144:1 189:1 228:1 268:1 549:1 584:1 2550:1 2668:1 2669:1 2670:1 
1 1 1 1 1 0:2 73:1 142:1 
1 1 1 1 1 0:2 30:1 433:1 
1 1 1 1 1 0:2 18:1 488:1 2671:1 
1 1 1 1 1 0:2 11:1 12:1 16:1 30:1 54:1 200:1 237:1 316:1 433:1 1619:1 2088:1 2672:1 
1 0.4448798305628406 1 1 0 0:2 5:1 11:1 12:1 33:2 43:1 54:1 71:1 110:2 115:1 144:1 173:1 187:1 316:1 572:1 724:1 738:1 2489:1 2673:1 
1 1 1 1 1 0:2 62:1 2489:1 
1 1 1 1 0.2609266313302913 0:2 11:1 12:1 16:1 200:1 237:1 263:1 301:1 488:1 738:1 
1 0 1 1 0 0:2 5:1 12:1 26:1 30:2 33:1 44:1 47:1 62:1 110:2 144:1 148:1 198:1 206:1 488:2 594:1 767:1 2489:2 
1 0 1 1 0 0:2 151:1 461:1 488:3 2674:1 
1 1 1 1 1 0:2 88:1 1912:1 
1 1 1 1 0.9025720069347994 0:2 488:1 529:1 556:1 919:1 2343:1 
1 1 1 1 1 0:2 54:1 461:1 
1 1 1 1 0 0:2 115:1 144:1 177:1 488:2 757:1 
1 1 1 1 1 0:2 12:1 2487:1 2675:1 
1 1 1 1 1 0:2 11:1 20:1 54:1 710:1 2676:1 
1 1 1 1 1 0:2 8:1 11:2 12:1 18:1 33:1 54:1 71:1 72:1 100:1 144:2 174:1 187:1 300:1 455:1 549:1 2560:1 
1 1 1 1 1 0:2 11:2 12:1 33:2 43:1 71:1 85:1 115:1 187:1 280:1 482:1 1104:1 2569:1 2677:1 
1 1 1 1 0 0:2 84:1 110:1 263:1 529:1 854:1 1479:1 
1 1 1 1 0.5424021264163983 0:2 11:2 12:1 16:1 18:2 20:2 47:1 51:1 54:4 71:1 88:1 109:1 144:1 171:1 189:1 206:1 209:1 231:1 237:1 394:1 433:1 466:1 484:1 542:1 677:1 818:1 1450:1 2117:1 2523:1 2677:1 
1 1 1 1 0 0:2 84:1 199:1 488:2 2186:2 2546:1 2678:1 
1 1 1 1 1 0:2 16:1 54:1 77:1 198:1 461:1 
1 0.2771275950396619 1 1 0 0:2 30:1 46:1 54:2 77:1 1192:1 
1 1 1 1 0.2437519288613709 0:2 5:2 11:1 33:1 62:2 71:1 84:1 88:1 107:1 110:1 144:1 158:1 159:1 160:1 174:1 189:1 291:1 292:1 488:1 651:1 2037:1 2679:1 
1 1 1 1 1 0:2 75:1 110:1 
1 1 1 1 1 0:2 12:1 51:1 75:1 83:1 93:1 911:1 976:1 1010:1 
1 1 1 1 1 0:2 5:1 11:3 12:1 20:1 30:1 33:2 46:1 54:1 62:1 433:1 447:1 669:1 871:1 2093:2 2680:1 
1 0.7517889582570638 1 1 1 0:2 5:2 8:1 11:1 12:3 16:1 18:3 20:3 27:1 44:1 62:3 66:1 71:1 83:1 100:2 107:1 139:1 301:1 348:1 433:1 712:1 728:1 871:1 1117:1 1211:1 1360:1 1427:1 1633:1 2230:1 2681:1 2682:1 2683:1 
1 1 0 1 0 0:2 5:1 11:2 16:1 17:1 18:1 27:1 33:2 54:3 62:1 71:1 83:1 84:1 88:1 124:1 144:1 187:3 189:1 280:1 305:1 348:1 384:1 738:1 767:1 873:1 1327:1 2569:1 2677:1 2684:1 2685:1 2686:1 2687:1 
1 1 1 1 0.4805410083125468 0:2 5:1 8:1 11:1 18:2 20:3 30:1 33:3 44:1 46:1 47:2 54:1 62:2 71:3 84:1 88:1 106:1 156:1 158:1 173:1 176:1 189:1 206:2 231:1 237:1 291:1 313:1 381:2 418:1 425:1 488:2 1969:1 2673:1 2677:1 2688:1 2689:1 
1 1 0 1 0 0:2 5:3 11:3 12:2 16:2 18:1 20:1 30:1 47:1 63:1 66:1 79:1 80:1 84:3 85:1 88:1 100:1 125:1 126:1 127:1 139:1 144:1 175:1 187:1 189:2 206:1 223:1 291:1 301:1 336:1 420:1 488:1 574:1 699:1 767:1 1076:1 1104:1 1105:1 1284:1 1370:1 1444:1 1884:1 
1 1 0 1 0 0:2 5:1 11:4 12:2 16:2 20:2 30:1 43:1 46:2 54:4 62:3 66:1 69:1 71:2 83:1 84:2 88:2 115:1 144:1 189:2 216:2 301:1 381:1 452:1 576:1 717:2 767:1 810:1 837:1 988:1 1046:1 1163:2 1433:1 1972:1 1973:1 2680:1 2690:1 2691:1 2692:1 2693:1 2694:1 2695:1 
1 1 1 1 1 0:2 5:2 11:1 12:5 16:1 18:1 27:1 30:2 33:1 41:1 43:1 49:1 62:1 66:1 71:2 72:1 76:1 77:1 84:1 95:1 96:1 100:1 107:2 125:1 126:1 139:1 144:1 171:1 173:2 190:1 245:1 280:1 384:1 404:1 447:1 596:1 603:1 694:1 736:1 1197:2 2571:1 
1 1 1 1 0 0:2 4:1 12:1 75:1 110:1 144:1 189:1 492:1 529:1 
1 1 1 1 1 0:2 62:1 493:1 
1 1 1 1 1 0:2 30:1 33:1 263:1 488:1 493:1 594:1 1370:1 
1 1 1 1 0 0:2 54:1 263:1 
1 1 1 1 0.1248908112566328 0:2 5:1 33:2 62:1 86:2 88:1 110:2 139:1 172:1 201:1 488:1 493:1 535:1 636:1 
1 0 1 1 0 0:2 5:1 8:1 27:1 44:1 46:2 62:1 84:1 88:2 103:1 189:1 488:2 757:1 862:1 
1 1 1 1 1 0:2 16:1 21:1 88:1 171:1 189:1 406:1 488:1 1211:1 
1 0 1 1 0 0:2 46:1 71:1 85:1 488:2 549:1 2489:1 
1 1 1 1 0 0:2 11:1 54:2 144:1 263:2 
1 1 1 1 1 0:2 5:1 11:1 18:1 20:1 51:1 71:1 107:1 164:1 2696:1 
1 1 1 1 1 0:2 11:1 16:1 18:1 20:1 203:1 295:1 488:1 632:1 923:1 
1 0 1 1 0 0:2 16:1 144:1 260:1 418:1 488:2 504:1 549:1 2697:1 
1 1 1 1 1 0:2 110:1 639:1 
1 0 1 1 0 0:2 5:1 16:1 33:1 71:1 105:1 107:1 110:1 164:1 183:1 445:1 488:1 632:1 
1 0.130605270036242 1 1 1 0:2 8:1 11:1 12:1 18:2 33:2 60:1 96:1 105:1 107:1 110:1 144:1 274:1 307:1 529:1 681:1 710:1 1467:1 2059:1 2607:1 
1 1 1 1 1 0:2 62:1 139:1 144:1 231:1 979:1 2489:1 
1 1 1 1 1 0:2 11:2 12:1 18:2 52:1 54:1 97:1 105:1 108:1 144:1 263:1 313:1 723:1 
1 1 1 1 0 0:2 33:1 54:1 71:1 107:1 110:1 128:1 418:1 632:1 
1 1 1 1 1 0:2 8:1 11:2 12:1 18:2 54:2 62:1 63:1 73:1 77:1 88:1 89:1 107:1 139:1 144:1 158:1 171:1 187:1 285:1 376:1 420:1 534:1 568:1 580:1 594:1 1159:1 2489:1 
1 1 1 1 0.2726202631095004 0:2 26:1 33:1 54:1 2489:1 
1 0 1 1 1 0:2 5:2 8:1 11:1 12:1 16:1 18:1 20:1 62:1 66:1 112:1 549:2 629:1 676:1 2489:1 2699:1 2700:1 
1 0 1 1 1 0:2 5:2 8:3 11:2 12:2 18:1 20:2 33:3 43:1 51:1 62:2 71:2 88:3 99:1 100:1 107:1 112:1 133:1 139:1 187:1 209:1 286:1 549:1 975:2 1265:1 2569:2 2579:1 
1 1 1 1 1 0:2 5:1 12:2 18:1 20:1 27:1 33:1 44:1 49:1 62:1 71:1 84:1 85:1 88:1 107:1 191:1 245:1 376:1 383:1 404:1 507:1 926:1 1098:1 1099:1 1614:1 2427:1 2701:1 2702:1 2703:1 
1 1 1 1 0 0:2 5:1 8:1 11:2 12:1 17:1 18:1 20:4 27:1 33:1 54:2 62:2 112:1 124:2 156:1 165:1 246:1 756:1 2698:1 2704:1 2705:1 2706:1 2707:1 2708:1 
1 1 1 1 0.9543993567508969 0:2 5:2 12:2 18:1 51:1 62:1 79:1 84:1 88:3 100:1 107:1 112:1 189:1 211:1 2559:1 2676:1 2705:1 2709:1 2710:1 
1 0 1 1 1 0:2 5:2 8:2 11:2 12:3 16:2 26:1 27:1 30:1 33:3 60:1 62:2 77:1 79:1 88:2 93:1 96:1 100:1 107:3 116:1 160:1 249:1 315:1 434:1 588:1 589:1 757:1 952:1 1368:1 1912:1 2489:1 
1 0.8222679438943844 1 1 1 0:2 5:1 12:1 556:1 611:1 1315:1 
1 1 1 1 1 0:2 12:1 18:1 28:1 51:1 611:1 814:1 2711:1 2712:1 
1 1 1 1 1 0:2 12:1 18:2 100:1 110:1 134:1 156:1 2186:1 2306:1 
1 1 1 1 1 0:2 633:1 
1 0 1 1 1 0:2 16:1 60:1 62:1 107:1 110:1 
1 1 1 1 0 0:2 54:1 110:1 128:1 187:1 204:1 263:1 
1 1 1 1 1 0:2 54:1 461:1 
1 1 1 1 0 0:2 12:1 75:1 84:1 144:1 189:1 492:1 
1 1 1 1 0 0:2 5:1 11:1 12:3 30:1 33:1 62:2 84:1 88:1 110:2 178:1 189:1 556:2 767:1 871:1 1328:1 1977:1 2541:1 2607:1 2713:1 2714:1 
1 0 1 1 0 0:2 5:1 12:1 18:1 112:1 187:1 263:1 529:2 738:2 976:1 2487:1 2715:1 
1 1 1 1 1 0:2 8:1 11:2 12:1 71:1 73:1 128:1 144:1 156:1 263:1 
1 1 1 1 1 0:2 110:1 1977:1 
1 0 1 1 0 0:2 12:1 62:1 110:1 556:1 2084:1 
1 1 1 1 1 0:2 46:1 110:1 
1 0 1 1 0 0:2 12:1 33:1 54:2 62:1 85:1 88:1 144:1 385:1 418:1 455:1 529:1 580:1 632:2 2084:1 2489:1 2593:1 
1 0 0.09603601579689135 1 0 0:2 5:4 8:1 11:1 12:2 16:1 20:2 33:2 47:1 51:1 71:1 75:1 84:1 88:1 96:1 106:1 110:1 134:1 139:1 187:1 206:1 278:1 288:1 291:1 307:1 331:1 383:1 456:1 710:2 841:1 975:1 1706:1 1977:1 2084:1 2246:1 2716:1 2717:1 
1 0 1 1 0 0:2 5:5 8:1 12:2 16:2 18:2 27:1 33:1 71:1 84:1 85:2 88:3 100:1 105:1 107:2 110:2 209:1 214:1 237:1 263:1 288:1 310:1 315:1 751:1 919:2 961:1 967:1 1467:1 1977:1 2559:2 2607:1 2718:1 2719:1 2720:1 
1 1 1 1 1 0:2 5:1 51:1 629:1 2721:1 
1 1 1 1 1 0:2 5:1 8:1 20:1 44:1 315:1 630:1 2722:1 
1 1 1 1 1 0:2 5:1 12:1 66:1 71:1 83:1 88:1 100:1 173:1 337:1 1569:1 2096:1 2214:1 
1 1 1 1 1 0:2 5:1 8:1 21:1 27:2 43:1 88:1 212:1 757:1 1262:1 
1 1 1 1 0 0:2 5:2 12:1 33:2 62:5 84:2 85:1 96:1 110:1 112:1 189:1 501:1 556:2 650:1 1192:1 1269:1 1544:1 1557:1 2223:1 2723:1 
1 1 1 1 1 0:2 5:1 8:1 21:1 30:1 51:1 79:1 84:1 88:1 96:1 142:1 144:1 174:1 367:1 501:1 763:1 790:1 919:1 952:1 2343:1 
1 1 1 1 0 0:2 5:1 16:1 30:1 54:1 101:1 144:1 189:1 231:1 478:1 2596:1 
1 0 1 1 1 0:2 5:2 21:1 27:1 33:1 44:1 51:1 60:1 62:1 88:1 174:1 416:1 2489:1 2724:1 2725:1 
1 1 1 1 0 0:2 5:1 12:1 46:1 83:1 156:1 2726:1 
1 1 1 1 0 0:2 5:1 12:1 20:1 28:1 556:1 710:1 2136:1 2727:1 
1 1 1 1 0 0:2 5:1 8:1 16:1 44:1 84:1 88:2 110:1 156:1 189:1 209:1 328:1 611:1 729:1 1450:1 2084:1 
1 1 1 1 1 0:2 11:1 16:1 33:1 187:1 263:1 2084:1 2569:1 
1 1 1 1 1 0:2 11:2 12:1 20:1 27:1 30:1 33:2 54:1 93:1 105:1 107:1 156:1 187:1 214:1 263:1 361:1 469:1 738:1 2569:1 
1 0.1784543142618725 1 1 0.2135936010945353 0:2 5:2 8:2 11:4 12:3 16:1 18:2 30:2 33:1 54:1 71:4 73:2 77:1 80:1 84:1 88:1 107:2 139:3 144:1 173:1 187:1 198:1 223:1 263:1 310:1 404:1 418:1 447:1 485:1 534:1 738:1 786:1 988:1 1159:1 1391:1 1467:1 1615:1 2569:1 2728:1 2729:1 2730:1 
1 1 1 1 1 0:2 16:1 18:1 30:1 200:1 301:1 575:1 2489:1 
1 0 1 1 0 0:2 5:1 8:1 16:1 18:1 20:1 21:1 26:1 33:1 41:1 44:1 54:2 58:1 71:2 100:2 107:1 109:1 144:1 173:1 189:2 198:1 231:2 457:1 461:1 596:1 625:1 763:1 1450:1 2214:1 2489:1 2532:1 2731:1 
1 0 0 1 0.2841966887432209 0:2 5:3 11:2 12:1 16:2 18:1 27:1 33:2 51:2 54:1 66:1 79:1 83:1 84:1 88:1 107:2 158:1 186:1 187:1 189:1 231:1 263:1 307:1 314:1 384:1 447:1 457:1 529:1 581:1 628:1 735:1 738:1 919:1 1010:1 1327:1 1346:1 2150:1 2569:1 2732:1 
1 1 1 1 1 0:2 5:1 8:1 11:2 12:2 18:1 20:1 27:1 30:1 33:4 71:1 73:1 77:1 88:2 100:1 105:1 132:1 144:1 183:1 209:1 263:2 305:1 496:1 507:1 549:1 908:1 938:1 2084:1 2160:1 2489:1 2733:1 2734:1 
1 1 1 1 1 0:2 18:1 27:1 88:1 110:1 313:1 488:1 1400:1 
1 1 1 1 0 0:2 5:2 11:1 16:3 18:2 30:1 84:1 88:1 107:1 110:2 132:1 189:1 252:1 263:1 315:1 549:1 873:1 2735:1 
1 1 1 1 1 0:2 12:1 16:1 260:1 2697:1 2736:1 
1 1 1 1 1 0:2 11:1 62:1 71:1 156:1 172:1 263:1 961:1 1428:1 
1 0.9533896275461576 1 1 1 0:2 5:4 8:1 11:4 12:2 20:1 33:3 62:3 63:1 66:2 71:3 75:1 81:1 84:2 85:1 86:1 88:2 93:1 100:3 107:2 115:2 125:2 126:1 139:1 164:1 175:1 189:1 276:1 418:1 458:1 549:1 921:1 946:1 1082:1 1265:1 2088:1 2489:1 2569:1 2737:1 2738:1 2739:1 
1 0.9344099915290049 0 1 0 0:2 5:3 8:1 12:1 16:3 20:1 30:1 33:2 41:1 49:1 60:1 62:1 66:1 71:1 77:2 79:1 84:2 85:1 88:2 106:1 108:1 139:1 173:2 187:2 189:1 200:1 240:1 307:1 460:1 549:1 729:1 786:1 2084:2 2531:1 2740:1 2741:1 2742:1 
1 0.7763117428896819 1 1 0 0:2 5:2 16:1 30:1 51:1 84:1 142:1 144:1 189:1 237:1 445:1 447:1 529:1 549:1 751:1 1625:1 2105:1 2489:1 
1 0.7287682652992515 0 1 0 0:2 5:3 8:1 11:2 12:3 16:1 20:1 54:1 62:1 71:3 73:3 75:1 80:1 88:1 144:2 171:1 183:1 188:1 189:1 231:1 237:1 290:1 389:1 420:1 484:1 533:1 549:1 573:1 647:1 919:1 1151:1 1192:1 2079:1 2084:1 2087:1 2208:1 2489:1 2569:1 2743:1 2744:1 2745:1 
1 1 1 1 1 0:2 46:1 62:1 88:1 103:1 231:1 
1 1 1 1 1 0:2 11:1 12:2 16:1 18:1 35:1 43:1 89:1 112:1 346:1 871:1 
1 1 1 1 1 0:2 11:2 12:1 16:1 18:2 20:1 30:1 35:1 43:1 80:1 89:1 164:1 259:1 346:1 379:1 1406:1 2489:1 2746:1 
1 0.06007948402813371 0 1 0 0:2 11:4 12:2 18:3 20:2 27:1 30:2 33:1 35:1 43:1 54:5 66:1 77:1 88:1 100:1 112:1 142:1 144:2 161:1 187:1 189:2 231:2 305:1 314:1 328:1 421:1 483:1 549:1 561:1 580:1 751:1 1330:1 2006:1 2489:2 2747:1 2748:1 
1 0 1 1 0 0:2 5:2 11:3 12:1 16:2 18:3 20:1 30:1 33:1 49:1 54:2 80:1 109:1 110:1 187:1 240:1 263:1 385:1 451:1 575:1 603:1 871:1 923:2 2084:2 2489:1 2569:1 2749:1 
1 1 1 1 1 0:2 12:1 18:1 51:1 694:1 710:1 888:1 1750:1 2750:1 
1 0 1 1 1 0:2 5:1 12:1 20:1 33:1 44:1 51:1 124:1 209:1 307:1 315:1 633:1 710:1 2087:1 2751:1 
1 1 1 1 0 0:2 8:1 11:1 12:3 18:1 20:2 27:1 30:1 41:1 62:1 66:1 71:1 72:1 83:1 107:1 158:1 263:2 307:1 315:1 339:1 389:1 491:1 529:1 710:1 734:1 2752:1 
1 0.4400070593785119 1 1 1 0:2 5:1 11:1 12:2 16:2 18:1 20:2 51:1 62:1 66:1 77:1 79:1 80:1 237:1 252:1 301:1 320:1 481:1 529:1 1086:1 1089:1 1090:1 1092:1 1370:1 1406:1 2489:1 
1 1 1 1 0 0:2 5:1 8:1 12:2 18:2 20:1 30:1 33:2 43:1 62:2 69:1 70:1 72:1 100:1 107:1 112:1 144:1 156:1 263:1 296:1 367:1 529:1 531:1 700:1 837:1 935:1 2073:1 2735:1 2753:1 2754:1 2755:1 2756:1 
1 1 1 1 0 0:2 5:1 11:2 12:2 20:2 33:1 51:1 62:1 71:2 75:1 84:1 88:1 107:1 125:1 126:1 133:1 164:1 187:1 189:1 198:1 199:1 211:1 254:1 301:1 529:1 531:1 738:1 1078:1 1104:1 2088:1 2231:1 2757:1 
1 1 1 1 1 0:2 12:1 187:1 873:1 2084:1 2758:1 
1 1 1 1 0.7369858650785585 0:2 5:1 11:2 12:2 20:2 33:1 51:1 62:1 71:2 75:1 84:1 88:1 107:1 125:1 126:1 133:1 164:1 187:1 189:1 198:1 199:1 211:1 254:1 301:1 529:1 531:1 738:1 1078:1 1104:1 2088:1 2231:1 2757:1 
1 1 1 1 1 0:2 12:1 187:1 1192:1 2084:1 2759:1 
1 0.1962257918837982 1 1 0.1079882273974853 0:2 11:2 12:2 18:1 27:2 30:2 33:1 35:1 54:2 100:1 107:1 109:1 144:1 156:1 158:1 164:1 263:1 286:1 291:1 337:1 339:1 353:1 418:1 461:1 549:1 625:1 881:1 1400:1 1595:1 2200:1 2532:1 2760:1 
1 0.4019816558612768 1 1 0 0:2 12:1 51:1 54:1 62:1 66:1 83:1 88:1 144:1 171:1 178:1 189:1 231:1 291:1 336:1 484:1 738:1 767:1 1192:1 2489:1 2761:1 
1 0 0 1 0.7625315244410095 0:2 5:2 8:1 11:2 12:3 16:1 18:1 20:1 21:1 27:1 28:1 33:2 44:1 46:1 47:1 49:1 51:1 62:1 66:1 69:1 75:1 83:1 84:3 107:1 116:1 183:1 189:1 206:1 214:1 263:1 267:1 292:1 307:1 334:1 484:1 529:1 549:1 576:1 837:1 911:1 1119:1 1283:1 1479:1 2124:1 2762:1 2763:1 2764:1 2765:1 2766:1 2767:1 2768:1 
1 1 1 1 0 0:2 12:1 20:1 51:1 110:1 263:1 529:1 710:1 888:1 1750:1 2750:1 
1 1 1 1 1 0:2 5:1 16:1 27:1 60:1 110:1 174:1 633:1 
1 1 1 1 0 0:2 5:2 11:2 12:3 16:1 18:1 20:2 30:1 33:1 43:1 62:1 71:1 75:1 84:2 107:1 119:1 139:1 144:1 189:1 259:2 291:1 402:1 447:1 597:1 728:1 1055:1 2123:1 2597:1 2769:1 2770:1 
1 1 1 1 1 0:2 5:1 11:1 12:1 16:1 20:1 27:1 71:1 77:1 84:1 88:1 100:1 139:1 263:1 315:1 677:1 975:1 2009:1 
1 1 1 1 0 0:2 5:2 8:1 12:1 16:1 18:1 33:2 51:1 60:1 62:1 69:1 84:1 88:1 110:3 156:1 171:1 232:1 254:1 292:1 307:1 476:1 837:1 976:1 1126:1 1159:1 1977:1 2156:1 2187:1 2607:1 2771:1 
1 1 1 1 1 0:2 633:1 
-0 0 0.1892953941690971 0 0 0:2 110:1 743:1 
-1 0.7972311536087779 0 1 0 0:2 11:1 12:1 16:2 84:1 88:1 105:1 110:1 187:1 418:1 563:1 
-1 0 0 1 0 0:2 11:1 54:1 78:1 144:1 
-1 0 1 1 0 0:2 11:2 12:1 54:2 71:1 74:1 105:1 107:1 196:1 209:1 210:1 263:1 457:1 529:1 594:1 737:1 
-0 0 0.1661190535333727 1 0 0:2 12:1 1315:1 1972:1 
-1 1 1 1 0 0:2 54:1 62:1 1973:1 
-0 1 1 1 1 0:2 199:1 1116:1 
-0 1 1 1 1 0:2 1974:1 1975:1 1976:1 
-1 1 0.1948373025747617 1 1 0:2 5:1 16:1 18:1 20:1 30:1 33:2 307:1 315:1 894:1 1148:1 1977:1 1978:1 1979:1 1980:1 1981:1 1982:1 1983:1 
-1 1 1 1 1 0:2 5:1 16:1 26:1 27:1 57:1 62:1 73:1 84:1 228:1 1984:1 1985:1 1986:1 1987:1 
-1 1 0 1 1 0:2 16:1 27:1 44:1 51:1 84:2 183:1 697:1 856:1 1988:1 1989:1 1990:1 
-1 1 1 1 1 0:2 11:1 54:1 75:1 144:1 
-0 1 0.8888459981842611 1 1 0:2 615:1 791:1 
-1 0.2066265032080971 0 0.8086169347776775 0 0:2 12:1 54:1 144:1 334:1 529:1 1991:1 
-1 0 1 0.5498040689386514 0.211996378918415 0:2 54:1 88:1 440:1 461:1 948:1 1992:1 
-1 0 1 1 1 0:2 11:1 12:1 16:1 88:1 199:1 418:1 
-0.337514630297553 0 0 1 0 0:2 12:2 461:1 556:1 633:1 
-0 0.138776734792498 0.2572606924458543 1 0.439195186370163 0:2 293:1 812:1 1251:1 1993:1 
-0 0 0 1 0 0:2 812:1 852:1 1994:1 
-1 1 0 0 0 0:2 54:2 75:1 88:1 110:1 144:1 440:1 492:1 529:1 948:1 
-0.8194906225257627 0 0.4487472696286188 1 1 0:2 5:1 27:3 41:1 51:1 132:1 196:1 237:1 328:1 651:1 1979:1 1995:1 1996:1 
-1 0.601974561020873 1 0 0.1935660801594959 0:2 5:2 18:1 60:1 100:1 107:1 110:1 212:1 353:1 628:1 854:2 857:1 1148:1 1979:1 1997:1 
-1 1 1 1 1 0:2 12:1 30:1 62:1 174:1 1973:1 1998:1 1999:1 
-0 0 0.1649898701755462 0 0 0:2 18:1 28:1 69:2 110:5 735:1 1983:1 
-1 1 0 1 0 0:2 20:1 51:1 84:1 189:1 301:1 651:1 
-0 0 0 1 0 0:2 12:1 66:1 110:1 578:1 590:1 
-0 0 1 0 0 0:2 18:1 30:1 31:1 107:1 110:4 112:1 291:1 445:1 556:1 638:1 2000:1 
-1 1 0 1 0 0:2 12:1 75:1 84:1 144:1 189:1 556:1 
-1 1 1 1 0 0:2 12:1 31:1 32:1 53:1 62:1 66:1 110:1 156:1 578:1 2001:1 
-1 1 0 0 0 0:2 5:1 54:1 75:1 84:1 144:1 189:1 461:1 633:1 837:1 
-0 0 0 1 0 0:2 11:1 12:3 18:1 73:1 110:1 112:1 280:1 496:1 545:1 590:1 1170:1 2002:1 
-1 0 0.8107046058309029 0 0 0:2 1:1 47:1 54:1 110:1 556:1 
-1 0.6183197031848889 0 1 0 0:2 12:1 16:1 20:1 51:1 66:1 84:1 110:2 112:1 208:1 564:1 578:1 2001:1 
-1 0 1 0 0 0:2 5:2 12:2 18:1 41:1 51:2 60:1 85:1 110:3 112:1 144:1 171:1 199:1 280:1 291:1 485:1 568:1 590:1 854:1 2003:1 2004:1 
-1 0 1 0.2355523507477623 0.06597323089969191 0:2 5:3 11:1 12:3 16:2 21:1 27:1 62:1 66:1 68:1 70:1 72:1 84:2 100:2 107:1 110:4 144:1 461:1 578:1 623:1 746:1 2005:1 2006:1 2007:1 
-1 1 1 1 0.5383115630100475 0:2 5:1 16:2 78:1 84:1 88:1 144:1 158:1 286:1 
-0 0 0.4590438878809966 0 0 0:2 110:1 461:1 
-1 0.4329619748341409 1 0 1 0:2 16:1 51:1 88:1 110:1 158:1 693:1 
-1 1 1 1 0.5909055461463538 0:2 33:1 62:1 75:1 84:1 110:1 144:1 189:1 266:1 633:1 837:1 2008:1 
-1 0 0.5699801631572338 0 0 0:2 5:1 33:1 107:1 580:1 743:1 961:1 998:1 1033:1 1999:1 
-1 1 0.1144491724143119 1 0 0:2 5:1 12:1 20:1 23:1 27:1 30:1 77:1 84:1 88:1 110:1 139:1 144:1 187:1 189:1 301:1 568:1 606:1 837:1 1406:1 2009:1 2010:1 
-1 0 0 0 0 0:2 100:1 107:1 164:1 529:1 2011:1 
-1 1 1 1 1 0:2 5:1 11:1 16:1 54:1 60:1 894:1 1272:1 2012:1 
-0 1 1 1 1 0:2 2013:1 
-1 1 0 0 0 0:2 11:1 54:2 144:1 198:2 
-1 0 1 1 0 0:2 11:1 33:1 54:2 110:1 148:1 198:1 340:1 459:1 
-0.5455542136909504 0 0 1 1 0:2 11:1 54:1 144:1 459:1 
-1 0 0 1 0 0:2 8:1 12:3 49:1 73:1 84:1 237:1 292:1 2014:1 
-0 0 0 1 0 0:2 8:1 12:2 16:1 27:1 84:1 88:1 89:1 651:1 743:1 2015:1 
-1 1 0 1 0 0:2 5:1 12:2 18:2 20:2 27:1 49:1 53:1 71:1 84:1 107:1 189:1 237:1 292:1 456:1 919:1 2016:1 2017:1 
-0.9570881949430816 0 1 0.6933859971555165 0 0:2 5:1 12:1 49:1 88:2 110:1 292:1 328:1 456:1 693:2 837:1 
-1 1 1 1 1 0:2 5:1 12:1 16:1 18:1 30:1 84:1 208:1 468:1 471:1 568:1 2018:1 2019:1 
-1 1 1 1 1 0:2 5:1 69:1 148:1 263:1 301:1 529:1 
-1 1 1 1 1 0:2 54:1 62:1 174:1 
-1 1 0.6407382485071819 1 0.544561401397845 0:2 4:1 5:1 11:2 12:1 20:1 30:1 33:1 49:1 107:1 189:1 214:1 292:1 565:1 850:1 1165:1 1173:1 2020:1 
-0 0 1 0 0 0:2 110:1 293:1 2021:1 
-0 0 1 0 0 0:2 110:1 615:1 638:1 
-1 1 1 1 0 0:2 11:1 12:1 30:1 54:1 71:1 84:1 107:1 459:1 2016:1 
-1 1 1 1 1 0:2 8:1 11:1 18:1 33:1 710:1 865:1 909:1 2023:1 
-1 1 1 1 0 0:2 33:1 43:1 62:1 84:1 88:1 189:1 669:1 2024:1 
-1 0 0 0 0 0:2 4:1 5:1 47:1 206:1 2027:1 2028:1 
-0 0 1 1 0 0:2 12:1 2029:1 2030:1 
-1 1 1 1 1 0:2 11:1 12:1 28:1 62:1 517:1 590:1 
-1 0.6764306992270755 0 0 1 0:2 54:1 173:1 
-0 0 0 1 0 0:2 12:1 871:1 1973:1 
-1 0.7396991340775234 0 1 0 0:2 5:1 12:2 16:1 18:1 27:2 54:1 84:1 100:1 115:1 124:1 125:1 187:1 200:1 214:1 253:1 274:1 305:1 599:1 1079:1 2032:2 
-1 0 0 1 0 0:2 12:1 30:1 33:1 47:1 54:1 200:1 307:1 477:1 710:1 1973:1 2033:1 
-1 1 1 1 1 0:2 12:1 16:1 30:1 183:1 1374:1 1973:1 
-1 0 0.4027282523809406 1 1 0:2 4:1 12:1 18:1 47:1 62:1 66:1 148:1 189:1 191:1 206:1 418:1 529:1 575:1 1374:1 
-0 0 1 0 0 0:2 110:1 615:1 652:1 
-0 0.3368551595953028 0.4693288193606704 1 0.6177101270278555 0:2 812:1 852:1 1994:1 
-1 1 1 1 1 0:2 26:1 75:1 
-1 0.3365741045757701 0.8212874060066681 1 0 0:2 12:1 16:1 26:1 27:2 84:1 139:1 196:1 484:1 850:1 1391:1 2034:1 
-0.1234489639191229 0 1 0 0 0:2 12:1 54:1 62:1 110:3 112:1 174:1 291:1 461:1 590:1 
-1 1 0 1 0 0:2 20:1 33:1 84:1 110:1 137:1 156:1 189:1 296:1 837:1 2035:1 
-0 0 1 0 0 0:2 110:1 2001:1 
-1 1 1 1 0.2144122217908294 0:2 12:1 16:1 28:1 44:1 47:1 50:1 54:1 62:1 84:1 206:1 221:1 856:1 2036:1 
-0 0 1 1 0 0:2 9:1 12:1 66:1 110:1 556:1 562:1 578:1 1315:1 
-0 1 1 1 0 0:2 137:1 
-0 1 1 1 1 0:2 620:1 
-1 1 0 1 0 0:2 5:1 54:1 62:1 284:1 1978:1 2037:1 
-1 0 0 0 0 0:2 54:1 75:1 110:1 144:1 461:1 529:1 
-0 0 1 1 0 0:2 62:1 107:1 110:1 
-0 0 0 1 0 0:2 633:1 
-1 0.6947165380928879 1 1 0.07017134445436223 0:2 2:2 3:1 5:1 8:1 11:1 18:1 20:1 33:1 54:1 62:1 71:1 110:2 125:1 126:1 274:1 291:1 307:1 459:1 1079:1 1978:1 
-0 0 1 0 0 0:2 110:1 556:1 
-0 0 0 0 1 0:2 66:1 110:1 578:1 
-0 0 1 0 0 0:2 110:1 2001:1 
-1 0 1 0 0 0:2 5:1 54:1 62:1 66:1 107:1 110:1 461:1 578:1 
-0 0 0.2877440831578679 1 1 0:2 12:2 18:2 66:2 83:1 139:1 209:1 383:1 420:1 2038:1 2039:1 2040:1 
-0 0.3424018565444845 0 0 0.09163031401727059 0:2 54:1 461:1 615:1 800:1 
-0 1 1 1 1 0:2 22:1 
-1 1 1 1 0 0:2 43:1 49:1 54:1 62:1 
-0 0.2302820022457639 0.877605318961339 1 0.8415940423863422 0:2 199:1 812:1 2041:1 
-0 1 1 1 1 0:2 620:1 
-0 1 0 0 0 0:2 4:1 11:1 66:1 110:2 189:1 529:1 574:1 1197:1 
-1 1 1 1 0 0:2 156:1 189:1 206:1 488:1 812:1 
-0 0 1 0 0 0:2 110:1 2021:1 
-0 1 1 1 0 0:2 137:1 
-0 1 1 1 1 0:2 60:1 96:1 580:1 2042:1 2043:1 
-0 0 0 1 0 0:2 633:1 
-1 0 1 1 1 0:2 12:2 18:1 25:1 33:2 62:2 88:1 107:1 120:1 211:1 353:1 451:1 484:1 599:1 1079:1 1265:1 2044:1 
-1 0 1 1 1 0:2 11:2 12:2 27:1 33:1 47:1 62:1 190:1 206:1 209:1 469:1 839:1 1483:1 2025:1 2045:1 
-1 0 1 1 0.4635125552238158 0:2 8:1 11:2 12:3 18:2 20:1 33:2 62:1 66:1 77:1 105:1 107:1 198:1 200:1 209:1 215:1 307:1 383:1 500:1 529:1 574:1 890:1 2005:1 2046:1 2047:1 2048:1 
-1 0 1 1 1 0:2 12:2 20:1 51:1 295:1 512:1 556:1 2049:1 
-1 1 0 1 0.681439495161658 0:2 20:1 84:1 171:1 173:1 189:1 295:1 
-1 1 0 0 0 0:2 83:1 110:1 189:1 812:1 
-1 1 1 1 0 0:2 4:1 8:1 20:1 47:1 54:1 62:1 71:1 189:1 206:1 274:1 529:1 1079:1 
-0 0.4406950715394282 0 1 0 0:2 12:2 18:1 41:1 158:1 171:1 187:1 291:1 353:1 590:1 1422:1 2050:1 
-1 0.7596762581596538 0 1 0 0:2 11:1 54:1 77:1 89:1 187:1 1272:1 2012:1 
-1 1 0 1 1 0:2 16:1 51:1 84:1 88:1 89:1 144:1 171:1 189:1 763:1 974:1 
-1 1 0 1 0 0:2 11:1 139:1 144:2 171:1 187:1 353:1 447:1 523:1 529:1 651:1 
-1 1 0 0 0 0:2 5:2 11:1 18:1 41:1 75:1 110:3 144:2 171:1 189:1 418:1 529:1 590:1 633:1 
-1 0 1 1 0 0:2 8:1 11:1 12:1 88:1 100:1 107:1 187:1 263:1 2051:1 2052:1 2053:1 
-1 1 0 1 0 0:2 12:1 18:1 26:1 27:1 33:3 43:1 47:1 77:1 84:1 139:1 144:2 189:1 200:1 206:1 254:1 280:1 677:1 837:1 1269:1 1406:1 2004:1 2025:1 
-1 1 1 1 0 0:2 8:1 11:1 12:1 20:1 54:1 124:1 633:1 
-1 0.9678048252510478 0 0 0 0:2 5:1 110:1 315:1 529:1 812:1 894:1 913:1 1116:1 
-0 1 1 1 1 0:2 2054:1 
-0 0 0 1 0 0:2 12:1 633:1 2022:1 
-1 1 1 1 1 0:2 11:1 30:1 62:1 144:2 372:1 529:1 632:1 1212:1 1973:1 2055:1 
-1 1 1 1 1 0:2 11:1 16:1 20:1 27:1 30:1 44:1 51:1 54:1 85:1 88:1 110:1 291:1 301:1 606:1 2056:1 2057:1 2058:1 
-1 1 1 1 1 0:2 11:1 33:1 54:1 71:1 115:1 606:1 1097:1 1350:1 
-0 0 0 1 0 0:2 633:1 
-1 0.3324971566910295 0 1 0 0:2 11:1 12:1 20:1 54:2 295:1 433:1 1272:1 2012:1 2059:1 
-1 1 0.5456555461852489 0 0 0:2 110:2 263:1 529:1 2060:1 
-0 0 1 1 0 0:2 33:1 105:1 110:1 286:1 435:1 632:1 
-1 0 1 1 0 0:2 12:1 18:1 33:1 44:1 47:1 52:1 71:1 107:1 206:1 451:1 896:1 
-1 1 1 1 1 0:2 18:1 20:1 2061:1 2062:1 
-1 0 0 1 1 0:2 4:1 12:1 18:1 20:1 33:1 66:1 107:1 189:1 420:1 523:1 628:1 837:1 1079:1 2035:1 
-0 0.004839991103618019 1 1 1 0:2 620:1 
-1 0 1 1 1 0:2 8:1 12:2 27:1 30:1 33:1 47:1 62:1 75:1 110:1 187:1 200:1 206:1 209:1 214:1 291:1 2063:1 2064:1 2065:1 2066:1 
-1 0 0 0.5861350812949813 0 0:2 12:2 18:1 33:1 41:1 43:1 44:1 100:1 107:1 144:1 187:1 196:1 263:1 484:2 1149:1 1450:1 2056:1 2067:1 2068:1 
-0 0 1 1 0.9453981413340597 0:2 11:2 12:1 18:2 33:1 88:1 94:1 99:1 100:1 152:1 198:1 230:1 423:1 468:1 682:1 814:1 1258:1 1750:1 2002:1 2046:1 
-1 1 1 1 1 0:2 4:1 20:1 30:2 77:1 83:1 189:1 231:1 295:1 458:1 
-0.1934717077627873 0.6462322424628325 0.372953016588051 1 0.1336721140699637 0:2 11:1 12:2 18:3 33:1 47:1 66:1 71:1 73:1 190:1 198:1 206:1 209:1 470:1 529:1 575:1 595:1 884:1 1997:1 
-0 0.6636766484573211 1 1 0.2443612664847115 0:2 12:1 18:1 30:1 33:1 88:1 89:1 100:1 107:1 187:1 196:1 214:1 216:1 305:1 314:1 1163:1 
-1 1 1 1 1 0:2 11:1 20:1 27:1 62:1 89:1 100:1 112:1 263:1 596:1 2069:1 
-1 0 0.2170652497158733 1 0 0:2 4:1 12:1 33:1 62:1 107:1 125:1 126:1 189:1 200:1 204:1 280:1 751:1 1079:1 1269:1 2070:1 
-1 1 1 1 0 0:2 11:2 12:3 18:2 27:1 30:1 33:1 44:1 63:1 71:1 77:1 84:1 100:1 105:1 189:1 198:1 200:1 237:1 529:1 534:1 606:1 1139:1 2046:1 2047:1 2071:1 2072:1 2073:1 
-1 0 0 1 0 0:2 4:1 12:3 33:1 47:1 73:2 107:1 189:1 206:1 209:1 538:1 717:1 2074:1 
-1 1 1 1 1 0:2 4:1 47:1 62:1 88:1 171:1 206:1 315:1 594:1 749:1 
-0 0 0 0 0.6325950094143113 0:2 47:1 206:1 
-0 0 1 0 0 0:2 110:2 112:1 2075:1 
-1 0 0.8100142944304556 1 0 0:2 12:1 54:1 2076:1 2077:1 
-0 0 0.07976046364953158 1 0 0:2 12:1 27:1 33:1 54:1 107:1 125:1 126:1 2077:1 
-1 1 1 1 1 0:2 62:1 110:1 616:1 
-0 0 1 0 0 0:2 110:2 151:1 418:1 
-0 1 1 1 0 0:2 137:1 
-0 0 1 1 0 0:2 12:1 83:1 110:1 633:1 
-1 0.6228094076641708 1 1 0.495954846655945 0:2 5:1 11:1 12:1 567:1 2028:2 2037:1 
-0 1 1 1 1 0:2 11:1 12:1 30:1 66:1 73:1 110:1 534:1 1629:1 1972:1 2028:1 2078:1 
-1 1 0 1 0 0:2 20:1 26:1 33:1 51:1 81:1 84:1 110:1 263:1 313:1 529:1 710:1 1631:1 
-0 0 0 1 0 0:2 12:1 15:1 18:1 66:1 88:1 97:1 100:2 127:1 144:1 208:1 376:1 580:1 1977:1 1978:1 2079:1 
-1 0.8592632401997964 1 1 1 0:2 11:1 12:1 23:1 26:1 33:1 43:1 88:1 148:1 572:1 886:1 1154:1 1173:1 
-0 0 1 0 0 0:2 12:1 83:1 110:2 633:1 
-1 1 0 1 0.7891629374801832 0:2 16:1 25:1 30:1 51:1 73:1 84:1 110:1 187:1 580:1 593:1 2080:1 2081:1 2082:1 2083:1 
-1 0.5839146720505739 1 1 0.1758671314201749 0:2 11:1 12:2 20:1 27:1 30:1 41:1 80:1 139:1 288:1 307:1 574:1 740:1 751:1 1739:1 2084:1 2085:1 2086:1 
-1 1 0 1 0 0:2 16:1 84:1 110:1 458:1 1374:1 1999:1 
-0 0 0 1 1 0:2 12:1 51:1 461:1 624:1 625:1 629:1 
-0 0 0 0 0.3816707844617123 0:2 51:1 110:1 629:1 
-0 0 0.7506874572744315 0 0 0:2 5:1 12:1 22:2 27:1 107:1 110:2 292:1 830:1 
-0 0 1 0 0 0:2 53:1 110:1 
-0 0 0 1 0 0:2 2:1 3:1 11:1 18:1 30:1 33:1 58:1 89:1 107:1 199:1 200:1 259:1 441:1 738:1 1978:1 
-1 0 0 1 0 0:2 2:2 3:1 11:1 12:1 16:1 23:1 27:1 47:1 51:1 62:2 66:1 84:1 110:1 156:1 187:1 206:1 415:1 485:1 1446:1 1978:1 2087:1 
-1 1 1 1 1 0:2 11:1 18:1 20:1 26:1 30:1 33:1 54:1 100:1 110:1 127:1 263:1 267:1 425:1 460:1 688:1 898:1 2088:1 
-1 1 1 0 0 0:2 43:1 54:1 110:1 263:1 476:1 
-1 0 0 1 0 0:2 11:1 12:1 94:1 144:2 291:2 529:1 1258:1 2026:1 
-0.1626248389481001 1 0.3356175146822216 1 0 0:2 11:1 12:1 30:1 47:1 54:1 84:1 88:1 89:1 100:1 110:1 198:1 206:1 250:1 310:1 
-0 0 1 0 0.5601871580979417 0:2 16:1 110:1 743:1 
-0.410185374725941 0 0.2921157557478549 1 0 0:2 11:2 12:2 16:1 18:2 20:1 27:1 33:2 43:1 85:1 88:1 100:1 110:1 144:1 190:1 198:1 257:1 418:1 575:1 580:1 623:1 688:1 749:1 1258:1 2089:1 2090:1 2091:1 
-1 0 1 1 1 0:2 62:1 73:1 107:1 129:1 
-1 0.1853200861508448 1 1 1 0:2 5:1 11:1 12:1 33:1 47:1 86:1 88:1 89:1 206:1 258:1 488:1 
-0 0 0.1036135080748415 1 0 0:2 2:2 3:2 8:1 11:1 12:3 18:1 20:1 62:1 86:1 88:2 89:2 107:1 127:1 203:1 237:2 258:2 456:1 488:2 919:2 1082:1 1978:2 
-1 1 1 1 1 0:2 11:1 20:1 33:1 47:1 62:1 66:1 144:1 206:1 307:1 445:1 529:1 710:1 2093:1 
-1 1 1 1 0.1860586129046138 0:2 5:1 62:1 110:1 134:1 189:1 549:1 556:1 650:1 756:1 812:1 1977:1 2094:1 
-1 1 1 1 1 0:2 11:1 43:1 66:1 106:1 291:1 314:1 433:1 2095:1 
-1 1 1 1 0.8369593512383436 0:2 8:2 11:2 12:2 18:1 20:2 54:2 66:1 83:1 124:1 340:1 570:1 710:1 871:1 2096:1 
-1 0 1 0 0.2108938453412342 0:2 83:1 110:2 124:1 174:1 178:1 187:1 1327:1 
-0 0 0 1 0 0:2 2:1 3:1 11:1 12:1 33:1 84:1 88:1 110:1 200:1 537:1 651:1 693:1 1978:1 2001:1 2098:1 2099:1 2100:1 
-1 0 1 1 0 0:2 53:1 62:1 77:1 110:1 488:1 651:2 
-1 1 0.4261389528469558 1 0 0:2 12:3 16:2 33:1 54:1 84:1 148:1 189:1 237:1 310:1 433:1 471:1 488:1 585:1 623:1 1186:1 2007:1 
-1 1 1 1 0.3820353021054606 0:2 18:1 53:1 488:2 2101:1 
-0 0 1 0 0 0:2 12:1 110:2 124:2 570:1 592:2 1327:2 
-0 0 0.169764184689847 0 0 0:2 12:1 69:2 105:1 110:2 301:1 
-1 0 1 0 0 0:2 12:1 18:1 53:1 110:1 198:1 301:1 456:1 488:1 529:1 556:1 590:1 2102:1 
-1 1 0 0 0 0:2 11:1 110:1 144:2 174:1 187:1 529:1 2103:1 
-1 1 0 1 0 0:2 12:3 20:2 27:1 30:2 44:1 84:1 107:1 110:1 189:1 301:1 423:1 710:1 2104:1 2105:1 2106:1 2107:1 
-1 1 1 0 0 0:2 54:1 488:1 
-1 1 1 1 0 0:2 11:1 12:1 54:1 62:2 88:1 156:1 284:1 577:1 1978:1 
-1 1 1 1 1 0:2 11:1 54:1 88:1 484:1 975:1 2079:1 
-1 1 0 1 0 0:2 11:1 30:1 54:2 109:1 136:1 189:1 263:1 529:1 
-0 0 0 1 0 0:2 11:1 12:2 51:1 84:1 89:1 110:1 284:1 291:1 837:1 1284:1 1978:1 
-1 0 1 1 0 0:2 8:1 12:4 18:1 27:1 30:1 43:1 66:1 291:1 292:1 404:1 451:1 556:1 710:1 1082:1 1185:1 2093:1 2109:1 2110:1 2111:1 
-1 0 0 1 0.604275518265512 0:2 5:1 11:2 12:2 18:3 30:1 51:1 60:1 66:1 137:1 144:1 190:1 198:1 200:1 209:1 292:1 383:1 440:1 529:1 710:1 1178:1 2027:1 2112:1 2113:1 
-0 0 1 0 1 0:2 11:1 75:1 110:2 144:1 
-1 0 1 1 0 0:2 18:1 418:1 488:1 735:1 773:1 2114:1 
-0 0 0 1 0 0:2 11:2 12:5 27:1 33:1 47:1 60:1 62:1 63:1 66:2 67:1 73:1 75:1 76:1 89:1 96:1 106:1 107:1 124:1 132:1 141:1 144:1 187:1 200:1 206:1 209:1 237:1 252:1 284:1 307:1 314:1 529:1 576:1 837:1 1978:1 
-0 0 0.8965792209187038 1 1 0:2 11:1 12:1 18:1 33:1 44:1 62:1 88:1 107:1 171:1 211:1 245:1 284:1 307:1 315:1 683:1 1978:1 
-0.3546034787832041 0 0 1 0 0:2 2:1 3:1 5:2 7:1 8:3 11:2 12:1 18:2 26:1 27:1 33:2 47:1 66:1 88:1 106:1 206:1 280:1 284:1 353:1 683:1 1978:2 2042:1 2093:1 
-1 1 1 1 1 0:2 8:1 12:2 16:1 18:1 27:1 51:1 71:1 84:1 96:1 100:1 106:1 144:1 167:1 173:1 376:1 623:1 1258:1 2115:1 2116:1 2117:1 
-1 0 0 0 0 0:2 54:1 461:1 
-0 0 1 1 0 0:2 11:1 110:1 144:1 445:1 
-0 0 1 0 1 0:2 79:1 110:1 
-0 0 0 1 0 0:2 2:1 3:1 11:4 12:2 54:1 63:1 73:1 89:2 100:3 280:1 290:1 292:1 710:1 936:1 1104:1 1978:1 
-1 0 1 0 0 0:2 11:1 27:1 43:1 54:1 110:1 144:1 212:1 576:1 
-1 1 0.0663223440311278 1 0 0:2 8:1 12:3 33:1 51:1 73:1 79:1 84:1 88:2 100:1 107:1 165:1 187:1 189:1 223:1 263:1 291:1 508:1 509:1 537:1 593:1 837:1 
-1 1 0.6266232968459671 1 1 0:2 5:1 11:1 12:1 18:2 27:1 33:2 52:1 53:1 60:1 79:1 88:1 97:2 187:1 200:1 209:1 435:2 607:1 757:1 2090:1 2118:1 
-1 1 1 1 1 0:2 11:2 12:1 16:1 18:1 20:1 51:1 62:1 84:1 110:1 152:1 237:1 593:1 629:1 651:1 
-0 0 0 1 0 0:2 633:1 
-0 0 0 0 1 0:2 54:1 461:1 624:1 625:1 
-0 0 1 1 0 0:2 62:1 107:1 110:1 
-0 1 0.5452704952909491 1 0.5313227198629703 0:2 137:1 
-1 1 1 1 1 0:2 16:1 1144:1 
-0 1 1 1 1 0:2 751:1 2119:1 
-0 0 1 0 0 0:2 110:1 418:1 
-1 0 1 0 0 0:2 284:1 488:2 1978:1 
-1 0 1 0 0 0:2 284:1 488:2 1978:1 
-1 1 1 0.551975781810801 0 0:2 5:1 11:1 12:1 27:1 54:3 79:1 88:2 171:1 173:1 328:1 331:1 445:3 580:1 871:1 1227:1 2120:1 
-1 1 0.8493191965393151 0.1506495653351583 1 0:2 5:2 7:1 11:1 12:1 16:1 18:1 88:1 105:1 187:1 461:1 624:1 625:1 735:1 888:1 
-0 0 1 0.4138649187050188 0.001816424877465375 0:2 30:1 75:1 84:1 96:1 107:1 110:2 141:1 155:1 
-0 1 0 1 0 0:2 11:1 18:1 20:1 54:1 110:1 203:1 456:1 
-0 0 1 1 0 0:2 62:1 107:1 110:1 
-1 1 1 1 1 0:2 11:2 12:1 18:1 49:1 54:1 66:1 71:1 88:1 94:1 127:1 171:1 173:1 189:1 200:1 292:1 327:1 894:1 1047:1 2122:1 
-1 1 1 1 1 0:2 8:1 12:2 18:2 33:1 66:1 71:1 88:1 128:1 144:1 156:1 171:1 200:1 230:1 291:1 292:1 294:1 300:1 301:1 529:1 818:1 884:1 2123:1 
-1 0.7415710462918258 1 1 0.7188712831793435 0:2 11:1 12:1 16:1 33:1 307:1 751:1 894:1 2093:1 2124:1 2125:1 2749:1 
-0 0 0 1 0 0:2 11:1 16:1 84:1 110:1 418:1 651:1 2126:1 
-1 1 1 1 0 0:2 12:2 16:1 20:1 33:2 54:1 62:2 71:1 84:1 88:1 125:2 126:2 144:1 171:1 173:2 189:2 190:1 231:1 284:1 291:1 292:1 307:1 314:1 1978:1 2115:1 
-1 1 1 1 1 0:2 5:1 8:1 11:1 12:2 18:1 54:1 62:2 66:2 67:2 71:1 96:1 100:1 109:1 115:1 173:1 231:1 237:1 314:1 353:1 423:1 659:1 684:1 952:1 1047:1 1153:1 2042:1 2127:1 
-0 0 0 1 0 0:2 2:1 3:1 5:1 11:1 12:1 100:2 127:1 292:1 371:1 1978:1 
-0 0 1 0 0.6539348086145491 0:2 16:1 77:1 81:1 110:2 
-0 0 1 0 0 0:2 110:1 418:1 
-0 0 0 1 1 0:2 16:1 18:1 100:1 252:1 461:1 624:1 625:1 2128:1 
-1 1 1 1 1 0:2 5:1 11:1 30:1 51:1 70:1 144:1 2129:1 
-0 1 1 1 0 0:2 12:1 17:1 18:2 41:1 73:2 89:2 100:2 252:1 707:1 1026:1 
-0.2328149433287469 1 1 1 0.3012706317580792 0:2 11:1 12:2 18:1 33:1 66:1 71:1 83:1 89:2 96:1 115:1 141:1 144:1 307:1 468:1 580:1 702:1 743:1 1017:1 2018:1 2130:1 
-1 0 0 0 0 0:2 54:1 461:1 
-1 0 1 1 0.8819570863784322 0:2 12:2 16:1 18:1 33:1 85:1 88:2 254:1 580:1 743:1 1026:1 1269:1 
-1 0 0 1 0 0:2 8:1 12:1 60:1 107:1 124:1 189:1 200:1 911:1 
-0 0 0 1 0 0:2 633:1 
-1 0 0 0 0 0:2 54:1 461:1 
-1 1 1 0 0 0:2 54:1 2131:1 
-1 1 0.8503415389194857 1 0.4042650547245237 0:2 11:1 12:1 18:1 30:1 33:1 54:1 77:1 93:1 112:1 144:1 187:1 190:1 253:1 292:1 529:1 593:1 
-1 0 0 0 0 0:2 11:1 54:1 110:1 144:1 2132:1 
-0 0 1 0 0 0:2 110:1 615:1 791:1 
-1 0.3257541399858335 1 1 0 0:2 12:1 54:1 77:1 88:1 187:1 2133:1 
-0 0 0 1 0.8900263163350217 0:2 18:1 89:1 100:1 214:1 305:1 418:1 
-1 0 0 0 0 0:2 54:1 461:1 
-1 1 0 1 0 0:2 11:1 12:1 16:2 84:1 86:1 105:1 651:1 2135:1 
-0 1 1 1 1 0:2 2137:1 
-1 1 1 1 1 0:2 8:1 12:1 66:1 88:1 237:1 2138:1 
-1 0 0 0 0 0:2 54:1 461:1 
-1 1 0 0 0 0:2 11:1 54:2 144:1 263:2 
-0 0 0 1 0.3340504856252615 0:2 18:1 53:1 735:1 
-1 0 0 0 0 0:2 54:1 578:1 
-0.1737131553526714 0 0 0 0 0:2 8:1 11:2 12:3 16:1 18:1 20:1 28:1 51:1 54:4 84:1 105:1 110:2 124:1 284:3 458:1 488:3 586:3 1978:3 2139:1 
-1 1 1 1 1 0:2 11:1 12:1 16:2 18:1 27:1 35:1 53:1 71:1 73:1 88:1 252:1 263:1 284:1 456:1 461:1 488:3 624:1 625:1 1978:1 2140:1 
-1 0 0 0 0 0:2 54:1 461:1 
-0.9178578426116055 0 0 0 0 0:2 54:1 578:1 
-0.768999207478857 0 0 0 0 0:2 11:1 16:2 84:1 110:2 418:1 563:1 743:1 
-0 0 0 1 0 0:2 2:1 3:1 11:1 18:1 20:1 54:1 62:1 110:1 496:1 1978:1 
-1 1 0.05805536639723678 1 0 0:2 11:1 18:1 20:1 54:1 203:1 295:1 445:1 923:1 
-1 1 1 1 1 0:2 11:1 54:1 62:1 71:1 89:1 105:1 115:1 445:1 461:1 624:1 625:1 743:1 
-1 1 1 1 0.3609327562710056 0:2 5:2 11:1 12:1 16:1 18:1 20:1 33:1 43:1 62:1 71:1 85:1 88:1 119:1 139:1 144:2 156:1 214:1 284:1 372:1 447:1 574:1 580:1 751:1 933:1 1978:1 2014:1 2079:1 2141:1 2142:1 
-1 1 1 1 1 0:2 11:2 12:1 33:1 54:1 62:2 88:1 284:1 892:1 1217:1 1978:1 2143:1 
-0 0 1 1 0 0:2 11:1 18:1 20:1 62:1 71:1 107:1 203:1 284:1 456:1 1978:1 
-0 0 0 1 0 0:2 11:1 12:2 20:1 27:1 30:1 100:2 106:1 107:1 125:1 126:1 171:1 200:1 284:1 291:1 295:1 310:1 1977:1 1978:2 
-1 1 1 1 1 0:2 5:1 20:1 51:1 1272:1 2012:1 2062:1 
-1 1 0 0 0 0:2 5:1 16:1 18:2 54:1 88:1 100:1 144:1 189:1 228:1 231:1 284:1 688:1 1158:1 1165:1 1750:1 1978:1 
-0.3094765090982267 0 0 0 0 0:2 18:2 53:1 54:1 60:1 144:1 529:1 1367:1 
-0 1 0 1 0.8702517488957775 0:2 5:1 11:1 18:1 33:2 88:1 280:1 284:1 307:1 749:1 1978:1 2145:1 
-0 0 0.5409561121190034 0 0 0:2 110:1 418:1 
-0 0 0 1 0 0:2 633:1 
-1 1 1 1 1 0:2 5:1 8:1 18:1 27:1 88:1 581:1 2146:1 
-1 1 1 1 0.5590283361712508 0:2 5:2 11:1 12:1 16:2 18:1 20:1 27:1 44:1 60:1 73:1 84:2 85:2 88:2 100:1 139:1 286:1 415:1 418:1 425:1 651:1 919:1 2147:1 2148:1 2149:1 
-0 0 0 1 0 0:2 11:1 12:2 16:1 18:1 20:1 27:1 33:1 79:1 88:1 100:1 190:1 200:1 264:1 284:1 574:1 575:1 729:1 952:1 1978:1 
-0 0.6685376214971102 0 0 0 0:2 54:1 578:1 
-0 0 0 1 0 0:2 30:1 33:1 62:1 96:1 107:1 110:1 124:1 141:1 187:1 209:1 254:1 284:1 529:1 1352:1 1978:1 
-0 0 1 0 0 0:2 110:1 461:1 
-0 0 1 0 0 0:2 62:1 107:1 110:2 418:1 
-0 0 1 0 0 0:2 85:1 110:2 418:1 2150:1 
-1 1 1 0 0.6551518848180738 0:2 4:1 5:5 8:1 9:1 12:1 18:1 20:1 44:1 66:1 88:1 110:2 112:1 127:1 189:1 461:1 529:1 578:1 620:2 2151:1 2152:1 2153:1 2154:1 
-0 1 1 1 0 0:2 12:1 18:1 33:1 54:1 71:2 284:1 459:1 588:1 892:1 915:1 1159:1 1800:1 1978:1 
-1 0.08214857479470453 1 1 0 0:2 11:1 12:3 18:1 20:1 30:1 33:1 54:1 62:1 78:1 107:1 110:1 125:1 126:1 128:1 144:1 187:1 252:1 433:1 871:1 1223:1 1352:1 2021:1 
-1 1 0 1 0 0:2 11:1 12:1 18:1 30:1 33:2 62:1 79:1 84:1 107:1 125:1 126:1 144:1 200:1 284:1 529:1 939:1 1078:1 1244:1 1978:1 
-0 0 0.5263263001587838 0 0 0:2 30:1 107:1 110:1 445:1 594:1 
-1 1 1 1 1 0:2 11:1 54:1 75:1 144:1 
-1 1 1 1 0 0:2 5:1 11:4 12:3 18:3 20:1 33:2 49:1 62:1 63:1 66:1 84:1 85:1 88:1 89:2 93:1 94:1 97:1 100:3 107:1 110:1 139:1 144:1 190:1 198:1 263:2 383:1 384:1 447:1 468:1 517:1 534:1 537:1 1078:1 1258:1 1335:1 1625:1 2002:1 2053:1 
-1 1 1 1 1 0:2 8:1 11:1 12:3 16:1 18:1 20:1 51:1 62:1 77:1 84:1 88:1 89:1 187:1 209:1 232:1 383:1 837:1 1260:1 2156:1 
-1 0 0.2124831716950474 0 0 0:2 5:1 11:1 12:1 27:1 33:1 54:1 79:2 88:1 89:1 100:1 107:2 110:1 144:1 196:1 461:1 529:1 537:1 624:1 625:1 
-0 0 1 1 0.2791991440257589 0:2 8:1 11:1 12:1 30:1 33:1 54:1 66:1 71:1 107:1 155:1 200:1 284:1 459:1 892:1 933:1 1978:1 2157:1 
-1 0 1 0 0 0:2 54:1 110:1 488:1 2158:1 
-0 1 1 1 1 0:2 1767:1 
-1 1 1 1 0 0:2 12:1 16:1 18:1 41:1 100:2 110:1 263:1 618:1 743:1 1619:1 
-1 0 0 0 0 0:2 54:1 461:1 
-0 0 1 1 0.6862083589728123 0:2 27:1 62:1 107:1 110:1 340:1 529:1 572:1 
-1 0 0 1 0 0:2 11:1 20:1 27:1 54:1 66:1 89:1 107:1 109:1 340:1 529:1 884:1 
-0 0 0.7272734719472154 1 0 0:2 5:1 12:1 66:1 71:1 88:1 107:1 284:1 629:1 1978:1 2155:1 
-0 0 0 1 1 0:2 51:1 629:1 
-0 1 0 1 1 0:2 137:1 
-1 1 1 1 0.7215711804504796 0:2 8:1 11:1 12:1 20:1 51:1 54:2 62:2 124:1 284:1 437:1 488:1 1978:1 
-0 0 1 0 0 0:2 110:1 461:1 
-1 0 0 1 0 0:2 16:1 51:1 84:1 110:1 286:1 
-1 1 1 0 1 0:2 5:1 12:1 16:2 51:1 110:1 286:2 586:1 
-1 0.5322123559057528 0 1 0 0:2 11:1 12:3 16:1 18:1 20:1 33:2 43:1 44:1 54:2 71:1 75:1 84:1 110:3 125:1 126:1 144:1 173:1 187:2 189:1 284:1 307:1 331:1 353:2 383:1 418:1 445:1 523:1 580:1 841:1 1255:1 1978:1 
-1 1 1 1 1 0:2 11:1 18:1 20:1 51:1 534:1 
-0 0 0 1 0 0:2 2:1 3:1 11:1 12:1 18:1 20:1 30:1 54:1 78:1 89:1 144:1 252:1 1978:1 
-1 1 1 1 1 0:2 12:2 33:3 54:1 62:1 71:1 115:1 125:1 126:1 173:1 190:1 373:1 459:1 623:1 
-0 0 1 0 0.1723201592125608 0:2 54:1 62:1 110:2 339:1 459:1 
-0.4803329344333346 0 0 0 0 0:2 11:3 33:1 54:2 107:1 110:2 144:1 187:1 190:1 235:1 459:1 572:2 738:1 1573:1 2159:1 
-1 1 0.5833139062720334 1 0.301135422728072 0:2 5:2 11:1 12:2 16:2 18:1 27:3 30:2 33:1 47:1 84:1 88:2 110:1 158:1 183:1 206:1 257:1 284:1 305:1 310:1 418:1 563:1 574:1 715:1 873:1 912:1 1978:1 2160:1 2161:1 
-1 1 1 1 0.6946030781708571 0:2 18:1 20:1 139:1 144:1 171:1 214:1 488:2 614:1 623:1 626:1 
-1 0.6748314836719406 1 1 1 0:2 5:1 11:1 12:1 73:1 88:2 89:1 252:1 459:1 537:1 1025:1 2079:1 2162:1 
-1 0 0 1 0 0:2 11:1 12:2 33:1 51:1 73:1 79:1 84:1 107:1 144:1 189:1 333:1 383:1 418:1 459:1 572:1 890:1 974:1 
-1 1 0.297337150686138 0 0 0:2 54:1 231:1 833:1 
-1 0 1 0 1 0:2 5:1 27:1 28:1 51:1 110:1 633:1 2163:1 
-1 1 0 0 0 0:2 54:1 137:1 
-1 0 1 0 0 0:2 5:2 15:1 51:1 62:1 100:1 107:1 110:1 115:1 134:1 629:1 756:1 1977:1 1978:1 2164:1 
-1 1 0 0 0 0:2 110:1 128:1 187:1 291:1 
-1 0 1 0 0 0:2 54:1 83:1 110:1 
-1 1 0 0 0 0:2 54:1 144:1 468:1 529:1 2165:1 
-1 0.222512768698381 1 1 0.5407937326429751 0:2 5:1 12:1 18:1 35:1 2037:1 2166:1 2167:1 2168:1 
-1 0 1 1 0 0:2 12:1 45:1 46:1 107:1 
-0.208345361424748 0 0 0 0 0:2 54:1 461:1 
-0 0 1 0 0 0:2 83:1 110:1 633:1 
-1 1 1 1 1 0:2 11:1 54:1 70:1 88:1 171:1 
-1 1 1 0 0 0:2 54:1 362:1 
-1 0.1012410862381125 0 0 0 0:2 8:1 11:1 33:1 54:2 88:1 144:2 173:1 284:1 301:1 529:2 1082:1 1104:1 1192:1 1978:1 
-1 1 0 1 0 0:2 8:1 12:1 84:1 263:1 315:1 529:1 2170:1 
-1 0 0.6829043731533981 0.7692728797961882 0.7816875783229593 0:2 5:2 7:1 12:2 18:3 20:1 27:1 44:1 52:1 88:1 89:1 100:1 107:1 209:1 212:1 267:1 573:1 837:1 1158:1 1367:1 1444:1 2171:1 2172:1 2173:1 
-0 0 0 1 0 0:2 12:1 336:1 586:1 1978:1 
-1 0 0 1 0 0:2 8:1 11:1 12:3 18:1 27:1 33:1 35:1 63:1 88:1 100:1 107:1 144:2 187:1 198:1 263:1 529:2 974:1 1227:1 1444:1 2174:1 
-1 1 0 0 0 0:2 110:1 187:1 632:1 
-0 1 0 1 1 0:2 209:1 
-1 1 0 1 1 0:2 11:1 75:1 144:2 529:1 
-0 0 0 1 0 0:2 633:1 
-0 0 1 1 0 0:2 62:1 110:1 137:1 336:1 445:1 1978:1 
-0 0 1 0 0 0:2 83:1 110:1 633:1 
-1 0 0 0 0 0:2 5:3 11:1 12:1 16:2 30:1 46:1 51:1 54:2 84:2 107:2 284:1 900:1 1165:1 1978:1 2175:1 
-1 0 0 0 0 0:2 5:4 7:2 11:2 12:4 16:1 18:3 20:1 33:2 54:1 84:1 89:1 93:1 105:1 189:1 231:1 237:1 284:4 301:1 331:1 376:1 458:1 488:1 735:1 841:1 871:1 892:1 1978:4 2085:1 2176:1 
-1 0 1 0 0 0:2 54:1 336:1 488:1 1978:1 
-1 0 1 0 0 0:2 18:3 33:1 107:1 284:1 315:1 488:4 572:1 735:2 1978:1 2089:1 
-0 0 1 1 1 0:2 1:1 47:1 
-1 0 0 0.3661647454724586 0 0:2 12:2 31:1 32:1 34:1 54:2 88:1 189:1 231:1 328:1 545:1 900:1 2072:1 
-1 1 0 1 0 0:2 5:1 8:1 12:1 18:1 31:1 42:1 84:1 107:1 144:1 189:1 373:1 478:1 2177:1 
-1 0 1 1 1 0:2 1:1 5:1 11:1 12:3 27:1 31:1 32:1 33:1 47:1 51:1 62:1 66:1 88:2 187:1 329:1 623:1 629:1 756:1 2072:1 2164:1 2178:1 2179:1 
-1 1 0 1 0 0:2 5:1 12:2 18:1 44:1 51:1 62:1 84:1 85:1 88:1 189:1 579:1 623:1 629:1 699:1 837:1 2180:1 2181:1 2182:1 
-1 1 0 1 0 0:2 8:1 12:1 16:1 18:1 24:1 41:1 44:1 60:1 84:1 144:1 189:1 418:1 2183:1 
-1 0 1 1 0.1500912070834638 0:2 5:1 12:1 27:1 45:1 46:2 107:1 187:1 2016:1 
-0.8471176776433331 0 0 0 0 0:2 2:1 3:1 5:1 12:1 27:1 54:1 60:2 100:1 107:1 144:1 187:2 280:1 529:1 1978:1 2016:1 
-1 1 0 0 0 0:2 5:1 12:1 16:1 27:1 54:1 60:1 66:1 67:1 88:1 89:1 156:1 187:1 263:1 415:1 418:1 529:1 854:1 2004:1 2184:1 2185:1 2186:1 
-1 1 0 0.6374207539118812 0 0:2 2:1 3:1 5:1 11:1 12:1 16:2 44:1 54:1 60:1 84:2 96:1 100:1 144:2 189:2 307:1 418:1 564:1 633:1 790:1 928:1 1406:1 1978:1 2004:1 2025:1 2187:1 
-1 1 1 1 1 0:2 20:1 30:1 51:1 365:1 710:1 1054:1 2124:1 
-1 1 1 1 0 0:2 11:1 12:1 33:1 50:1 62:1 84:1 623:1 773:1 1319:1 
-1 1 0 1 0 0:2 5:1 8:2 12:1 20:1 47:1 62:1 83:1 84:2 85:1 107:1 110:1 155:1 187:1 189:1 206:1 560:1 573:1 624:1 625:1 812:1 837:1 1126:1 1444:1 1446:1 2188:1 
-0 0.2681983792265757 0.2968531991722031 1 0.345305788631594 0:2 461:1 555:4 
-1 1 1 1 1 0:2 5:1 8:2 11:1 12:3 16:1 30:1 43:1 51:1 62:2 71:1 84:1 88:1 89:1 96:1 100:1 109:1 115:1 120:1 158:1 173:1 187:1 576:1 689:1 730:1 1055:1 1082:1 2189:1 2190:1 2191:1 
-0 1 1 1 1 0:2 12:1 18:1 51:1 171:1 614:1 896:1 
-1 1 1 1 1 0:2 5:1 11:2 12:1 16:1 44:1 62:1 71:1 84:1 88:1 107:1 139:1 199:1 223:1 280:1 315:1 362:1 363:1 457:1 558:1 
-1 0 0.5552150134362552 1 0 0:2 5:1 11:1 12:2 44:2 62:1 84:1 88:1 89:1 107:1 125:1 126:1 328:1 602:1 623:1 717:1 2072:1 
-1 0 0.1350290858225875 1 1 0:2 2:1 3:1 5:3 11:1 12:2 18:2 20:2 30:2 33:2 51:1 66:1 70:1 77:1 80:1 106:1 107:1 144:1 173:1 209:1 214:1 459:2 724:1 1149:1 1269:1 1978:1 2061:1 2069:1 
-1 1 0 1 0 0:2 5:1 12:2 18:1 20:1 33:1 67:1 74:1 75:1 84:1 125:1 126:1 187:1 189:1 280:1 307:1 2062:1 
-1 0 0 0 0.9401423599180061 0:2 2:1 3:1 5:2 27:1 51:1 1978:1 2192:1 2193:1 
-1 0 0 0 0 0:2 47:1 54:1 67:1 124:1 206:1 
-1 1 1 1 0 0:2 16:1 47:1 80:1 84:1 206:1 488:2 
-0.3081194937893783 0 0.9015356357764982 0 0 0:2 54:1 445:1 658:1 2198:1 2199:1 
-1 1 0 0 0 0:2 5:1 16:1 77:1 84:1 284:1 535:1 1978:1 2200:1 
-0.2781321242600144 0 0 0 0 0:2 11:1 16:2 84:1 105:1 110:2 563:1 743:1 
-1 0.7190021184495006 0 1 0 0:2 11:1 12:1 16:1 84:2 105:1 110:1 315:1 458:2 2196:1 2201:1 
-0 0 0.7359208613734312 0 0 0:2 110:1 633:1 
-0 0 0 1 0 0:2 12:1 51:1 84:1 100:1 107:1 315:1 572:1 2202:1 
-1 1 1 1 1 0:2 5:1 11:1 18:1 20:1 62:1 84:1 139:1 189:1 286:1 1312:1 1529:1 1576:1 2203:1 2204:1 
-0 0 1 1 0 0:2 2:1 3:1 7:1 8:1 12:2 18:1 33:2 41:1 44:1 62:1 89:1 107:1 196:1 353:1 537:1 1978:1 
-1 1 0.794982018212868 1 0 0:2 2:1 3:1 12:3 16:2 18:1 20:1 33:3 51:2 54:1 71:1 79:1 84:1 88:1 105:1 132:1 187:1 189:1 210:1 252:1 457:1 739:1 740:1 1769:1 1859:1 1978:1 2205:1 
-1 0.1658911934745098 1 1 0 0:2 11:1 12:1 18:2 33:1 54:1 71:1 88:1 107:1 116:1 144:2 203:1 316:1 456:1 461:1 529:1 624:1 625:1 626:1 683:1 873:1 
-0.5059364149725047 1 1 0 0 0:2 20:1 110:1 2062:1 
-0 0 0.4887622433696748 0 0 0:2 12:1 27:1 54:1 60:1 110:1 315:1 319:1 1032:1 
-1 0.9305417728056445 1 1 0.3894686462584201 0:2 5:1 12:5 20:2 33:2 44:1 49:1 62:2 88:1 89:2 100:2 107:1 137:2 144:1 161:1 173:1 191:1 237:1 240:1 353:1 458:1 523:1 837:1 1255:1 2206:1 2207:1 
-0 0 1 0 0 0:2 110:1 743:1 
-1 1 0 0 0.915189006946568 0:2 5:1 11:1 16:2 84:1 88:1 105:1 110:1 187:1 418:1 563:1 
-1 0.9533560603425324 0 1 0 0:2 11:1 54:1 78:1 144:1 
-1 0.1174526456104735 0.7455799271628971 1 0 0:2 11:2 12:1 54:2 71:1 74:1 105:1 107:1 196:1 209:1 210:1 263:1 457:1 529:1 594:1 737:1 
-0 1 0 0 0 0:2 110:1 189:1 
-0 0 0 1 0.7567939583131058 0:2 633:1 
-1 0.7254621625174423 0 1 0 0:2 11:2 27:1 54:1 60:1 84:1 124:1 132:1 144:2 187:1 191:1 209:1 310:1 459:1 580:1 623:1 738:1 981:1 
-1 0 1 0 0 0:2 16:1 18:1 110:1 137:1 488:1 735:1 
-0 0 1 0 0 0:2 54:1 110:1 658:1 
-0.791654638575252 0 0 1 0 0:2 11:1 54:1 237:1 314:1 353:1 2208:1 
-0 1 1 1 1 0:2 727:1 
-0 1 1 1 1 0:2 727:1 
-1 1 1 1 0.3831880701751981 0:2 5:1 11:3 12:1 18:3 20:3 33:1 110:1 214:1 315:1 380:2 488:1 623:2 735:1 2209:1 
-1 1 1 1 1 0:2 8:1 11:2 12:2 18:1 20:3 30:1 54:2 62:1 66:1 71:1 83:1 100:1 263:1 291:1 292:1 295:2 415:1 459:1 529:1 533:1 572:1 593:1 623:1 1016:1 1258:1 1856:1 2210:1 2211:1 
-0 0.6807620069346538 1 1 1 0:2 18:1 30:1 33:1 49:1 110:1 200:1 295:1 313:1 459:1 572:1 1708:1 2032:1 
-1 1 0 0 0 0:2 18:1 54:1 60:1 144:1 529:1 1636:1 
-0.2216308429803028 1 0.6470512817383471 1 0.416928645758167 0:2 11:1 18:1 20:1 30:2 54:1 110:1 174:1 252:1 336:1 362:1 363:1 1778:1 1781:1 1978:1 
-1 1 1 1 1 0:2 2:1 3:1 5:1 8:1 11:1 12:1 18:1 20:1 27:3 33:1 43:2 51:1 71:1 84:1 88:1 149:1 173:1 187:1 189:1 190:1 212:1 368:1 471:1 702:1 818:1 1197:1 1258:1 2115:1 2212:1 2213:1 
-1 1 1 1 1 0:2 11:1 30:1 54:1 351:1 1173:1 1186:1 
-1 1 0.3405357052232314 1 1 0:2 12:1 16:1 33:1 51:1 79:1 84:1 86:1 328:1 651:1 2214:1 
-0 0 1 0 0 0:2 2:1 3:1 5:1 12:2 18:2 62:1 88:1 100:1 110:2 125:1 126:1 139:1 200:1 223:1 301:1 310:1 315:1 336:1 488:1 579:1 713:1 1533:1 1978:2 
-1 1 1 1 1 0:2 33:1 54:1 1192:1 
-0 0 0 1 0 0:2 2:1 3:1 11:1 12:3 84:1 85:1 88:1 89:1 107:1 161:1 353:1 380:1 580:2 632:1 911:1 1404:1 1978:1 2105:1 
-0 0.1459855867397915 0 1 0 0:2 2:1 3:1 5:1 11:1 30:1 33:1 73:1 78:1 88:2 89:1 237:2 252:1 630:1 684:1 983:1 1269:1 1978:1 2079:1 
-1 0 0 0 0 0:2 54:1 77:1 110:1 187:1 461:1 
-0 1 1 0 0 0:2 28:1 110:1 2215:1 
-0 0 0.6229877792394352 1 0 0:2 2:1 3:1 11:1 12:1 30:1 43:1 54:1 62:1 209:1 212:1 903:1 1192:1 1196:1 1978:1 
-1 0 1 1 1 0:2 8:1 11:1 18:1 54:1 75:1 97:1 445:1 1197:1 
-1 1 1 1 0.7013339090159652 0:2 11:1 12:1 54:1 71:1 88:1 187:1 213:1 214:1 320:1 344:1 738:1 1442:1 
-0 0 1 0 0 0:2 110:1 640:1 
-1 0 1 0 0 0:2 5:1 12:1 110:1 209:3 488:1 
-1 0.5880585347670071 1 1 0.4898143001763133 0:2 12:1 33:1 34:1 66:1 70:1 71:1 88:1 107:1 456:1 
-1 0 1 0 0 0:2 11:1 27:1 107:1 144:1 328:1 488:1 651:1 
-1 1 1 0 1 0:2 5:1 33:1 73:1 100:1 107:1 593:1 900:1 1406:1 
-1 1 1 1 0.6399339509279092 0:2 5:2 8:2 11:3 12:2 18:1 33:2 44:2 63:1 71:1 72:1 73:2 84:1 88:1 89:2 107:1 237:1 487:1 496:1 529:1 650:1 746:1 900:1 1016:1 1972:1 1973:1 1997:1 2072:1 
-1 0.6595518329027602 1 1 0.6241295101259809 0:2 5:2 11:2 12:2 27:1 30:1 33:2 34:1 44:1 80:1 81:1 86:1 88:2 100:1 107:1 109:1 112:1 190:1 280:1 328:2 435:1 451:1 488:1 602:1 623:1 2006:1 2072:2 
-1 1 1 1 1 0:2 5:1 11:1 12:1 18:3 33:1 35:1 43:1 62:1 69:1 71:1 149:1 156:1 199:1 651:1 683:1 1011:1 1972:1 1973:1 2216:1 2217:1 
-1 1 1 1 1 0:2 5:1 8:1 12:3 16:1 18:1 20:1 30:1 33:1 51:1 60:1 62:1 88:2 89:1 100:2 107:1 156:1 187:1 203:1 252:1 286:1 292:1 444:1 694:1 769:1 1973:1 2218:1 
-1 0 1 0.2371569220539049 0.7278963499408554 0:2 18:2 54:2 66:1 71:1 75:1 80:1 107:1 209:1 380:1 383:1 1017:1 1159:2 
-0 0 0 1 1 0:2 633:1 
-0 0 0 1 0 0:2 12:1 561:1 1973:1 
-1 0 0 0 0 0:2 2:1 3:1 5:1 12:1 16:1 60:2 84:1 189:1 315:2 1978:1 
-1 1 1 1 1 0:2 5:2 11:2 12:2 20:2 33:1 49:1 51:1 71:1 107:1 112:1 190:1 280:1 281:1 353:1 593:1 599:1 1079:1 1136:1 1137:1 1439:1 
-1 0 0 1 0 0:2 2:1 3:1 5:2 11:1 12:4 18:2 20:1 30:1 33:2 44:1 66:1 67:1 80:1 84:1 97:1 107:1 109:1 174:1 189:1 214:2 602:1 629:2 688:1 1192:1 1258:3 1978:1 2220:1 
-1 1 1 1 0.8236440557341236 0:2 33:1 629:1 1192:1 
-1 0 0.2493267052484078 1 0 0:2 5:1 11:1 12:1 18:1 20:1 30:1 107:1 144:1 380:1 418:1 690:1 1136:1 2221:1 
-0.7876587970786362 0 1 1 0.6059693805452593 0:2 2:1 3:1 8:2 11:1 12:1 33:2 44:1 71:1 86:1 88:1 97:1 131:1 134:1 1082:1 1978:1 
-1 1 0 1 0 0:2 51:1 54:1 78:1 84:1 
-0 0 0.6569763291716604 0 0 0:2 110:2 615:1 638:1 1116:1 
-1 1 1 1 1 0:2 5:1 11:4 12:3 27:1 33:1 49:1 66:1 71:2 91:3 116:1 165:1 173:2 353:1 685:1 1600:1 1769:1 2222:1 2223:1 2224:1 
-1 1 1 1 1 0:2 27:1 60:1 100:1 209:1 263:1 1248:1 
-1 1 1 1 1 0:2 5:1 12:2 18:2 20:2 27:1 62:1 66:1 71:3 88:1 97:2 107:1 125:1 126:1 134:1 161:1 173:1 199:1 320:1 380:1 517:1 575:1 623:1 688:1 2168:1 2225:1 2226:1 
-0.7507798667064638 0 1 1 0.2477127461349178 0:2 12:2 18:2 71:1 77:1 85:1 115:1 210:1 634:2 757:1 834:1 1075:1 
-0 0 0 1 1 0:2 11:2 12:1 30:1 107:2 174:1 248:1 598:1 
-1 1 1 1 1 0:2 12:1 16:1 18:1 337:1 488:3 599:1 1703:1 
-0 1 1 1 1 0:2 707:1 
-1 1 0.8360908046378525 1 0 0:2 4:2 5:1 60:1 112:1 113:1 189:1 
-1 1 1 1 0 0:2 5:1 9:2 11:2 12:3 30:1 62:1 71:1 75:1 81:1 84:1 85:1 97:1 100:1 107:1 187:1 200:1 209:1 214:1 263:1 267:1 305:1 320:1 418:1 423:1 481:1 1095:1 2208:1 2227:1 2228:1 2229:1 
-0.6984584414182902 0 0 0 0 0:2 5:1 336:1 561:1 633:1 1978:1 
-1 0.7985403340871918 1 1 1 0:2 8:1 11:1 12:1 27:1 35:1 71:1 88:1 164:1 248:1 459:1 1082:1 1086:1 2230:1 
-1 1 1 1 0.1723715374445732 0:2 5:2 7:1 12:5 18:1 30:1 62:2 63:1 71:1 88:2 97:1 100:1 107:1 164:1 198:1 280:1 322:1 380:1 459:1 517:1 731:1 2231:1 2232:1 2233:1 
-0 0 1 1 1 0:2 11:1 60:1 315:1 
-1 1 0 1 0 0:2 12:1 16:1 60:1 84:1 189:1 315:1 
-1 1 1 1 1 0:2 5:2 11:1 12:3 16:1 18:3 30:1 33:2 41:2 44:1 60:2 62:1 84:1 93:1 100:2 107:1 116:1 189:1 198:2 315:1 418:1 459:1 469:1 478:1 2231:1 2234:1 2235:1 
-1 1 1 1 1 0:2 5:1 630:1 2037:1 
-0.6388851979059325 0 1 1 1 0:2 11:2 12:1 62:1 71:1 89:1 91:1 107:1 173:1 598:1 2223:1 2236:1 
-1 1 1 1 0 0:2 8:1 12:3 20:1 30:1 66:1 74:1 77:1 84:1 85:1 88:1 107:1 115:1 179:1 189:1 200:1 237:1 315:1 488:2 1086:1 2070:1 
-1 0.6788085703198545 1 1 0.5001829680371461 0:2 5:1 11:3 12:3 20:1 30:1 33:1 66:1 80:1 88:1 91:1 100:2 107:1 137:1 216:1 404:1 502:1 623:1 685:1 758:1 1163:1 1223:1 1600:2 1769:1 2237:1 2238:1 
-0 0 0 1 0 0:2 2:1 3:1 5:1 11:2 12:4 16:1 18:1 20:2 27:1 30:1 33:1 51:1 89:1 100:1 107:1 190:1 203:1 280:1 329:1 389:1 593:1 936:1 1978:1 2074:1 2239:1 
-1 0 1 1 0 0:2 11:1 12:2 18:1 33:2 100:1 107:1 190:1 263:1 267:1 523:1 533:1 717:1 1505:1 2240:1 2241:1 
-1 1 1 1 1 0:2 5:2 11:2 12:2 16:1 18:1 20:3 30:2 33:2 44:1 62:1 70:1 71:1 72:1 78:1 80:1 84:1 89:1 107:2 144:1 187:1 189:1 199:1 203:1 215:1 280:1 307:1 459:1 537:1 1753:1 2243:1 
-1 1 0.8045314783442239 1 1 0:2 11:2 12:1 20:1 51:1 62:1 70:1 84:1 107:1 189:1 301:1 459:1 1746:1 
-1 1 1 1 1 0:2 5:1 16:1 43:1 88:1 171:1 189:1 212:1 2244:1 
-0 0 0 1 0 0:2 12:1 16:1 66:1 84:1 97:1 100:1 107:1 481:1 607:1 623:2 
-0.3473365137078164 0 0 1 0.4150195728621588 0:2 2:1 3:1 5:1 11:3 12:2 16:1 18:2 33:2 41:2 62:1 99:1 100:2 107:2 148:2 209:2 280:1 340:1 404:1 481:1 669:1 1011:1 1978:1 2017:1 
-1 1 1 1 0 0:2 2:1 3:1 5:2 11:1 16:1 18:2 20:1 62:2 84:1 97:1 105:1 189:1 203:1 219:1 228:1 313:1 545:1 919:1 1345:1 1367:1 1978:1 2037:1 
-0 0 0.1792111865662043 1 0 0:2 8:1 11:2 12:3 18:2 33:2 89:1 100:1 107:1 199:1 200:1 216:1 240:1 258:1 280:1 892:1 1078:1 1159:1 2063:1 2176:1 
-1 1 1 1 1 0:2 5:1 12:1 16:1 83:1 423:1 630:2 2245:1 
-1 1 1 1 1 0:2 12:1 44:1 62:1 66:1 71:1 84:1 125:1 126:1 156:1 189:1 237:1 320:1 606:1 918:1 
-1 1 1 1 1 0:2 5:1 11:1 12:1 30:1 54:1 75:1 78:1 79:1 88:1 109:1 216:1 231:1 390:1 423:1 1163:1 1532:1 2246:1 
-1 0 1 1 1 0:2 5:1 12:1 33:1 34:1 51:1 66:1 71:1 88:1 107:1 623:1 629:1 2247:1 
-1 0 0.2171580139337104 1 0 0:2 2:1 3:1 5:1 12:2 28:1 44:1 51:1 62:1 66:1 77:1 84:1 97:1 100:1 139:1 756:1 894:1 1223:1 1395:1 1978:1 2123:1 2246:1 2248:1 
-1 1 1 0 0.4724639908276785 0:2 5:1 59:1 535:1 629:1 2037:1 
-0.4072861215409022 1 1 1 0 0:2 12:1 18:1 20:1 33:2 41:1 62:1 71:1 89:1 115:1 223:1 284:1 295:1 389:1 412:1 1978:1 
-0 0 1 1 0.7979503468660529 0:2 11:1 12:1 18:1 49:1 100:1 432:1 685:1 745:1 751:1 2249:1 
-1 1 0.790288031751561 1 0 0:2 12:2 18:1 30:1 62:1 77:1 83:1 88:1 171:1 189:1 209:1 284:1 307:1 707:1 911:1 1425:1 1531:1 1978:1 
-0 1 0.6717672725896088 1 0 0:2 11:1 12:4 18:1 20:3 27:1 30:1 33:1 66:1 67:1 72:1 86:1 89:2 100:2 112:1 133:1 171:1 190:1 284:1 295:1 688:1 1615:1 1978:1 2005:1 2074:1 
-0 1 1 1 1 0:2 280:1 
-0 0 0 1 1 0:2 633:1 
-0.4214818900964805 1 1 1 1 0:2 12:1 171:1 529:1 2011:1 
-0 0 1 1 1 0:2 18:1 2074:1 
-1 -1 1 1 1 0:2 11:1 12:1 17:1 18:1 20:2 30:1 44:1 58:1 110:1 187:1 206:1 541:1 580:1 767:1 768:1 769:1 770:1 771:1 772:1 
-1 -1 1 1 0 0:2 11:1 28:1 30:1 54:2 81:1 88:1 128:1 144:1 171:1 189:1 263:1 488:1 773:1 
-1 -1 1 1 1 0:2 54:1 263:1 774:1 775:1 776:1 777:1 
-1 -1 1 1 1 0:2 11:3 12:2 16:1 18:1 33:1 84:1 100:1 105:1 187:1 203:1 209:1 292:1 337:1 586:1 720:1 778:1 779:1 780:1 781:1 782:1 783:1 
-1 -1 1 1 1 0:2 784:1 785:1 786:1 
-1 -1 1 1 0.9527195763429346 0:2 12:1 54:1 60:1 83:1 96:1 189:1 231:1 787:1 788:1 789:1 790:1 
-1 -1 1 1 1 0:2 110:1 112:1 292:1 
-1 -1 1 1 1 0:2 5:1 11:1 30:1 49:1 110:2 125:1 126:1 351:1 433:1 586:1 615:1 791:1 792:1 
-1 -1 1 1 1 0:2 5:2 12:1 54:1 75:1 237:1 263:1 574:1 767:1 786:1 793:1 794:1 795:1 796:1 797:1 
-1 -1 1 1 1 0:2 11:1 54:1 109:1 187:1 798:1 799:1 
-1 -1 1 1 1 0:2 11:1 12:1 54:1 101:1 144:1 555:1 800:1 801:1 
-1 -1 1 1 0 0:2 5:1 8:1 18:1 20:1 33:1 54:2 66:1 89:1 101:1 125:1 126:1 155:1 156:1 189:1 231:1 237:1 307:1 540:1 799:1 1479:1 
-1 -1 1 1 1 0:2 5:2 11:1 12:1 51:1 62:1 66:1 88:2 100:1 171:1 802:1 803:1 804:1 805:1 806:1 807:1 808:1 
-1 -1 1 1 1 0:2 5:1 11:1 12:1 17:1 18:1 28:2 156:1 189:1 263:1 572:1 799:1 
-1 -1 1 1 1 0:2 5:1 11:1 16:1 18:2 41:1 54:1 71:1 73:1 84:1 88:2 158:1 171:1 173:1 425:1 452:1 512:1 542:1 693:1 786:1 809:1 810:1 
-1 -1 1 1 1 0:2 5:1 11:1 12:1 18:1 33:1 43:1 44:1 75:1 84:1 93:1 97:1 100:1 156:1 173:1 187:1 189:1 280:1 512:1 770:1 811:1 812:1 813:1 814:1 815:1 816:1 817:1 818:1 819:1 
-1 -1 1 1 1 0:2 11:2 12:1 18:1 116:1 124:1 156:1 799:1 820:1 821:1 822:1 823:1 824:1 
-1 -1 1 1 0 0:2 8:1 12:1 15:1 16:1 20:1 27:1 44:1 54:2 73:1 88:1 171:1 187:1 263:1 496:1 529:1 586:1 770:1 785:1 799:1 825:1 826:1 827:1 828:1 829:1 
-1 -1 1 1 1 0:2 5:1 30:2 71:2 112:1 173:2 384:1 572:1 830:1 831:2 832:1 
-1 -1 1 1 0.731227553616955 0:2 11:2 12:1 30:1 44:1 84:1 144:1 156:1 174:1 188:1 189:1 231:1 833:1 834:1 835:1 836:1 
-1 -1 1 1 1 0:2 5:1 8:1 9:1 11:1 12:1 16:1 20:2 33:1 51:1 54:1 62:1 66:2 67:1 88:1 110:1 112:1 155:1 158:1 165:1 171:1 178:1 190:1 529:1 728:1 742:1 756:1 799:1 837:1 838:1 839:1 840:2 841:1 842:1 
-1 -1 1 1 1 0:2 12:1 18:1 28:1 54:1 88:1 156:1 203:1 735:1 
-1 -1 1 1 1 0:2 11:1 12:1 21:1 27:1 84:1 156:1 187:1 189:1 316:1 777:1 843:1 844:1 845:1 846:1 847:1 
-1 -1 1 1 1 0:2 5:1 11:1 12:1 30:1 62:1 187:1 762:1 807:1 848:1 849:1 850:1 851:1 
-1 -1 1 1 0 0:2 5:1 20:1 33:1 84:1 144:1 187:1 189:1 376:1 697:1 837:1 852:1 853:1 854:1 855:1 856:1 857:1 858:1 859:1 
-1 -1 1 1 1 0:2 860:1 
-1 -1 1 1 1 0:2 775:1 860:1 
-1 -1 1 1 1 0:2 5:2 11:1 16:1 18:2 30:1 33:1 51:1 88:1 263:1 307:1 529:1 740:1 770:1 861:1 862:1 863:1 864:1 865:1 866:1 
-1 -1 1 1 1 0:2 16:1 18:1 488:1 586:1 867:1 868:1 869:1 870:1 
-1 -1 1 1 1 0:2 12:1 16:1 18:3 35:1 54:1 62:1 66:1 88:1 100:1 110:1 223:1 252:1 346:1 361:1 434:1 488:1 556:1 715:2 751:1 871:2 872:1 873:1 874:1 875:1 
-1 -1 1 1 1 0:2 16:1 84:1 739:1 
-1 -1 1 1 1 0:2 54:1 307:1 488:1 
-1 -1 1 1 1 0:2 16:1 84:1 739:1 
-1 -1 1 1 1 0:2 54:1 307:1 488:1 
-1 -1 1 1 1 0:2 54:1 137:1 
-1 -1 1 1 0.3239707512314161 0:2 8:1 20:1 69:1 110:1 263:1 307:1 488:1 876:1 877:1 
-1 -1 1 1 0.08208438902480196 0:2 5:1 11:1 12:1 30:1 69:1 71:1 75:1 144:1 187:1 452:1 529:2 799:1 878:1 879:1 880:1 881:1 882:1 883:1 
-1 -1 1 1 0 0:2 11:1 54:2 84:2 144:1 189:1 198:1 263:1 331:1 339:1 799:1 
-1 -1 1 1 0 0:2 20:1 27:1 54:1 110:1 144:1 340:1 529:2 884:1 
-1 -1 1 1 1 0:2 5:1 11:1 16:1 18:1 30:1 51:1 62:1 66:1 88:1 134:1 137:1 435:1 650:1 669:1 885:1 886:1 887:1 888:1 889:1 
-1 -1 1 1 1 0:2 12:1 62:1 132:1 156:1 172:1 263:1 
-1 -1 1 1 1 0:2 11:1 16:1 540:1 890:1 891:1 
-1 -1 1 1 0 0:2 5:1 12:2 16:1 18:1 54:1 84:1 112:2 113:1 115:1 124:1 156:1 187:1 284:1 596:1 762:1 767:1 837:1 892:1 893:1 894:1 895:1 896:1 
-1 -1 1 1 1 0:2 18:1 58:1 71:1 88:1 144:1 228:1 897:1 898:1 
-1 -1 1 1 0 0:2 54:1 84:1 799:1 801:1 
-1 -1 1 1 1 0:2 11:1 30:1 144:1 156:1 263:1 339:1 449:1 
-1 -1 1 1 1 0:2 54:1 899:1 900:1 
-1 -1 1 1 1 0:2 5:2 11:1 12:1 30:1 33:1 43:2 51:1 79:1 110:1 149:1 171:1 212:1 216:1 296:1 362:1 363:1 615:1 791:1 854:1 901:1 902:1 903:1 
-1 -1 1 1 1 0:2 54:1 831:1 904:1 
-1 -1 1 1 1 0:2 8:1 11:1 20:1 27:1 33:1 54:1 88:1 100:1 134:1 212:1 403:1 744:1 904:1 905:1 906:1 907:1 908:1 
-1 -1 1 1 0.7505908096069882 0:2 5:1 8:1 11:1 16:1 20:1 30:1 49:1 54:1 73:1 144:1 155:1 187:1 189:1 496:1 560:1 624:1 625:1 799:1 909:1 910:1 911:1 912:1 
-1 -1 1 1 1 0:2 5:1 11:2 18:1 33:1 69:1 71:1 89:1 177:1 212:1 267:1 318:1 390:1 452:1 586:1 789:1 876:1 913:1 914:1 915:1 
-1 -1 1 1 1 0:2 11:1 12:1 18:1 62:1 84:1 593:1 871:1 873:1 916:1 
-1 -1 1 1 0.06570686176679293 0:2 11:3 12:1 16:1 63:1 71:1 84:1 125:1 139:1 144:1 187:1 189:1 190:1 317:1 404:1 917:1 918:1 919:1 
-1 -1 1 1 1 0:2 11:2 12:1 20:1 27:1 33:2 62:1 79:1 88:1 89:1 144:1 156:1 190:1 435:1 920:1 921:1 922:1 
-1 -1 1 1 1 0:2 11:1 18:1 20:1 54:1 62:1 89:1 100:1 203:1 205:1 206:1 295:1 418:1 904:1 923:1 
-1 -1 1 1 1 0:2 5:1 20:3 27:1 30:1 33:2 71:1 79:1 88:1 109:1 115:1 125:1 165:2 171:1 246:1 259:1 770:1 924:1 925:1 926:1 927:1 928:1 
-1 -1 1 1 1 0:2 11:1 12:1 18:2 27:1 33:1 80:1 88:1 100:2 144:1 165:1 451:1 508:1 614:1 752:1 789:1 857:1 910:1 929:1 930:1 931:1 
-1 -1 1 1 0 0:2 16:1 27:1 33:1 62:1 84:1 88:1 100:1 189:1 263:1 537:1 799:1 932:1 933:1 934:1 
-1 -1 1 1 1 0:2 5:1 11:1 51:1 62:1 75:1 84:1 96:1 100:2 141:1 172:1 535:1 663:1 799:1 910:1 919:1 935:1 936:1 
-1 -1 1 1 0 0:2 5:1 11:1 12:1 16:1 18:1 30:2 33:1 54:1 60:1 79:1 84:2 100:1 125:1 126:1 156:1 187:1 189:2 314:1 501:1 756:1 832:1 937:1 938:1 939:1 940:1 941:1 942:1 
-1 -1 1 1 1 0:2 33:1 54:1 75:1 83:1 84:1 171:1 287:1 471:1 529:1 545:1 943:1 944:1 
-1 -1 1 1 1 0:2 5:1 16:1 33:1 51:1 62:1 79:1 83:1 88:2 171:1 471:1 945:1 946:1 947:1 948:1 949:1 
-1 -1 1 1 0.5985451077472601 0:2 12:1 30:1 33:1 62:1 84:1 148:1 199:2 374:1 586:1 762:1 767:1 919:1 950:2 
-1 -1 1 1 1 0:2 110:1 137:1 951:1 
-1 -1 1 1 0 0:2 5:1 11:1 16:1 62:1 84:2 171:1 189:1 233:1 257:1 799:1 952:1 953:1 954:1 955:1 956:1 
-1 -1 1 1 1 0:2 12:1 18:1 71:1 97:1 176:1 373:1 660:1 720:1 957:1 958:1 959:1 
-1 -1 1 1 0 0:2 5:1 16:1 84:1 89:1 110:1 171:1 310:1 529:1 540:1 586:1 660:1 960:1 961:1 
-1 -1 1 1 0.4701026214995911 0:2 18:1 30:1 69:1 84:1 110:1 124:1 263:1 307:1 962:1 963:1 
-1 -1 1 1 0 0:2 11:1 12:1 54:2 84:2 89:1 263:1 485:1 488:1 540:1 964:1 965:1 
-1 -1 1 1 0 0:2 54:1 66:1 84:1 110:1 144:1 263:1 
-1 -1 1 1 0 0:2 5:1 12:1 18:1 20:1 33:1 62:1 71:1 77:1 88:1 89:1 110:2 132:1 144:1 156:1 171:3 214:1 263:1 488:4 529:1 572:1 586:1 832:1 877:1 919:1 966:1 967:1 
-1 -1 1 1 1 0:2 137:1 
-1 -1 1 1 1 0:2 12:1 18:1 97:1 100:1 171:1 189:1 203:1 481:1 871:1 968:1 969:1 970:1 971:1 
-1 -1 1 1 1 0:2 5:1 30:1 66:1 109:1 128:1 144:1 649:1 972:1 973:1 
-1 -1 1 1 0.2548587828135386 0:2 8:1 11:1 12:1 20:1 33:1 54:1 73:1 89:1 105:1 156:1 214:1 710:1 770:1 799:1 933:1 974:1 975:1 
-1 -1 1 1 0.2540788674670627 0:2 5:2 8:1 11:1 12:1 20:1 27:2 33:1 44:1 49:1 51:1 62:1 71:1 73:2 84:2 88:1 89:1 100:1 115:1 158:1 165:1 187:2 189:1 245:1 246:1 372:1 383:1 486:1 537:1 702:1 770:1 832:1 975:1 976:1 977:1 978:1 
-1 -1 1 1 1 0:2 8:1 11:1 12:1 16:1 33:1 60:1 75:1 84:1 96:1 156:1 790:1 979:1 
-1 -1 1 1 1 0:2 8:1 11:2 12:3 30:1 33:1 63:2 71:1 84:1 85:1 88:2 89:1 96:1 100:1 109:1 139:1 158:1 190:1 198:1 389:1 534:1 975:1 980:1 981:1 982:1 
-1 -1 1 1 1 0:2 11:1 62:1 75:1 89:1 96:1 156:1 919:1 983:1 984:1 985:1 
-1 -1 1 1 1 0:2 28:1 33:1 93:1 128:1 814:1 986:1 
-1 -1 1 1 1 0:2 54:1 831:1 904:1 
-1 -1 1 1 1 0:2 12:1 33:1 71:1 115:1 171:1 189:1 487:1 871:1 969:1 987:1 988:1 
-1 -1 1 1 0 0:2 5:2 11:2 12:3 18:2 20:2 27:1 33:2 43:2 71:2 132:1 144:1 156:1 256:1 257:1 267:1 301:2 404:1 440:1 471:1 832:1 961:1 989:1 990:1 991:1 992:1 993:1 994:1 995:1 996:1 997:1 998:1 
-1 -1 1 1 1 0:2 11:1 12:2 20:1 30:2 33:1 62:1 71:1 77:1 179:1 237:1 301:1 412:1 792:2 989:1 999:1 1000:1 1001:1 
-1 -1 1 1 1 0:2 12:1 20:1 33:3 88:1 89:1 97:1 106:1 109:1 115:1 132:1 280:1 307:1 1002:1 1003:1 1004:1 
-1 -1 1 1 1 0:2 5:2 8:1 11:2 12:1 16:1 20:3 44:1 62:1 66:1 71:1 83:1 100:2 128:1 156:1 198:1 214:1 295:1 508:1 550:1 989:1 1003:1 1005:1 1006:1 1007:1 1008:1 1009:1 
-1 -1 1 1 0.9560296666658615 0:2 5:2 11:2 12:2 16:1 44:1 51:1 71:1 83:1 84:1 89:2 96:1 100:1 156:2 171:1 197:1 264:1 447:1 833:1 1010:1 1011:1 1012:1 1013:1 1014:1 1015:1 1016:1 1017:1 1018:1 1019:1 1020:1 
-1 -1 1 1 1 0:2 12:1 18:1 20:1 33:1 62:1 100:1 140:1 301:1 572:1 831:1 832:1 1021:1 1022:1 1023:1 1024:1 
-1 -1 1 1 1 0:2 5:1 16:1 18:1 20:3 62:1 85:1 89:1 252:1 295:2 537:1 989:1 1025:1 1026:1 
-1 -1 1 1 0.7886989771343031 0:2 12:1 20:1 43:1 66:1 71:1 81:1 84:1 89:1 139:1 379:1 447:1 
-1 -1 1 1 0.2581611428325211 0:2 12:2 18:1 20:1 27:1 33:1 60:1 71:1 73:1 84:1 89:1 96:1 144:1 187:1 189:1 198:1 209:1 252:1 376:1 531:1 593:1 648:1 813:1 818:1 1017:1 1027:1 1028:1 
-1 -1 1 1 0.203078326557908 0:2 5:2 8:1 11:2 12:3 18:2 20:4 30:1 33:1 43:1 62:1 71:1 88:1 89:1 100:2 144:1 198:2 203:2 291:1 295:3 348:1 537:1 580:1 593:1 832:1 1029:1 1030:1 1031:1 
-1 -1 1 1 0.3456956611929475 0:2 5:1 9:1 11:1 12:3 16:1 18:1 30:1 33:3 58:1 71:1 84:2 128:1 132:1 187:1 189:1 203:1 280:1 461:1 623:1 624:1 625:1 989:1 1032:1 1033:1 
-1 -1 1 1 1 0:2 11:1 12:1 18:1 20:1 27:1 33:1 43:1 62:2 199:1 989:1 990:1 1034:1 1035:1 1036:1 
-1 -1 1 1 1 0:2 11:1 18:1 20:1 27:1 62:1 93:1 614:1 702:1 1003:1 1037:1 1038:1 1039:1 1040:1 
-1 -1 1 1 1 0:2 11:1 12:1 18:1 27:1 62:1 125:1 126:1 156:1 832:2 1041:1 1042:1 
-1 -1 1 1 1 0:2 11:1 12:1 18:1 30:2 88:1 158:1 171:1 173:1 196:1 204:1 989:1 1043:1 1044:1 1045:1 1046:1 1047:1 
-1 -1 1 1 1 0:2 11:1 12:1 16:1 20:1 26:1 27:1 33:1 62:1 199:1 237:1 280:1 832:1 873:1 1048:1 1049:1 1050:1 
-1 -1 1 1 1 0:2 12:1 27:1 44:1 49:1 66:2 71:1 189:1 237:1 240:1 412:1 832:1 989:1 1051:1 1052:1 
-1 -1 1 1 1 0:2 12:1 20:1 30:1 33:1 51:1 106:1 109:1 110:1 209:1 989:1 1053:1 1054:1 
-1 -1 1 1 0.7749384671396899 0:2 11:3 12:3 16:1 18:1 20:3 27:1 30:1 41:1 62:1 66:1 84:1 106:1 125:1 171:1 189:1 190:1 245:1 447:1 496:1 688:1 989:1 1000:1 1003:1 1055:1 1056:1 1057:1 1058:1 
-1 -1 1 1 1 0:2 11:2 12:1 20:1 43:1 71:2 173:1 237:1 832:1 935:1 1059:1 1060:1 1061:1 
-1 -1 1 1 1 0:2 5:1 11:1 12:1 16:1 18:1 51:1 62:1 66:1 160:1 173:1 327:1 580:1 751:1 769:1 832:1 1062:1 1063:1 1064:1 
-1 -1 1 1 1 0:2 20:1 62:1 204:1 989:1 1066:1 1067:1 
-1 -1 1 1 1 0:2 16:1 20:1 62:1 301:1 517:1 1068:1 
-1 -1 1 1 1 0:2 5:1 12:2 18:2 30:1 33:2 68:1 71:1 156:1 214:1 850:1 1069:1 1070:1 1071:1 1072:1 1073:1 1074:1 
-1 -1 1 1 1 0:2 8:1 12:1 18:1 33:1 43:1 51:1 71:1 212:1 546:1 832:1 
-1 -1 1 1 0 0:2 11:1 12:1 20:1 30:1 68:1 71:1 84:1 189:1 248:1 832:1 1067:1 1075:1 
-1 -1 1 1 0.4312318980190696 0:2 8:1 11:1 12:2 20:2 27:1 30:1 33:1 35:1 71:2 100:2 144:1 198:1 307:1 486:1 734:1 920:1 981:1 1076:1 1077:1 1078:1 1079:1 1080:1 
-1 -1 1 1 0.9124086540821166 0:2 5:1 8:1 11:2 12:2 16:1 20:1 33:3 49:1 62:1 63:1 71:1 84:1 88:1 91:1 106:1 112:1 125:1 139:1 187:1 189:1 190:2 245:1 315:1 752:1 920:1 921:1 935:1 1081:1 1082:1 1083:1 
-1 -1 1 1 1 0:2 11:1 62:1 84:1 88:1 171:1 187:1 189:1 390:1 1084:1 
-1 -1 1 1 1 0:2 11:1 12:1 30:1 66:1 71:1 77:1 96:1 139:1 314:1 316:1 320:1 531:1 1085:1 1086:1 1087:1 1088:1 
-1 -1 1 1 1 0:2 8:1 11:1 12:1 16:1 17:1 18:2 33:1 62:1 71:1 73:1 75:1 84:1 189:1 1089:1 1090:1 1091:1 1092:1 1093:1 
-1 -1 1 1 0.9283155399128953 0:2 5:1 11:1 18:1 33:1 60:1 64:1 71:1 96:1 100:1 156:1 372:1 486:1 799:1 838:1 979:1 1094:1 
-1 -1 1 1 1 0:2 20:1 44:1 66:1 100:1 314:1 799:1 832:1 1095:1 1096:1 
-1 -1 1 1 1 0:2 71:1 88:1 115:1 132:1 144:1 171:1 174:1 249:1 294:1 474:1 975:1 1097:1 
-1 -1 1 1 0 0:2 62:2 71:1 73:1 84:1 189:1 257:1 264:1 315:1 392:1 799:1 919:1 1067:1 1098:1 1099:1 
-1 -1 1 1 0.06981872653381591 0:2 12:1 16:1 62:1 71:2 89:1 99:1 144:1 156:1 280:1 420:1 1100:1 1101:1 
-1 -1 1 1 0 0:2 5:2 12:2 16:1 18:1 30:2 62:2 71:1 73:2 75:1 77:1 80:1 84:1 88:1 100:1 101:1 156:1 189:1 211:1 327:1 425:1 799:1 832:1 1095:1 1102:1 
-1 -1 1 1 1 0:2 110:1 632:1 799:1 
-1 -1 1 1 1 0:2 110:1 658:1 
-1 -1 1 1 0 0:2 33:1 54:2 62:1 84:2 85:1 88:1 125:1 126:1 144:1 189:2 199:1 488:2 572:1 832:1 873:1 969:2 1103:1 1104:1 1105:1 
-1 -1 1 1 1 0:2 5:2 11:1 16:1 18:1 41:1 62:1 66:1 73:1 88:1 100:1 131:1 134:1 144:1 171:2 173:1 452:1 512:1 575:1 728:1 810:1 818:1 911:1 1106:1 1107:1 
-1 -1 1 1 0 0:2 12:2 18:1 54:1 69:1 110:1 189:1 291:1 873:1 876:1 951:1 1108:1 
-1 -1 1 1 1 0:2 5:3 16:1 18:2 27:1 44:2 51:1 60:1 71:1 144:1 156:1 315:1 425:1 470:1 720:1 913:1 1109:1 1110:1 1111:1 1112:1 
-1 -1 1 1 1 0:2 963:1 
-1 -1 1 1 1 0:2 12:1 110:1 178:1 799:1 
-1 -1 1 1 1 0:2 110:1 960:1 
-1 -1 1 1 1 0:2 291:1 873:1 
-1 -1 1 1 1 0:2 54:1 62:1 263:1 1113:1 1114:1 
-1 -1 1 1 1 0:2 54:1 430:1 
-1 -1 1 1 0.5170526114930816 0:2 5:1 8:1 16:1 18:1 20:1 30:1 33:2 49:1 58:1 62:1 71:1 85:1 88:1 100:1 124:1 128:1 156:1 263:1 313:1 339:1 351:1 362:1 430:1 1065:1 1115:1 
-1 -1 1 1 0 0:2 5:2 18:1 20:1 27:1 28:1 54:1 60:1 71:1 84:1 85:1 88:2 100:1 110:1 156:1 171:1 187:1 189:1 203:1 315:1 470:1 837:1 1116:1 1117:1 1118:1 1119:1 1120:1 1121:1 1122:1 
-1 -1 1 1 1 0:2 18:2 20:1 69:1 110:1 369:1 688:1 876:1 877:1 973:1 1123:1 1124:1 
-1 -1 1 1 1 0:2 54:1 1116:1 
-1 -1 1 1 1 0:2 11:2 18:1 66:1 84:1 156:1 189:1 198:1 383:1 981:1 
-1 -1 1 1 1 0:2 5:1 54:1 84:1 485:1 540:1 1125:1 1126:1 
-1 -1 1 1 1 0:2 11:1 16:1 529:1 728:1 1127:1 
-1 -1 1 1 0 0:2 5:1 11:2 18:1 20:1 54:1 62:1 77:1 84:2 100:1 144:1 187:1 189:1 252:1 263:1 283:1 284:1 548:1 596:1 728:1 1128:1 
-1 -1 1 1 1 0:2 12:1 960:1 1129:1 1130:1 
-1 -1 1 1 0 0:2 5:1 11:1 16:1 20:1 62:1 71:1 171:1 189:1 295:1 529:2 595:1 728:1 877:1 1131:1 
-1 -1 1 1 1 0:2 5:1 12:2 20:1 33:1 51:1 66:1 84:1 88:1 94:1 100:1 105:1 144:1 158:1 187:1 291:1 529:1 613:1 881:1 882:1 890:1 930:1 1132:1 1133:1 1134:1 
-1 -1 1 1 1 0:2 110:1 307:1 
-1 -1 1 1 1 0:2 1135:1 
-1 -1 1 1 0 0:2 5:1 12:1 20:1 54:1 73:1 97:1 110:1 156:1 158:1 481:1 799:1 1136:1 1137:1 1138:1 1139:1 
-1 -1 1 1 0 0:2 12:1 16:2 84:1 88:1 171:1 189:1 263:1 529:1 1140:1 
-1 -1 1 1 1 0:2 960:1 
-1 -1 1 1 1 0:2 110:1 137:1 
-1 -1 1 1 1 0:2 12:1 178:1 284:1 799:1 
-1 -1 1 1 1 0:2 284:1 488:2 1141:1 
-1 -1 1 1 1 0:2 110:1 137:1 
-1 -1 1 1 1 0:2 488:1 1142:1 1143:1 
-1 -1 1 1 0 0:2 8:1 12:1 16:1 20:1 33:1 54:2 69:1 71:1 84:2 144:2 189:2 263:3 284:1 339:1 488:2 876:1 877:1 
-1 -1 1 1 1 0:2 54:1 71:1 263:1 
-1 -1 1 1 1 0:2 62:1 110:1 180:1 
-1 -1 1 1 0 0:2 12:1 16:2 54:1 62:1 73:1 84:2 124:1 144:1 173:1 189:2 263:1 291:1 307:1 
-1 -1 1 1 1 0:2 11:1 54:1 529:1 1144:1 
-1 -1 1 1 1 0:2 144:1 1145:1 
-1 -1 1 1 1 0:2 4:1 5:2 8:1 11:2 54:1 62:1 84:1 110:1 113:1 187:1 353:1 529:1 877:1 1146:1 1147:1 1148:1 1149:1 
-1 -1 1 1 0 0:2 5:2 11:2 18:1 33:1 62:1 75:1 84:2 110:1 144:1 189:2 284:2 457:1 632:1 660:1 969:1 1150:1 1151:1 1152:1 
-1 -1 1 1 1 0:2 54:1 384:1 488:1 717:1 877:1 1143:1 
-1 -1 1 1 1 0:2 11:1 54:1 62:1 71:1 437:1 660:1 1101:1 1153:1 
-1 -1 1 1 1 0:2 11:1 12:1 54:1 62:1 88:1 89:1 100:1 101:1 109:1 110:1 187:1 485:1 493:1 529:1 1154:1 
-1 -1 1 1 0 0:2 54:1 84:1 144:1 189:1 196:1 
-1 -1 1 1 1 0:2 5:1 11:1 12:1 16:1 30:1 110:1 198:1 529:1 586:1 594:1 877:1 919:1 946:1 1155:1 1156:1 
-1 -1 1 1 1 0:2 11:1 12:1 15:1 16:1 27:1 33:1 73:1 85:1 127:1 134:1 170:1 529:1 1157:1 1158:1 
-1 -1 1 1 0 0:2 5:1 18:1 28:1 30:1 54:1 84:1 109:1 128:1 189:1 649:1 681:1 1159:1 
-1 -1 1 1 1 0:2 5:1 54:1 66:1 87:1 88:1 283:1 284:1 353:1 456:1 
-1 -1 1 1 1 0:2 8:1 12:1 54:1 66:1 88:1 200:1 211:1 456:1 529:1 1160:1 1161:1 
-1 -1 1 1 1 0:2 5:2 8:1 11:1 12:3 20:1 51:2 62:1 66:1 67:1 71:1 74:1 77:1 88:3 97:1 124:1 144:1 161:1 211:1 216:1 290:1 456:1 529:2 710:1 740:1 832:1 837:1 873:1 881:1 1162:1 1163:1 1164:1 
-1 -1 1 1 1 0:2 5:2 8:1 11:2 12:4 20:2 30:1 33:1 62:2 66:1 70:1 71:1 73:1 77:1 84:1 88:2 129:1 173:1 196:1 200:2 216:2 301:1 307:1 384:1 707:1 728:1 799:1 837:1 857:1 1067:1 1101:1 1163:2 1165:1 1166:1 1167:1 1168:1 
-1 -1 1 1 1 0:2 11:1 16:1 189:1 418:1 586:1 1169:1 
-1 -1 1 1 0.7538802355206694 0:2 5:1 11:2 12:3 16:1 18:1 30:1 33:2 44:2 66:1 71:1 84:1 88:1 156:2 173:1 189:1 200:1 284:1 291:1 437:1 484:1 512:1 693:1 720:1 859:1 896:1 938:1 1170:1 1171:1 1172:1 1173:1 1174:1 1175:1 
-1 -1 1 1 1 0:2 11:1 12:1 30:1 33:1 54:1 62:1 66:1 187:1 188:1 517:1 786:1 919:1 1177:1 1178:1 1179:1 1180:1 
-1 -1 1 1 1 0:2 11:1 12:1 16:1 18:2 20:1 33:2 51:1 84:1 125:1 126:1 188:1 189:1 200:1 237:1 307:1 420:1 538:1 628:1 832:1 
-1 -1 1 1 1 0:2 12:1 18:2 20:2 35:1 62:1 71:1 77:1 203:1 258:1 284:1 837:1 1181:1 1182:1 
-1 -1 1 1 1 0:2 5:1 8:2 12:2 51:1 62:1 71:1 79:1 84:1 88:1 158:1 187:1 189:1 309:1 586:1 1183:1 1184:1 1185:1 1186:1 1187:1 1188:1 
-1 -1 1 1 0.7838172846707343 0:2 8:1 12:2 18:2 30:1 62:1 85:1 86:1 100:2 137:1 263:1 289:1 537:1 586:1 637:1 720:1 832:1 
-1 -1 1 1 1 0:2 12:2 16:1 53:1 83:1 144:1 1189:1 1190:1 1191:1 1192:1 
-1 -1 1 1 1 0:2 5:1 6:1 51:1 84:1 335:1 336:1 
-1 -1 1 1 1 0:2 16:1 62:1 88:1 171:1 188:1 728:1 1193:1 
-1 -1 1 1 1 0:2 51:1 81:1 
-1 -1 1 1 1 0:2 5:1 11:1 33:1 43:1 66:1 88:1 139:1 156:1 171:1 190:1 212:1 368:1 529:1 767:1 961:1 976:1 1117:1 1194:1 1195:1 1196:1 1197:1 1198:1 
-1 -1 1 1 1 0:2 11:1 12:1 30:1 33:1 49:1 263:1 351:1 362:1 363:1 364:1 371:1 403:1 529:1 1199:1 
-1 -1 1 1 1 0:2 11:1 84:1 173:1 1200:1 1201:1 
-1 -1 1 1 0 0:2 5:1 11:1 12:2 43:1 88:1 100:2 144:1 156:1 171:1 188:1 212:1 280:1 368:1 529:1 707:1 728:1 787:1 832:1 976:1 1196:1 1202:1 1203:1 1204:1 
-1 -1 1 1 1 0:2 84:1 144:1 471:1 
-1 -1 1 1 1 0:2 5:1 11:1 16:1 30:1 41:1 66:1 84:2 127:1 607:1 728:1 1095:1 1205:1 1206:1 
-1 -1 1 1 1 0:2 12:2 51:1 54:1 60:1 62:1 74:1 84:1 189:1 837:1 1207:1 1208:1 1209:1 1210:1 
-1 -1 1 1 0 0:2 12:1 84:1 144:2 568:1 767:1 799:1 1192:1 
-1 -1 1 1 1 0:2 54:1 633:1 
-1 -1 1 1 0 0:2 30:1 33:1 54:1 93:1 125:1 126:1 156:1 158:1 632:1 799:1 
-1 -1 1 1 0.2668649527036229 0:2 5:1 12:1 16:1 33:1 49:1 88:1 144:1 171:1 189:1 198:1 237:1 404:1 919:1 1211:1 1212:1 1213:1 
-1 -1 1 1 0.9002694067414984 0:2 5:1 8:1 11:2 12:4 18:3 27:1 30:2 33:3 66:1 68:1 71:1 73:1 79:1 82:1 83:1 88:2 115:1 125:1 126:1 156:2 189:1 201:1 214:1 254:1 263:1 418:2 447:1 720:1 767:1 788:1 789:1 815:1 832:1 919:1 1037:1 1214:1 1215:1 1216:1 1217:1 1218:1 1219:1 
-1 -1 1 1 0 0:2 5:2 11:3 12:1 30:2 33:2 62:2 71:2 75:2 84:2 88:2 89:1 115:1 139:1 144:1 146:1 156:1 171:1 187:1 223:1 232:1 281:1 447:1 720:1 756:2 767:2 843:1 845:1 1104:1 1220:1 1221:1 1222:1 
-1 -1 1 1 0.7582040283016076 0:2 5:1 12:1 16:1 18:1 27:2 30:2 33:1 60:1 62:1 79:1 84:1 88:2 96:1 100:1 106:2 112:1 189:1 216:1 237:1 307:1 328:1 364:1 799:1 1163:1 1223:1 1224:1 1225:1 1226:1 1227:1 1228:1 
-1 -1 1 1 1 0:2 12:1 20:1 214:1 250:1 364:1 488:1 969:1 
-1 -1 1 1 1 0:2 12:1 33:1 60:1 144:1 1229:1 1230:1 
-1 -1 1 1 1 0:2 5:1 144:1 1231:1 1232:1 
-1 -1 1 1 1 0:2 12:2 30:2 33:1 100:1 109:1 220:1 284:1 488:1 586:1 956:1 1233:1 
-1 -1 1 1 1 0:2 5:1 12:3 49:1 62:1 71:1 209:1 284:1 586:1 630:1 799:1 1232:1 1234:1 1235:1 
-1 -1 1 1 1 0:2 11:1 12:2 20:1 38:1 51:1 54:1 62:1 75:1 96:1 301:1 434:1 572:1 712:1 727:1 832:1 904:1 1204:1 1236:1 1237:1 1238:1 1239:1 
-1 -1 1 1 0 0:2 12:2 16:1 18:2 20:1 30:1 62:1 100:1 106:1 187:1 259:1 291:1 529:1 688:1 786:1 799:1 832:1 1240:1 1241:1 1242:1 
-1 -1 1 1 0 0:2 18:1 54:2 88:1 100:1 189:2 216:1 263:1 911:2 1030:1 1243:1 
-1 -1 1 1 1 0:2 12:1 16:2 30:1 110:1 144:1 183:1 204:1 501:1 854:1 900:1 915:1 1244:1 1245:1 1246:1 
-1 -1 1 1 1 0:2 488:2 1142:1 1143:1 
-1 -1 1 1 0.8303934487386521 0:2 12:2 18:1 20:1 27:1 33:1 43:1 49:1 71:1 73:1 88:1 171:1 187:2 196:1 245:1 252:1 254:1 380:1 488:1 529:1 799:1 
-1 -1 1 1 0 0:2 5:1 12:2 16:1 18:1 20:1 64:1 71:1 84:1 105:1 144:1 189:1 212:1 254:1 267:1 301:1 425:1 606:1 857:1 888:1 1247:1 1248:1 1249:1 
-1 -1 1 1 1 0:2 110:1 132:1 
-1 -1 1 1 1 0:2 5:1 11:1 20:1 33:1 35:1 71:1 112:1 292:1 832:1 873:1 1067:1 1247:1 1250:1 
-1 -1 1 1 0 0:2 12:1 16:1 20:1 30:1 52:1 54:1 60:1 71:1 77:1 84:1 88:1 94:1 156:1 165:1 189:1 508:1 911:1 1227:1 1251:1 1252:1 1253:1 1254:1 
-1 -1 1 1 1 0:2 12:1 60:1 71:1 96:1 97:1 139:1 191:1 319:1 353:1 447:1 517:1 1255:2 1256:1 
-1 -1 1 1 0 0:2 5:1 8:1 12:1 18:1 20:2 75:1 80:1 84:1 97:1 237:1 263:1 301:1 376:1 529:1 580:1 688:1 832:1 854:1 1257:1 1258:1 
-1 -1 1 1 1 0:2 5:1 30:1 62:1 144:1 609:1 660:1 832:1 1259:1 
-1 -1 1 1 1 0:2 5:3 12:1 16:3 18:1 33:1 60:1 62:1 110:1 144:2 199:1 284:1 285:1 529:1 607:1 720:1 749:1 824:1 919:1 1142:1 1260:1 
-1 -1 1 1 0 0:2 8:1 12:1 20:1 33:1 54:1 69:1 84:1 144:1 189:1 263:2 284:1 339:1 876:1 877:1 
-1 -1 1 1 0.1070743771754801 0:2 5:2 89:1 105:1 110:3 187:1 284:1 1261:1 
-1 -1 1 1 1 0:2 11:1 60:1 171:1 189:1 586:1 
-1 -1 1 1 1 0:2 16:1 17:1 18:1 79:1 919:1 1262:1 1263:1 
-1 -1 1 1 0 0:2 5:1 12:2 20:2 27:1 44:1 54:2 62:1 63:1 79:1 84:1 88:2 156:1 187:1 189:3 223:1 232:1 315:1 361:1 586:1 786:1 911:2 912:1 1137:1 1197:1 1264:1 1265:1 1266:1 1267:1 
-1 -1 1 1 0 0:2 8:1 12:1 20:1 54:2 62:2 110:1 124:1 189:1 284:2 960:1 
-1 -1 1 1 0 0:2 11:1 12:1 16:1 18:1 20:1 30:1 44:1 63:1 84:2 110:2 115:1 124:1 187:1 189:1 190:1 432:1 873:1 924:1 925:1 1067:1 1103:1 
-1 -1 1 1 1 0:2 20:1 33:1 70:1 110:1 580:1 873:1 1136:1 1269:1 
-1 -1 1 1 0 0:2 54:1 110:1 189:1 
-1 -1 1 1 0.9301812734661841 0:2 16:1 54:1 84:1 198:1 
-1 -1 -1 1 0.2800957566265436 0:2 1:1 2:1 3:1 4:1 5:1 6:1 7:1 8:1 9:1 
-1 -1 -1 1 1 0:2 10:1 11:2 12:1 13:1 14:1 15:1 16:1 
-1 -1 -1 1 1 0:2 17:1 18:1 19:1 20:1 21:1 
-1 -1 -1 1 0.8200471886081933 0:2 5:2 8:1 12:2 18:1 20:1 22:1 23:1 24:1 25:1 26:1 27:1 28:1 29:1 30:1 31:1 32:1 33:1 34:1 35:1 36:1 37:1 
-1 -1 -1 1 0.6570308486882465 0:2 5:1 7:1 8:1 9:1 11:1 12:1 33:1 38:1 39:1 40:1 41:1 42:1 43:1 44:1 
-1 -1 -1 1 1 0:2 5:1 11:1 16:1 30:1 31:1 42:1 45:1 46:1 47:1 48:1 49:1 50:1 51:1 
-1 -1 -1 1 1 0:2 18:2 31:1 32:1 36:1 52:1 53:1 54:1 55:1 
-1 -1 -1 1 1 0:2 11:1 20:1 44:1 56:1 57:1 58:1 
-1 -1 -1 1 1 0:2 16:1 51:1 59:1 
-1 -1 -1 1 1 0:2 2:1 3:1 21:1 27:1 60:1 
-1 -1 -1 1 1 0:2 37:1 54:1 263:1 
-1 -1 -1 1 0 0:2 5:1 8:1 11:1 12:2 30:1 33:1 45:1 46:1 48:1 54:2 55:1 62:1 63:1 64:1 65:1 66:1 67:1 68:1 69:1 70:1 71:1 72:1 73:1 
-1 -1 -1 1 1 0:2 54:1 74:1 
-1 -1 -1 1 1 0:2 5:1 12:2 30:1 33:2 51:1 62:1 63:1 66:1 75:1 76:1 77:1 78:1 79:1 80:1 81:1 82:1 83:1 84:1 85:1 86:1 87:1 88:1 89:1 
-1 -1 -1 1 0.8951920738549921 0:2 12:1 33:1 71:1 89:1 90:1 91:1 92:1 93:1 
-1 -1 -0 1 0 0:2 5:1 11:1 12:2 27:1 45:1 46:1 48:1 60:1 62:1 80:1 94:1 95:1 96:1 97:1 98:1 99:1 100:1 
-1 -1 -1 1 1 0:2 18:1 44:1 101:1 102:1 
-1 -1 -0.1615853532259405 1 0 0:2 33:1 48:1 62:1 103:1 104:1 
-1 -1 -1 1 1 0:2 75:1 
-1 -1 -1 1 1 0:2 33:1 105:1 106:1 
-1 -1 -0 1 1 0:2 11:1 30:2 62:1 107:1 108:1 109:1 110:2 
-1 -1 -0 1 0.7105845004437938 0:2 12:1 21:1 62:1 88:1 111:1 112:1 113:1 
-1 -1 -1 1 0 0:2 8:1 12:1 20:1 30:1 33:1 45:1 46:1 66:1 71:1 77:1 84:1 100:1 101:1 114:1 115:1 116:1 117:1 118:1 119:1 120:1 121:1 122:1 
-1 -1 -1 1 0 0:2 11:1 12:1 27:1 33:1 48:1 54:2 55:1 93:1 100:1 113:1 115:1 124:1 125:1 126:1 
-1 -1 -1 1 1 0:2 11:1 12:1 54:1 73:1 127:1 128:1 129:1 
-1 -1 -1 1 0.9118423480259598 0:2 5:1 12:1 21:1 30:1 33:1 60:1 73:1 79:2 88:1 130:1 131:1 132:1 133:1 
-1 -1 -1 1 1 0:2 5:1 12:1 18:1 22:1 28:1 30:1 100:1 134:1 135:1 136:1 137:1 
-1 -1 -1 1 0 0:2 5:1 11:2 16:1 33:1 48:2 60:1 96:1 138:1 139:1 140:1 141:1 
-1 -1 -1 1 1 0:2 11:1 54:1 73:1 142:1 
-1 -1 -1 1 0.6127691166004549 0:2 27:1 33:1 48:1 62:1 71:1 143:1 144:1 145:1 146:1 147:1 148:1 
-1 -1 -0 1 0 0:2 8:1 18:1 33:1 43:1 48:1 62:1 71:1 125:1 126:1 148:1 149:1 150:1 
-1 -1 -1 1 1 0:2 5:1 12:1 16:1 45:1 46:1 151:1 152:1 153:1 
-1 -1 -1 1 0 0:2 12:1 33:1 62:2 88:1 139:1 154:1 155:1 156:1 157:1 158:1 159:1 
-1 -1 -1 1 1 0:2 11:1 48:1 62:1 66:1 84:1 88:1 120:1 160:1 161:1 
-1 -1 -0 1 0.08494787276258683 0:2 5:1 11:1 18:1 30:1 48:1 62:2 71:1 107:1 138:1 162:1 163:1 164:1 165:1 166:1 
-1 -1 -0 1 1 0:2 11:1 21:1 43:1 62:1 112:1 115:1 149:1 167:1 168:1 
-1 -1 -1 1 1 0:2 5:1 12:1 17:1 73:1 89:1 96:1 105:1 169:1 170:1 171:1 
-1 -1 -1 1 1 0:2 11:2 12:1 30:1 62:2 66:1 81:1 97:1 158:1 172:1 173:1 174:1 175:1 
-1 -1 -1 1 0 0:2 110:2 176:1 177:1 
-1 -1 -1 1 1 0:2 178:1 
-1 -1 -0 1 1 0:2 21:1 62:1 88:1 112:1 179:1 
-1 -1 -0.3392665435605932 1 1 0:2 11:1 12:1 62:1 71:1 107:1 180:1 181:1 
-1 -1 -0 1 1 0:2 8:1 12:1 20:1 21:1 48:1 51:1 164:1 182:1 
-1 -1 -1 1 1 0:2 5:1 12:1 16:1 18:1 33:2 89:1 93:1 125:1 126:1 183:1 184:1 185:1 186:1 187:1 188:1 
-1 -1 -1 1 1 0:2 54:1 189:1 
-1 -1 -1 1 1 0:2 5:2 11:2 12:1 16:1 33:1 48:1 62:2 75:1 85:1 88:1 125:1 126:1 164:1 174:1 190:1 191:1 192:1 193:1 
-1 -1 -0 1 0 0:2 5:1 18:1 21:1 25:1 45:1 46:1 48:1 62:1 63:1 71:1 148:1 194:1 
-1 -1 -1 1 0 0:2 5:1 12:2 30:1 48:1 71:1 85:1 88:2 100:1 107:1 195:1 196:1 197:1 198:1 199:2 200:1 201:1 
-1 -1 -1 1 1 0:2 11:1 12:1 18:1 20:1 51:1 130:1 202:1 203:1 
-1 -1 -1 1 1 0:2 11:1 12:1 20:1 21:1 30:1 88:1 158:1 171:1 204:1 205:1 206:1 207:1 208:1 
-1 -1 -1 1 0.671610624604863 0:2 5:1 11:1 12:2 20:2 30:1 43:1 48:1 62:2 107:1 139:1 207:1 209:2 210:1 211:1 212:1 213:1 214:1 215:1 
-1 -1 -1 1 1 0:2 5:1 8:1 51:1 62:1 75:1 88:1 216:1 217:1 
-1 -1 -1 1 1 0:2 16:1 75:1 
-1 -1 -1 1 1 0:2 11:1 33:1 71:1 218:1 219:1 220:1 
-1 -1 -1 1 1 0:2 5:1 11:1 12:2 21:1 30:2 33:1 51:1 62:2 83:1 88:1 199:1 205:1 206:1 221:1 222:1 223:1 224:1 225:1 226:1 227:1 228:1 229:1 230:1 231:1 
-1 -1 -1 1 1 0:2 5:1 12:1 21:1 27:1 88:2 96:1 232:1 233:1 234:1 235:1 236:1 237:1 238:1 
-1 -1 -1 1 1 0:2 11:2 12:1 27:1 33:1 62:2 94:1 154:1 197:1 239:1 240:1 241:1 242:1 243:1 
-1 -1 -1 1 1 0:2 11:1 16:1 85:1 125:1 126:1 188:1 191:1 244:1 
-1 -1 -1 1 1 0:2 11:1 12:1 20:1 27:1 33:1 49:1 62:1 71:1 107:1 155:1 164:1 165:1 188:1 245:1 246:1 
-1 -1 -1 1 1 0:2 5:1 11:4 16:1 27:1 33:1 63:1 88:1 100:1 160:1 190:2 198:1 247:1 248:1 249:1 
-1 -1 -1 1 0.5391377267226778 0:2 11:1 12:2 18:2 21:1 33:1 41:1 62:1 77:1 84:1 88:1 89:1 100:3 198:1 214:2 232:1 250:1 251:1 
-1 -1 -1 1 1 0:2 5:2 12:1 16:1 18:1 21:1 62:1 75:2 84:1 139:1 205:1 206:1 220:1 252:1 253:1 254:1 255:1 
-1 -1 -1 1 0 0:2 48:1 62:1 256:1 257:1 
-1 -1 -1 1 1 0:2 11:1 12:2 16:1 27:1 30:1 71:1 88:1 89:1 100:1 109:1 112:1 156:1 256:1 258:1 259:1 260:1 261:1 262:1 
-1 -1 -0 1 0 0:2 48:1 62:1 110:2 
-1 -1 -1 1 1 0:2 54:1 128:1 187:1 263:1 
-1 -1 -1 1 1 0:2 12:1 51:1 62:1 125:1 126:1 264:1 265:1 266:1 
-1 -1 -1 1 0.03205840297616277 0:2 8:1 12:1 20:1 33:2 62:2 71:1 93:1 156:2 256:1 267:1 268:1 269:1 270:1 271:1 272:1 
-1 -1 -1 1 1 0:2 12:1 33:1 85:1 88:1 100:1 273:1 274:1 275:1 276:1 
-1 -1 -1 1 0.068586836367535 0:2 5:1 12:1 18:1 20:1 62:1 71:2 77:1 88:1 96:1 100:1 125:1 126:1 199:1 205:1 206:1 277:1 278:1 279:1 280:1 281:1 282:1 
-1 -1 -1 1 1 0:2 11:2 30:1 51:1 89:1 144:1 283:1 284:1 285:1 
-1 -1 -0.1445511851964297 1 0 0:2 8:3 12:1 62:1 71:1 88:3 100:2 107:1 161:2 286:1 287:1 288:1 289:1 
-1 -1 -1 1 1 0:2 11:1 12:1 18:1 62:1 89:1 280:1 283:1 284:1 290:1 
-1 -1 -1 1 0.6926271990835772 0:2 5:2 8:1 11:1 12:1 16:1 18:1 20:2 27:1 33:1 41:1 48:1 62:1 100:1 107:1 139:1 154:1 155:1 171:1 291:1 292:1 293:1 294:2 295:1 296:1 297:1 298:1 299:1 300:1 301:1 
-1 -1 -1 1 1 0:2 5:1 11:1 12:2 17:1 18:3 20:1 21:1 27:1 35:1 62:1 66:1 71:1 80:1 88:1 100:1 124:1 144:1 209:1 297:1 302:1 303:1 304:1 305:1 306:1 307:1 308:1 309:1 
-1 -1 -1 1 1 0:2 11:1 18:1 20:1 27:1 30:1 43:1 66:1 88:1 89:1 310:1 311:1 312:1 313:1 314:1 
-1 -1 -1 1 1 0:1 
-1 -1 -1 1 1 0:2 11:1 12:2 33:1 44:1 62:1 66:1 71:1 84:1 89:1 155:1 187:1 219:1 291:1 318:1 319:1 320:1 321:1 322:1 
-1 -1 -0 1 0.404398361043195 0:2 5:2 8:1 11:1 21:1 62:2 66:1 71:2 79:1 83:1 85:1 88:2 107:2 151:1 160:1 274:1 323:1 324:1 325:1 326:1 327:1 328:1 
-1 -1 -1 1 1 0:2 5:1 20:1 21:1 22:1 33:1 35:1 51:1 71:1 131:1 156:1 329:1 
-1 -1 -1 1 0.5797516910858213 0:2 11:2 12:1 27:1 43:1 62:1 71:1 107:1 115:1 131:1 144:2 169:1 330:1 331:1 332:1 333:1 
-1 -1 -1 1 0 0:2 11:1 48:1 54:1 55:1 62:1 144:1 334:1 335:1 336:1 
-1 -1 -1 1 1 0:2 12:1 37:1 124:1 337:1 
-1 -1 -1 1 1 0:2 51:1 338:1 
-1 -1 -1 1 0.4994936142042693 0:2 5:1 11:2 48:1 62:1 97:1 130:1 144:1 156:1 157:1 263:1 267:1 339:1 340:1 341:1 
-1 -1 -1 1 1 0:2 12:1 16:1 18:1 20:1 21:1 35:1 48:1 51:1 54:1 62:1 66:1 71:1 88:1 171:1 252:1 294:1 315:1 342:1 343:1 344:1 345:1 346:1 
-1 -1 -1 1 0.3483150179623838 0:2 12:1 30:1 62:1 71:1 79:1 88:1 107:1 347:1 348:1 349:1 350:1 
-1 -1 -1 1 0 0:2 12:1 33:1 48:1 49:1 71:1 351:1 352:1 353:1 
-1 -1 -1 1 0 0:2 5:1 12:1 21:1 26:1 27:1 30:1 33:1 48:1 62:2 88:1 125:1 126:1 144:1 279:1 283:1 284:1 292:1 354:1 
-1 -1 -1 1 0.3382209228851671 0:2 5:2 27:1 30:1 33:1 48:1 62:1 71:1 88:1 107:1 115:1 165:1 353:1 355:1 356:1 357:1 358:1 359:1 
-1 -1 -1 1 1 0:2 11:1 12:1 30:1 33:1 49:1 149:1 351:1 360:1 361:1 362:1 363:1 364:1 
-1 -1 -0 1 0 0:2 5:1 12:2 18:1 49:1 62:2 71:1 77:1 101:1 107:1 200:1 351:1 365:1 366:1 367:1 368:1 369:1 370:1 
-1 -1 -1 1 1 0:2 11:1 33:1 48:1 60:1 62:1 96:1 141:1 371:1 372:1 
-1 -1 -1 1 0.6953043997676122 0:2 11:2 12:1 37:1 48:1 62:1 124:1 144:1 373:1 374:1 
-1 -1 -1 1 1 0:2 5:1 16:1 20:1 21:1 30:1 33:1 62:1 66:1 71:1 81:1 128:1 144:1 165:1 252:1 283:1 284:1 375:1 376:1 
-1 -1 -1 1 1 0:2 5:1 8:1 12:1 27:1 30:1 71:1 79:1 88:1 107:1 115:1 348:1 377:1 
-1 -1 -1 1 0 0:2 12:1 18:2 20:2 21:1 43:2 62:1 80:1 97:1 100:2 199:1 203:1 212:1 295:1 378:1 379:1 380:1 
-1 -1 -1 1 1 0:2 5:1 8:1 11:1 18:1 30:1 44:1 62:1 66:1 84:1 88:2 199:1 367:1 381:1 382:1 383:1 384:1 385:1 386:1 387:1 388:1 
-1 -1 -1 1 1 0:2 11:1 12:1 16:1 66:1 75:1 84:1 139:1 144:1 389:1 390:1 391:1 392:1 393:1 
-1 -1 -1 1 1 0:2 5:1 8:1 20:1 21:1 27:1 33:2 44:1 62:1 71:1 84:1 88:1 89:1 109:1 189:1 390:1 394:1 395:1 396:1 
-1 -1 -1 1 0 0:2 8:1 12:1 18:2 20:1 30:2 33:1 62:1 71:1 93:1 100:1 132:1 196:1 283:1 284:1 291:1 295:1 313:1 397:1 398:1 399:1 400:1 401:1 402:1 403:1 
-1 -1 -1 1 1 0:2 5:1 11:3 12:1 16:1 18:2 27:1 30:1 43:1 71:1 77:1 78:1 79:1 88:1 148:1 171:1 191:1 281:1 367:1 381:1 390:1 404:1 405:1 406:1 407:1 408:1 
-1 -1 -1 1 1 0:2 5:1 11:1 16:1 18:2 20:1 21:1 33:1 51:1 53:1 62:1 89:1 100:1 116:1 252:1 283:1 284:1 290:1 
-1 -1 -1 1 0 0:2 5:1 8:1 16:1 18:1 33:1 48:1 62:2 66:1 71:2 85:1 88:1 154:1 302:1 409:1 410:1 411:1 412:1 413:1 
-1 -1 -1 1 0 0:2 12:2 20:1 44:1 62:1 71:2 83:1 84:1 85:1 88:1 161:1 186:1 187:1 414:1 415:1 416:1 417:1 418:1 419:1 420:1 421:1 
-1 -1 -1 1 1 0:2 12:1 44:1 51:1 88:1 110:2 171:1 216:1 315:1 384:1 422:1 423:1 
-1 -1 -1 1 0.7697807067680398 0:2 12:1 18:1 21:1 73:1 84:1 85:1 139:1 424:1 425:1 426:1 
-1 -1 -1 1 1 0:2 11:2 12:1 49:1 62:1 362:1 363:1 427:1 428:1 429:1 
-1 -1 -1 1 1 0:2 16:1 430:1 
-1 -1 -1 1 1 0:2 5:1 11:1 20:1 21:1 58:1 62:1 89:1 139:1 186:1 431:1 432:1 
-1 -1 -1 1 1 0:2 11:1 12:1 20:1 21:1 27:1 33:1 71:1 79:1 88:1 100:1 263:1 433:1 434:1 435:1 436:1 
-1 -1 -1 1 1 0:2 11:2 12:1 16:1 20:1 62:1 71:1 154:1 437:1 438:1 439:1 440:1 
-1 -1 -1 1 1 0:2 8:1 11:1 12:1 33:1 66:1 88:2 89:1 93:1 441:1 442:1 443:1 444:1 
-1 -1 -1 1 1 0:2 5:1 11:2 12:1 27:1 30:1 44:1 71:1 84:1 88:2 139:1 173:1 186:1 367:1 445:1 446:1 447:1 448:1 449:1 
-1 -1 -1 1 1 0:2 5:1 8:1 11:1 12:1 16:1 66:1 80:1 88:1 100:1 186:1 315:1 376:1 437:1 442:1 450:1 451:1 452:1 
-1 -1 -1 1 1 0:2 5:1 8:1 18:1 33:1 43:1 60:1 71:1 73:1 83:1 88:1 170:1 171:1 231:1 315:1 453:1 454:1 
-1 -1 -1 1 1 0:2 11:2 30:1 54:1 144:1 455:1 456:1 457:1 458:1 
-1 -1 -1 1 1 0:2 12:1 16:1 21:1 459:1 460:1 
-1 -1 -1 1 0.9557423065884809 0:2 5:2 11:2 18:1 48:1 71:1 88:1 139:1 144:1 203:1 353:1 380:1 445:2 456:1 871:1 
-1 -1 -0 1 0 0:2 11:1 12:1 16:1 17:1 18:1 46:1 48:1 62:1 71:1 75:1 462:1 463:1 
-1 -1 -1 1 1 0:2 11:1 12:1 16:1 111:1 190:1 291:1 292:1 389:1 
-1 -1 -1 1 0.1664122551496741 0:2 5:1 12:1 16:1 21:1 48:1 151:1 187:1 464:1 465:1 
-1 -1 -0 1 0 0:2 5:1 8:1 12:1 18:1 30:1 33:1 46:1 48:2 62:1 71:2 88:2 107:1 139:1 161:1 171:1 353:1 456:1 466:1 467:1 468:1 469:1 470:1 
-1 -1 -0 1 0 0:2 12:1 27:1 48:1 62:1 71:1 79:1 88:1 107:1 223:1 460:1 471:1 472:1 473:1 
-1 -1 -1 1 0.2329200681639226 0:2 12:1 46:1 71:1 79:1 157:1 174:1 474:1 475:1 476:1 
-1 -1 -0.05695573894050772 1 0.145252410065484 0:2 5:1 12:2 18:1 21:1 27:1 30:1 49:1 80:1 107:1 165:1 283:1 284:1 434:1 451:1 477:1 478:1 
-1 -1 -1 1 1 0:2 18:1 479:1 
-1 -1 -0 1 0 0:2 8:1 12:3 17:1 18:2 33:1 48:2 62:2 63:1 71:1 75:1 237:1 480:1 481:1 482:1 
-1 -1 -1 1 0.9679415970238372 0:2 8:1 12:2 27:1 30:1 33:2 63:1 71:1 88:3 483:1 484:2 485:1 486:1 487:1 
-1 -1 -1 1 0 0:2 11:1 18:1 33:1 43:1 48:1 67:1 71:1 72:1 89:1 100:1 420:1 
-1 -1 -1 1 1 0:2 8:1 16:1 18:1 33:1 60:1 453:1 488:1 
-1 -1 -1 1 0 0:2 11:1 12:2 30:1 33:1 43:1 48:1 54:1 71:2 77:2 88:1 96:1 148:1 187:1 250:1 445:1 488:1 489:1 490:1 
-1 -1 -0.2350355580798642 1 0 0:2 8:1 11:1 18:1 20:1 43:1 48:1 54:1 62:1 66:1 71:1 83:1 93:1 124:1 488:1 491:1 
-1 -1 -0 1 0 0:2 12:1 62:1 77:1 110:2 492:1 
-1 -1 -1 1 0.2605457898931371 0:2 12:2 18:1 62:1 176:1 283:1 284:1 315:1 
-1 -1 -1 1 1 0:2 18:1 176:1 
-1 -1 -1 1 0 0:2 46:1 488:1 
-1 -1 -0 1 0.8574210607792871 0:2 11:1 12:1 21:1 62:1 73:1 91:1 100:2 107:1 493:1 494:1 495:1 496:1 
-1 -1 -1 1 1 0:2 18:1 497:1 
-1 -1 -1 1 1 0:2 18:1 498:1 
-1 -1 -1 1 1 0:2 44:1 60:1 
-1 -1 -0 1 0.4204080203726415 0:2 5:1 11:1 12:1 18:2 44:1 48:1 71:2 100:1 107:1 118:1 165:1 200:1 329:1 479:1 499:1 500:1 501:1 
-1 -1 -1 1 0 0:2 5:1 12:1 16:1 20:2 48:1 54:1 83:1 100:1 189:1 197:1 231:1 283:1 284:1 301:1 502:1 503:1 
-1 -1 -1 1 1 0:2 5:2 18:1 54:1 71:2 79:1 80:1 112:1 144:1 173:1 291:1 421:1 434:1 451:1 458:1 504:1 505:1 506:1 507:1 
-1 -1 -0 1 0 0:2 5:1 11:1 21:1 33:1 48:1 62:1 79:1 80:1 88:1 165:1 223:1 508:1 509:1 510:1 511:1 
-1 -1 -1 1 1 0:2 8:2 11:1 12:2 20:2 21:1 27:1 33:1 62:1 71:1 154:1 173:1 361:1 437:1 512:1 513:1 514:1 515:1 
-1 -1 -1 1 1 0:2 5:1 11:2 12:1 16:1 30:1 77:1 365:1 437:1 516:1 517:1 
-1 -1 -1 1 1 0:2 12:2 18:1 30:1 33:1 49:1 62:1 106:1 107:1 164:1 173:1 264:1 512:1 518:1 519:1 520:1 521:1 522:1 523:1 524:1 
-1 -1 -1 1 1 0:2 11:1 12:2 20:1 30:1 33:1 77:1 88:1 125:1 126:1 197:1 207:1 211:1 307:1 525:1 
-1 -1 -1 1 0.8184485608206289 0:2 11:2 12:1 33:1 71:1 84:1 89:1 97:1 112:1 139:1 248:1 526:1 527:1 528:1 
-1 -1 -1 1 0 0:2 12:1 18:1 20:1 62:2 71:2 99:1 139:1 198:2 291:1 292:1 468:1 529:2 530:1 531:1 532:1 533:1 534:1 
-1 -1 -1 1 1 0:2 5:1 12:1 18:1 20:2 21:1 30:2 48:1 51:1 172:1 191:1 199:1 494:1 529:1 535:1 536:1 537:1 538:1 539:1 540:1 
